<?xml version="1.0"?>
<opencv_storage>
<default_classifier_name type_id="opencv-ml-svm">
  <svm_type>C_SVC</svm_type>
  <kernel><type>RBF</type>
    <gamma>5.0000000000000000e-01</gamma></kernel>
  <C>1.</C>
  <term_criteria><epsilon>1.1920928955078125e-07</epsilon>
    <iterations>1000</iterations></term_criteria>
  <var_all>8</var_all>
  <var_count>8</var_count>
  <class_count>3</class_count>
  <class_labels type_id="opencv-matrix">
    <rows>1</rows>
    <cols>3</cols>
    <dt>i</dt>
    <data>
      1 2 3</data></class_labels>
  <sv_total>60</sv_total>
  <support_vectors>
    <_>
      1.66246846e-01 1.42317370e-01 3.65239270e-02 1.30982369e-01
      2.54408062e-01 7.30478540e-02 3.27455923e-02 1.63727954e-01</_>
    <_>
      1.56690136e-01 1.84859157e-01 1.14436619e-01 1.51408449e-01
      2.18309850e-01 3.52112651e-02 3.52112669e-03 1.35563374e-01</_>
    <_>
      1.52854517e-01 1.78637207e-01 9.57642719e-02 1.17863722e-01
      2.11786374e-01 9.02394131e-02 3.49907912e-02 1.17863722e-01</_>
    <_>
      1.27105668e-01 9.49464068e-02 5.66615649e-02 2.54211336e-01
      1.88361421e-01 1.13323130e-01 6.27871379e-02 1.02603376e-01</_>
    <_>
      1.99513376e-01 9.97566879e-02 5.35279810e-02 1.43552303e-01
      1.65450126e-01 3.40632610e-02 1.14355229e-01 1.89781025e-01</_>
    <_>
      1.54905334e-01 1.72117040e-01 7.40103275e-02 7.05679879e-02
      2.44406193e-01 1.29087776e-01 1.89328734e-02 1.35972455e-01</_>
    <_>
      1.12927191e-01 1.06983654e-01 1.24814264e-01 1.01040117e-01
      2.88261503e-01 8.32095072e-02 6.68647811e-02 1.15898959e-01</_>
    <_>
      2.24948868e-01 1.71779141e-01 3.27198356e-02 1.26789361e-01
      2.10633948e-01 4.70347628e-02 3.27198356e-02 1.53374225e-01</_>
    <_>
      2.52064317e-02 3.69404592e-02 2.08604950e-02 3.34637091e-02
      3.36375475e-01 3.40721428e-01 9.12646670e-03 1.97305515e-01</_>
    <_>
      1.99570820e-01 2.18884125e-01 1.22317597e-01 1.30901292e-01
      1.28755361e-01 1.26609445e-01 2.36051492e-02 4.93562222e-02</_>
    <_>
      2.07547173e-01 2.57075489e-01 9.66981128e-02 1.17924526e-01
      1.76886797e-01 5.66037744e-02 9.43396240e-03 7.78301880e-02</_>
    <_>
      1.59203976e-01 2.36318409e-01 5.22388034e-02 3.73134315e-02
      2.21393034e-01 1.44278601e-01 1.99004970e-02 1.29353225e-01</_>
    <_>
      1.09913796e-01 1.78879306e-01 3.44827585e-02 2.00431034e-01
      1.78879306e-01 1.25000000e-01 3.23275849e-02 1.40086204e-01</_>
    <_>
      2.75555551e-01 8.22222233e-02 5.55555560e-02 7.77777806e-02
      1.75555557e-01 4.22222242e-02 1.35555565e-01 1.55555561e-01</_>
    <_>
      2.48025283e-01 1.27962083e-01 6.31911531e-02 1.21642970e-01
      1.57977879e-01 8.21484998e-02 6.95102662e-02 1.29541859e-01</_>
    <_>
      1.95822462e-01 1.54046997e-01 6.00522198e-02 2.03655362e-01
      2.34986946e-01 2.34986953e-02 2.34986953e-02 1.04438648e-01</_>
    <_>
      3.01127225e-01 1.40096620e-01 5.95813207e-02 6.60225451e-02
      1.38486311e-01 7.08534643e-02 5.31400964e-02 1.70692429e-01</_>
    <_>
      2.06741571e-01 2.29213491e-01 1.28089890e-01 1.03370786e-01
      1.70786515e-01 6.06741570e-02 2.24719103e-03 9.88764018e-02</_>
    <_>
      1.93617016e-01 2.44680837e-01 9.36170220e-02 9.14893597e-02
      1.82978719e-01 5.31914867e-02 2.34042555e-02 1.17021270e-01</_>
    <_>
      1.36704117e-01 1.12359554e-01 7.67790303e-02 4.86891381e-02
      2.94007480e-01 1.17977530e-01 5.05617969e-02 1.62921354e-01</_>
    <_>
      1.83646113e-01 1.60857916e-01 5.36193028e-02 1.13941021e-01
      2.18498662e-01 1.23324402e-01 1.20643433e-02 1.34048268e-01</_>
    <_>
      9.25266892e-02 2.45551601e-01 1.20996438e-01 1.06761567e-01
      1.29893243e-01 1.93950176e-01 3.02491095e-02 8.00711736e-02</_>
    <_>
      1.91972077e-01 2.28621289e-01 4.36300188e-02 1.41361251e-01
      1.93717286e-01 1.11692846e-01 3.49040143e-03 8.55148360e-02</_>
    <_>
      1.55585095e-01 2.12765947e-01 1.19680846e-02 4.38829772e-02
      2.42021263e-01 1.70212761e-01 9.30851046e-03 1.54255316e-01</_>
    <_>
      9.64391679e-02 2.49258161e-01 1.18694361e-02 5.34124635e-02
      2.35905036e-01 2.21068248e-01 5.93471806e-03 1.26112759e-01</_>
    <_>
      1.54000014e-01 2.78000027e-01 3.80000025e-02 1.18000008e-01
      1.34000003e-01 1.52000010e-01 1.80000011e-02 1.08000003e-01</_>
    <_>
      2.28215784e-01 2.86307067e-01 2.48962678e-02 1.22406647e-01
      7.67634884e-02 2.17842340e-01 0. 4.35684659e-02</_>
    <_>
      1.60891086e-01 9.77722779e-02 2.84653455e-02 1.65841579e-01
      1.65841579e-01 2.31435642e-01 5.44554442e-02 9.52970311e-02</_>
    <_>
      1.88099802e-01 2.62955844e-01 3.64683308e-02 9.40499008e-02
      1.76583484e-01 1.19001918e-01 1.72744710e-02 1.05566218e-01</_>
    <_>
      2.05776170e-01 4.11552340e-01 9.02527049e-02 5.77617325e-02
      6.49819523e-02 3.24909762e-02 2.52707582e-02 1.11913353e-01</_>
    <_>
      1.11111112e-01 2.30880231e-01 2.30880231e-02 1.12554111e-01
      1.93362191e-01 1.70274168e-01 2.88600288e-02 1.29870132e-01</_>
    <_>
      1.25918150e-01 1.87827900e-01 1.11227699e-01 7.86988437e-02
      2.15110168e-01 8.81427005e-02 2.20356751e-02 1.71038821e-01</_>
    <_>
      1.26248866e-01 1.05358765e-01 6.35785684e-02 7.53860176e-02
      3.24250698e-01 7.72025436e-02 4.45049964e-02 1.83469579e-01</_>
    <_>
      1.60458460e-01 4.01146144e-01 6.87679127e-02 6.59025833e-02
      1.00286536e-01 4.29799445e-02 4.29799445e-02 1.17478512e-01</_>
    <_>
      1.20370366e-01 1.60185188e-01 8.79629627e-02 6.29629642e-02
      2.16666669e-01 1.40740737e-01 5.18518500e-02 1.59259260e-01</_>
    <_>
      1.13453813e-01 1.41566262e-01 6.42570257e-02 7.63052180e-02
      2.17871472e-01 1.51606426e-01 2.81124488e-02 2.06827298e-01</_>
    <_>
      1.10154904e-01 2.39242688e-01 3.95869203e-02 1.01549052e-01
      1.56626508e-01 2.15146303e-01 2.40963846e-02 1.13597244e-01</_>
    <_>
      1.36645973e-01 2.62939960e-01 8.69565234e-02 4.96894419e-02
      1.57349899e-01 1.13871634e-01 1.86335407e-02 1.73913047e-01</_>
    <_>
      8.15085173e-02 1.88564479e-01 9.36739668e-02 7.17761517e-02
      2.32360095e-01 2.31143549e-01 2.18978096e-02 7.90754259e-02</_>
    <_>
      2.12832555e-01 1.06416278e-01 1.42410010e-01 1.69014081e-01
      1.26760557e-01 7.98122063e-02 9.38967094e-02 6.88575879e-02</_>
    <_>
      1.56118140e-01 3.71307999e-01 3.37552726e-02 1.18143454e-01
      1.94092810e-01 2.95358635e-02 1.68776363e-02 8.01687688e-02</_>
    <_>
      1.35401979e-01 8.60366747e-02 7.89844841e-02 1.50916785e-01
      2.31311709e-01 6.62905499e-02 5.35966158e-02 1.97461218e-01</_>
    <_>
      2.15384617e-01 1.84615389e-01 2.69230772e-02 1.53846160e-01
      1.96153849e-01 9.61538479e-02 1.53846154e-02 1.11538462e-01</_>
    <_>
      1.53354630e-01 3.83386582e-01 3.19488794e-02 1.40575081e-01
      1.37380183e-01 7.66773149e-02 0. 7.66773149e-02</_>
    <_>
      9.80392173e-02 3.44537824e-01 1.06442578e-01 7.84313753e-02
      1.54061630e-01 6.72268942e-02 5.04201688e-02 1.00840338e-01</_>
    <_>
      1.04166672e-01 1.14583336e-01 9.07738134e-02 4.82142866e-01
      5.95238097e-02 6.25000000e-02 2.38095243e-02 6.25000000e-02</_>
    <_>
      1.71806157e-01 1.01321578e-01 1.07929513e-01 2.92951524e-01
      1.18942723e-01 3.74449342e-02 7.70925060e-02 9.25110132e-02</_>
    <_>
      1.52397260e-01 1.74657539e-01 8.39041099e-02 1.30136982e-01
      1.72945201e-01 7.53424615e-02 1.02739725e-02 2.00342461e-01</_>
    <_>
      1.27921283e-01 1.84501842e-01 4.42804433e-02 1.98031977e-01
      2.22632229e-01 7.99507946e-02 1.72201712e-02 1.25461251e-01</_>
    <_>
      2.34972671e-01 2.89617479e-01 1.09289614e-02 1.69398904e-01
      1.03825137e-01 1.09289614e-02 3.27868834e-02 1.47540987e-01</_>
    <_>
      5.94315268e-02 1.67958662e-01 1.31782949e-01 1.34366930e-01
      2.48062015e-01 1.03359178e-01 7.49353990e-02 8.01033601e-02</_>
    <_>
      1.44444451e-01 1.57142863e-01 2.22222228e-02 2.20634922e-01
      2.93650806e-01 8.57142881e-02 9.52380989e-03 6.66666701e-02</_>
    <_>
      1.53754473e-01 7.38974959e-02 1.19189508e-01 4.27890331e-01
      5.84028587e-02 4.52920124e-02 5.00595942e-02 7.15137050e-02</_>
    <_>
      9.19540226e-02 2.38505751e-01 1.12068966e-01 1.43678159e-01
      2.75862068e-01 5.45977019e-02 1.72413792e-02 6.60919547e-02</_>
    <_>
      2.55656123e-01 1.62895933e-01 7.46606365e-02 5.20361997e-02
      1.56108603e-01 2.48868782e-02 9.50226262e-02 1.78733036e-01</_>
    <_>
      3.07692319e-01 1.87500000e-01 4.80769249e-03 3.12500000e-01
      1.15384623e-01 9.61538497e-03 0. 6.25000000e-02</_>
    <_>
      1.88725501e-01 2.30392158e-01 3.43137272e-02 5.63725494e-02
      2.05882356e-01 1.29901960e-01 2.94117667e-02 1.25000000e-01</_>
    <_>
      1.11349031e-01 1.09207705e-01 1.07066378e-01 1.34903640e-01
      2.78372586e-01 1.19914345e-01 5.13918623e-02 8.77944306e-02</_>
    <_>
      1.93486586e-01 1.57088116e-01 5.93869723e-02 7.27969334e-02
      1.76245213e-01 1.51340991e-01 4.02298830e-02 1.49425283e-01</_>
    <_>
      1.92913383e-01 1.81102365e-01 5.51181100e-02 1.53543308e-01
      2.12598428e-01 9.84251946e-02 3.93700786e-03 1.02362201e-01</_></support_vectors>
  <decision_functions>
    <_>
      <sv_count>40</sv_count>
      <rho>6.4243078231811523e-03</rho>
      <alpha>
        1. 1. 1. 1. 1. 1. 1. 1. 1. 1. 1. 1. 1. 1. 1. 1. 1. 1. 1. 1. -1.
        -1. -1. -1. -1. -1. -1. -1. -1. -1. -1. -1. -1. -1. -1. -1. -1.
        -1. -1. -1.</alpha>
      <index>
        0 1 2 3 4 5 6 7 8 9 10 11 12 13 14 15 16 17 18 19 20 21 22 23 24
        25 26 27 28 29 30 31 32 33 34 35 36 37 38 39</index></_>
    <_>
      <sv_count>40</sv_count>
      <rho>6.8514436483383179e-02</rho>
      <alpha>
        1. 1. 1. 1. 1. 1. 1. 1. 1. 1. 1. 1. 1. 1. 1. 1. 1. 1. 1. 1. -1.
        -1. -1. -1. -1. -1. -1. -1. -1. -1. -1. -1. -1. -1. -1. -1. -1.
        -1. -1. -1.</alpha>
      <index>
        0 1 2 3 4 5 6 7 8 9 10 11 12 13 14 15 16 17 18 19 40 41 42 43 44
        45 46 47 48 49 50 51 52 53 54 55 56 57 58 59</index></_>
    <_>
      <sv_count>40</sv_count>
      <rho>-3.8005709648132324e-02</rho>
      <alpha>
        1. 1. 1. 1. 1. 1. 1. 1. 1. 1. 1. 1. 1. 1. 1. 1. 1. 1. 1. 1. -1.
        -1. -1. -1. -1. -1. -1. -1. -1. -1. -1. -1. -1. -1. -1. -1. -1.
        -1. -1. -1.</alpha>
      <index>
        20 21 22 23 24 25 26 27 28 29 30 31 32 33 34 35 36 37 38 39 40
        41 42 43 44 45 46 47 48 49 50 51 52 53 54 55 56 57 58 59</index></_></decision_functions></default_classifier_name>
</opencv_storage>
