<?xml version="1.0"?>
<opencv_storage>
<default_classifier_name type_id="opencv-ml-svm">
  <svm_type>C_SVC</svm_type>
  <kernel><type>RBF</type>
    <gamma>5.0000000000000000e-01</gamma></kernel>
  <C>1.</C>
  <term_criteria><epsilon>1.1920928955078125e-07</epsilon>
    <iterations>1000</iterations></term_criteria>
  <var_all>8</var_all>
  <var_count>8</var_count>
  <class_count>3</class_count>
  <class_labels type_id="opencv-matrix">
    <rows>1</rows>
    <cols>3</cols>
    <dt>i</dt>
    <data>
      1 2 3</data></class_labels>
  <sv_total>60</sv_total>
  <support_vectors>
    <_>
      7.47742057e-02 1.18252471e-01 4.65238392e-01 6.11216128e-02
      6.42722100e-02 7.28838444e-02 6.57424927e-02 7.77147636e-02</_>
    <_>
      8.82167593e-02 9.11573172e-02 4.50325549e-01 6.21718131e-02
      7.28838444e-02 7.91850463e-02 7.72946849e-02 7.87649676e-02</_>
    <_>
      8.56962800e-02 8.82167593e-02 4.98004615e-01 4.36883010e-02
      5.58706149e-02 6.88930899e-02 6.70027286e-02 9.26275998e-02</_>
    <_>
      5.62906936e-02 1.15731992e-01 5.16698182e-01 5.22999354e-02
      6.55324534e-02 6.30119741e-02 5.62906936e-02 7.41440877e-02</_>
    <_>
      6.97332472e-02 1.12161309e-01 5.14807820e-01 5.79710156e-02
      4.91493382e-02 7.33039305e-02 5.73408939e-02 6.55324534e-02</_>
    <_>
      6.61625713e-02 8.98970813e-02 5.28670430e-01 5.69208153e-02
      5.94412945e-02 6.25918955e-02 6.30119741e-02 7.33039305e-02</_>
    <_>
      6.86830506e-02 1.07120350e-01 5.04515886e-01 5.69208153e-02
      6.32220134e-02 6.53224140e-02 6.67926893e-02 6.74228072e-02</_>
    <_>
      5.81810549e-02 1.00399077e-01 5.44843495e-01 6.15416914e-02
      6.32220134e-02 5.10396957e-02 5.62906936e-02 6.44822493e-02</_>
    <_>
      1.61730722e-01 1.80844367e-01 1.05019950e-03 7.66645670e-02
      1.69502199e-01 2.03108594e-01 7.85549283e-02 1.28544420e-01</_>
    <_>
      6.65826499e-02 9.95589197e-02 5.20898998e-01 5.22999354e-02
      5.77609763e-02 5.75509332e-02 6.23818524e-02 8.29657614e-02</_>
    <_>
      6.99432865e-02 9.07372385e-02 5.38122237e-01 5.31400964e-02
      4.78890985e-02 5.41902967e-02 6.19617738e-02 8.40159655e-02</_>
    <_>
      6.07015342e-02 8.52762014e-02 5.32241106e-01 5.39802574e-02
      6.74228072e-02 7.58244097e-02 6.19617738e-02 6.25918955e-02</_>
    <_>
      6.42722100e-02 1.23503469e-01 5.11027098e-01 5.56605756e-02
      6.21718131e-02 4.64188196e-02 6.28019348e-02 7.41440877e-02</_>
    <_>
      6.42722100e-02 1.06700271e-01 5.21739125e-01 6.57424927e-02
      5.25099784e-02 6.42722100e-02 6.09115735e-02 6.38521314e-02</_>
    <_>
      6.72127679e-02 9.97689590e-02 5.06616235e-01 5.73408939e-02
      6.78428933e-02 7.30938911e-02 6.78428933e-02 6.02814518e-02</_>
    <_>
      6.49023280e-02 1.24973744e-01 5.23839533e-01 6.19617738e-02
      4.68388982e-02 5.60806543e-02 5.77609763e-02 6.36420920e-02</_>
    <_>
      7.58244097e-02 1.28964499e-01 4.79101032e-01 6.82629719e-02
      6.57424927e-02 6.28019348e-02 6.61625713e-02 5.31400964e-02</_>
    <_>
      7.37240091e-02 1.02499478e-01 5.03885746e-01 4.91493382e-02
      5.69208153e-02 5.75509332e-02 7.05734119e-02 8.56962800e-02</_>
    <_>
      6.82629719e-02 1.05019957e-01 5.08506596e-01 5.52404970e-02
      4.70489375e-02 6.13316521e-02 6.95232078e-02 8.50661620e-02</_>
    <_>
      5.44003360e-02 1.25813901e-01 5.11657238e-01 7.05734119e-02
      5.71308546e-02 6.04914948e-02 6.13316521e-02 5.86011335e-02</_>
    <_>
      7.14135692e-02 1.04599871e-01 3.67989928e-01 6.49023280e-02
      8.08653608e-02 1.12581387e-01 9.91388336e-02 9.85087156e-02</_>
    <_>
      7.39340484e-02 1.08380593e-01 3.44885528e-01 6.49023280e-02
      1.15101866e-01 1.27704263e-01 6.88930899e-02 9.61982757e-02</_>
    <_>
      8.06553215e-02 1.19302668e-01 3.61058593e-01 5.31400964e-02
      7.16236085e-02 1.02079391e-01 9.61982757e-02 1.15942031e-01</_>
    <_>
      8.67464840e-02 1.16782188e-01 3.68830085e-01 6.93131685e-02
      8.40159655e-02 1.01659313e-01 8.21256042e-02 9.05271992e-02</_>
    <_>
      9.47280005e-02 1.07750475e-01 3.54127288e-01 6.28019348e-02
      9.95589197e-02 1.07120350e-01 6.74228072e-02 1.06490232e-01</_>
    <_>
      1.07540436e-01 1.11531191e-01 3.57908010e-01 5.92312552e-02
      1.07960515e-01 9.82986763e-02 6.23818524e-02 9.51480791e-02</_>
    <_>
      8.46460834e-02 1.17832385e-01 3.88573825e-01 5.27200177e-02
      8.65364447e-02 9.64083150e-02 7.66645670e-02 9.66183543e-02</_>
    <_>
      7.05734119e-02 1.29804656e-01 4.13778603e-01 5.79710156e-02
      5.92312552e-02 7.37240091e-02 8.00252035e-02 1.14891827e-01</_>
    <_>
      8.88468772e-02 1.17202267e-01 3.45725685e-01 6.38521314e-02
      1.18672550e-01 1.02289438e-01 6.95232078e-02 9.38878357e-02</_>
    <_>
      1.02919556e-01 1.23713508e-01 4.59777355e-01 4.68388982e-02
      5.73408939e-02 6.78428933e-02 5.16698174e-02 8.98970813e-02</_>
    <_>
      8.19155648e-02 1.08590633e-01 3.92144501e-01 6.30119741e-02
      7.93950856e-02 1.00399077e-01 7.26738051e-02 1.01869352e-01</_>
    <_>
      7.81348422e-02 1.14471748e-01 3.65259409e-01 7.12035298e-02
      1.02289438e-01 9.36777964e-02 7.47742057e-02 1.00189038e-01</_>
    <_>
      6.91031292e-02 1.20982990e-01 3.66099566e-01 6.55324534e-02
      1.01869352e-01 1.02499478e-01 8.21256042e-02 9.17874426e-02</_>
    <_>
      8.86368379e-02 1.26864105e-01 4.49065328e-01 4.78890985e-02
      5.90212159e-02 7.35139698e-02 5.83910942e-02 9.66183543e-02</_>
    <_>
      7.24637657e-02 1.13001473e-01 3.51606816e-01 6.72127679e-02
      1.09220751e-01 1.09640829e-01 7.43541270e-02 1.02499478e-01</_>
    <_>
      8.50661620e-02 1.24973744e-01 3.45725685e-01 6.09115735e-02
      1.05860114e-01 9.97689590e-02 7.87649676e-02 9.89287943e-02</_>
    <_>
      1.04599871e-01 1.22453265e-01 3.70930463e-01 6.32220134e-02
      8.75866413e-02 9.36777964e-02 5.46103753e-02 1.02919556e-01</_>
    <_>
      1.14471748e-01 1.38206258e-01 4.57676947e-01 3.90674211e-02
      4.55786586e-02 6.36420920e-02 5.20898961e-02 8.92669633e-02</_>
    <_>
      8.23356435e-02 1.11951269e-01 3.82692724e-01 6.51123747e-02
      9.57781971e-02 1.06070153e-01 6.84730113e-02 8.75866413e-02</_>
    <_>
      7.05734119e-02 9.64083150e-02 4.14408743e-01 6.82629719e-02
      8.86368379e-02 8.25456828e-02 8.61163586e-02 9.30476785e-02</_>
    <_>
      4.78890985e-02 6.19617738e-02 6.03024602e-01 4.74690199e-02
      3.54967453e-02 6.53224140e-02 8.31758007e-02 5.56605756e-02</_>
    <_>
      3.29762660e-02 8.21256042e-02 5.87901711e-01 6.51123747e-02
      5.52404970e-02 4.89392988e-02 6.91031292e-02 5.86011335e-02</_>
    <_>
      3.63369025e-02 7.47742057e-02 5.90422153e-01 5.92312552e-02
      5.04095778e-02 5.46103753e-02 6.00714125e-02 7.41440877e-02</_>
    <_>
      4.03276607e-02 7.09934905e-02 5.06406188e-01 4.66288589e-02
      8.00252035e-02 1.02709517e-01 7.20436871e-02 8.08653608e-02</_>
    <_>
      3.59168239e-02 5.54505363e-02 5.58496118e-01 4.72589806e-02
      7.37240091e-02 8.00252035e-02 7.58244097e-02 7.33039305e-02</_>
    <_>
      3.23461443e-02 6.57424927e-02 6.10796034e-01 6.17517345e-02
      5.14597781e-02 3.86473425e-02 6.46922886e-02 7.45641664e-02</_>
    <_>
      4.64188196e-02 8.31758007e-02 5.27410209e-01 6.17517345e-02
      6.15416914e-02 5.31400964e-02 7.98151642e-02 8.67464840e-02</_>
    <_>
      2.94055864e-02 8.23356435e-02 5.89371979e-01 6.36420920e-02
      5.08296564e-02 5.20898961e-02 6.82629719e-02 6.40621707e-02</_>
    <_>
      3.57067846e-02 7.18336478e-02 5.91472387e-01 6.02814518e-02
      5.46103753e-02 5.25099784e-02 7.12035298e-02 6.23818524e-02</_>
    <_>
      3.71770635e-02 6.72127679e-02 6.03024602e-01 6.04914948e-02
      4.55786586e-02 5.96513338e-02 7.70846456e-02 4.97794598e-02</_>
    <_>
      2.83553880e-02 5.79710156e-02 5.75299323e-01 4.49485406e-02
      7.24637657e-02 1.03759713e-01 5.79710156e-02 5.92312552e-02</_>
    <_>
      3.50766629e-02 7.39340484e-02 5.99873960e-01 5.81810549e-02
      5.56605756e-02 4.83091772e-02 6.78428933e-02 6.11216128e-02</_>
    <_>
      2.85654273e-02 6.51123747e-02 6.14366710e-01 5.96513338e-02
      4.83091772e-02 3.80172245e-02 6.65826499e-02 7.93950856e-02</_>
    <_>
      2.75152270e-02 6.28019348e-02 5.78659952e-01 4.38983403e-02
      6.74228072e-02 9.82986763e-02 6.09115735e-02 6.04914948e-02</_>
    <_>
      2.47847084e-02 5.83910942e-02 5.80130219e-01 5.39802574e-02
      8.84267986e-02 9.99789983e-02 5.31400964e-02 4.11678217e-02</_>
    <_>
      3.25561874e-02 7.24637657e-02 5.93152702e-01 5.54505363e-02
      4.47385013e-02 6.74228072e-02 7.33039305e-02 6.09115735e-02</_>
    <_>
      6.23818524e-02 7.41440877e-02 5.62486887e-01 4.13778611e-02
      6.88930899e-02 9.17874426e-02 4.62087803e-02 5.27200177e-02</_>
    <_>
      3.48666236e-02 7.07834512e-02 5.61226606e-01 4.93593775e-02
      8.12854469e-02 1.00399077e-01 5.35601750e-02 4.85192202e-02</_>
    <_>
      3.12959477e-02 7.14135692e-02 6.10165954e-01 5.96513338e-02
      4.93593775e-02 4.09577824e-02 7.05734119e-02 6.65826499e-02</_>
    <_>
      3.50766629e-02 6.84730113e-02 5.90632200e-01 5.96513338e-02
      5.08296564e-02 5.81810549e-02 6.00714125e-02 7.70846456e-02</_></support_vectors>
  <decision_functions>
    <_>
      <sv_count>40</sv_count>
      <rho>-1.0115996003150940e-01</rho>
      <alpha>
        1. 1. 1. 1. 1. 1. 1. 1. 1. 1. 1. 1. 1. 1. 1. 1. 1. 1. 1. 1. -1.
        -1. -1. -1. -1. -1. -1. -1. -1. -1. -1. -1. -1. -1. -1. -1. -1.
        -1. -1. -1.</alpha>
      <index>
        0 1 2 3 4 5 6 7 8 9 10 11 12 13 14 15 16 17 18 19 20 21 22 23 24
        25 26 27 28 29 30 31 32 33 34 35 36 37 38 39</index></_>
    <_>
      <sv_count>40</sv_count>
      <rho>3.0391353368759155e-01</rho>
      <alpha>
        1. 1. 1. 1. 1. 1. 1. 1. 1. 1. 1. 1. 1. 1. 1. 1. 1. 1. 1. 1. -1.
        -1. -1. -1. -1. -1. -1. -1. -1. -1. -1. -1. -1. -1. -1. -1. -1.
        -1. -1. -1.</alpha>
      <index>
        0 1 2 3 4 5 6 7 8 9 10 11 12 13 14 15 16 17 18 19 40 41 42 43 44
        45 46 47 48 49 50 51 52 53 54 55 56 57 58 59</index></_>
    <_>
      <sv_count>40</sv_count>
      <rho>1.5270113945007324e-03</rho>
      <alpha>
        1. 1. 1. 1. 1. 1. 1. 1. 1. 1. 1. 1. 1. 1. 1. 1. 1. 1. 1. 1. -1.
        -1. -1. -1. -1. -1. -1. -1. -1. -1. -1. -1. -1. -1. -1. -1. -1.
        -1. -1. -1.</alpha>
      <index>
        20 21 22 23 24 25 26 27 28 29 30 31 32 33 34 35 36 37 38 39 40
        41 42 43 44 45 46 47 48 49 50 51 52 53 54 55 56 57 58 59</index></_></decision_functions></default_classifier_name>
</opencv_storage>
