<?xml version="1.0"?>
<opencv_storage>
<default_classifier_name type_id="opencv-ml-svm">
  <svm_type>C_SVC</svm_type>
  <kernel><type>RBF</type>
    <gamma>5.0000000000000000e-01</gamma></kernel>
  <C>1.</C>
  <term_criteria><epsilon>1.1920928955078125e-07</epsilon>
    <iterations>1000</iterations></term_criteria>
  <var_all>8</var_all>
  <var_count>8</var_count>
  <class_count>3</class_count>
  <class_labels type_id="opencv-matrix">
    <rows>1</rows>
    <cols>3</cols>
    <dt>i</dt>
    <data>
      1 2 3</data></class_labels>
  <sv_total>60</sv_total>
  <support_vectors>
    <_>
      5.00000000e-01 8.33333358e-02 9.72222239e-02 1.38888890e-02
      6.94444478e-02 6.94444478e-02 2.77777780e-02 1.38888896e-01</_>
    <_>
      4.58333343e-01 8.33333358e-02 6.94444478e-02 1.38888890e-02
      6.94444478e-02 6.94444478e-02 5.55555560e-02 1.80555552e-01</_>
    <_>
      4.58333343e-01 8.33333358e-02 8.33333358e-02 1.38888890e-02
      2.77777780e-02 6.94444478e-02 6.94444478e-02 1.94444448e-01</_>
    <_>
      4.72222209e-01 8.33333358e-02 5.55555560e-02 1.38888890e-02
      5.55555560e-02 6.94444478e-02 6.94444478e-02 1.80555552e-01</_>
    <_>
      4.86111104e-01 1.25000000e-01 1.11111112e-01 1.38888890e-02
      4.16666679e-02 2.77777780e-02 5.55555560e-02 1.38888896e-01</_>
    <_>
      5.27777791e-01 8.33333358e-02 5.55555560e-02 1.38888890e-02
      5.55555560e-02 6.94444478e-02 6.94444478e-02 1.25000000e-01</_>
    <_>
      5.00000000e-01 8.33333358e-02 9.72222239e-02 1.38888890e-02
      4.16666679e-02 6.94444478e-02 5.55555560e-02 1.38888896e-01</_>
    <_>
      5.13888896e-01 8.33333358e-02 5.55555560e-02 1.38888890e-02
      6.94444478e-02 6.94444478e-02 6.94444478e-02 1.25000000e-01</_>
    <_>
      5.69444418e-01 6.94444478e-02 8.33333358e-02 1.38888890e-02 0.
      8.33333358e-02 8.33333358e-02 9.72222239e-02</_>
    <_>
      4.72222209e-01 8.33333358e-02 5.55555560e-02 1.38888890e-02
      8.33333358e-02 6.94444478e-02 6.94444478e-02 1.52777776e-01</_>
    <_>
      5.27777791e-01 8.33333358e-02 5.55555560e-02 1.38888890e-02
      6.94444478e-02 6.94444478e-02 6.94444478e-02 1.11111112e-01</_>
    <_>
      5.13888896e-01 8.33333358e-02 5.55555560e-02 1.38888890e-02
      4.16666679e-02 6.94444478e-02 6.94444478e-02 1.52777776e-01</_>
    <_>
      4.86111104e-01 8.33333358e-02 5.55555560e-02 1.38888890e-02
      1.25000000e-01 6.94444478e-02 6.94444478e-02 9.72222239e-02</_>
    <_>
      5.00000000e-01 8.33333358e-02 6.94444478e-02 1.38888890e-02
      4.16666679e-02 6.94444478e-02 6.94444478e-02 1.52777776e-01</_>
    <_>
      4.58333343e-01 8.33333358e-02 8.33333358e-02 1.38888890e-02
      4.16666679e-02 6.94444478e-02 5.55555560e-02 1.94444448e-01</_>
    <_>
      4.44444448e-01 8.33333358e-02 5.55555560e-02 1.38888890e-02
      1.11111112e-01 6.94444478e-02 6.94444478e-02 1.52777776e-01</_>
    <_>
      5.97222209e-01 1.11111112e-01 8.33333358e-02 1.38888890e-02
      9.72222239e-02 0. 4.16666679e-02 5.55555560e-02</_>
    <_>
      5.00000000e-01 8.33333358e-02 5.55555560e-02 1.38888890e-02
      8.33333358e-02 6.94444478e-02 6.94444478e-02 1.25000000e-01</_>
    <_>
      4.86111104e-01 8.33333358e-02 5.55555560e-02 1.38888890e-02
      9.72222239e-02 6.94444478e-02 6.94444478e-02 1.25000000e-01</_>
    <_>
      5.69444418e-01 6.94444478e-02 4.16666679e-02 1.38888890e-02
      5.55555560e-02 8.33333358e-02 8.33333358e-02 8.33333358e-02</_>
    <_>
      4.72222209e-01 8.33333358e-02 6.94444478e-02 1.38888890e-02
      2.77777780e-02 6.94444478e-02 6.94444478e-02 1.94444448e-01</_>
    <_>
      5.00000000e-01 8.33333358e-02 8.33333358e-02 1.38888890e-02
      4.16666679e-02 6.94444478e-02 5.55555560e-02 1.52777776e-01</_>
    <_>
      4.72222209e-01 8.33333358e-02 8.33333358e-02 1.38888890e-02
      2.77777780e-02 6.94444478e-02 6.94444478e-02 1.80555552e-01</_>
    <_>
      5.41666687e-01 8.33333358e-02 6.94444478e-02 1.38888890e-02
      4.16666679e-02 6.94444478e-02 5.55555560e-02 1.25000000e-01</_>
    <_>
      5.13888896e-01 8.33333358e-02 6.94444478e-02 1.38888890e-02
      4.16666679e-02 6.94444478e-02 5.55555560e-02 1.52777776e-01</_>
    <_>
      5.27777791e-01 8.33333358e-02 6.94444478e-02 1.38888890e-02
      6.94444478e-02 6.94444478e-02 5.55555560e-02 1.11111112e-01</_>
    <_>
      4.30555552e-01 8.33333358e-02 6.94444478e-02 1.38888890e-02
      6.94444478e-02 6.94444478e-02 6.94444478e-02 1.94444448e-01</_>
    <_>
      4.58333343e-01 8.33333358e-02 5.55555560e-02 1.38888890e-02
      9.72222239e-02 6.94444478e-02 6.94444478e-02 1.52777776e-01</_>
    <_>
      5.00000000e-01 8.33333358e-02 6.94444478e-02 1.38888890e-02
      6.94444478e-02 6.94444478e-02 5.55555560e-02 1.38888896e-01</_>
    <_>
      4.58333343e-01 8.33333358e-02 1.11111112e-01 1.38888890e-02
      8.33333358e-02 6.94444478e-02 1.38888890e-02 1.66666672e-01</_>
    <_>
      4.58333343e-01 8.33333358e-02 9.72222239e-02 1.38888890e-02
      4.16666679e-02 6.94444478e-02 5.55555560e-02 1.80555552e-01</_>
    <_>
      4.86111104e-01 8.33333358e-02 5.55555560e-02 1.38888890e-02
      5.55555560e-02 6.94444478e-02 6.94444478e-02 1.66666672e-01</_>
    <_>
      4.72222209e-01 8.33333358e-02 9.72222239e-02 1.38888890e-02
      2.77777780e-02 6.94444478e-02 5.55555560e-02 1.80555552e-01</_>
    <_>
      5.00000000e-01 8.33333358e-02 1.11111112e-01 1.38888890e-02
      6.94444478e-02 6.94444478e-02 1.38888890e-02 1.38888896e-01</_>
    <_>
      5.13888896e-01 8.33333358e-02 8.33333358e-02 1.38888890e-02
      4.16666679e-02 6.94444478e-02 6.94444478e-02 1.25000000e-01</_>
    <_>
      5.00000000e-01 8.33333358e-02 9.72222239e-02 1.38888890e-02
      4.16666679e-02 6.94444478e-02 5.55555560e-02 1.38888896e-01</_>
    <_>
      4.58333343e-01 8.33333358e-02 8.33333358e-02 1.38888890e-02
      2.77777780e-02 6.94444478e-02 5.55555560e-02 2.08333328e-01</_>
    <_>
      5.41666687e-01 6.94444478e-02 1.11111112e-01 1.38888890e-02
      5.55555560e-02 8.33333358e-02 1.38888890e-02 1.11111112e-01</_>
    <_>
      5.27777791e-01 8.33333358e-02 9.72222239e-02 1.38888890e-02
      2.77777780e-02 6.94444478e-02 5.55555560e-02 1.25000000e-01</_>
    <_>
      4.44444448e-01 8.33333358e-02 4.16666679e-02 1.38888890e-02
      6.94444478e-02 6.94444478e-02 6.94444478e-02 2.08333328e-01</_>
    <_>
      4.16666657e-01 8.33333358e-02 0. 1.38888890e-02 1.38888896e-01
      6.94444478e-02 8.33333358e-02 1.94444448e-01</_>
    <_>
      4.72222209e-01 8.33333358e-02 1.38888890e-02 1.38888890e-02
      1.25000000e-01 6.94444478e-02 6.94444478e-02 1.52777776e-01</_>
    <_>
      5.00000000e-01 8.33333358e-02 4.16666679e-02 1.38888890e-02
      8.33333358e-02 6.94444478e-02 6.94444478e-02 1.38888896e-01</_>
    <_>
      5.00000000e-01 8.33333358e-02 6.94444478e-02 1.38888890e-02
      9.72222239e-02 6.94444478e-02 4.16666679e-02 1.25000000e-01</_>
    <_>
      5.00000000e-01 4.16666679e-02 5.55555560e-02 1.38888890e-02
      8.33333358e-02 1.11111112e-01 5.55555560e-02 1.38888896e-01</_>
    <_>
      5.69444418e-01 8.33333358e-02 0. 1.38888890e-02 1.38888896e-01 0.
      8.33333358e-02 1.11111112e-01</_>
    <_>
      5.41666687e-01 8.33333358e-02 2.77777780e-02 1.38888890e-02
      1.25000000e-01 2.77777780e-02 6.94444478e-02 1.11111112e-01</_>
    <_>
      4.44444448e-01 8.33333358e-02 1.38888890e-02 2.77777780e-02
      1.52777776e-01 6.94444478e-02 5.55555560e-02 1.52777776e-01</_>
    <_>
      5.00000000e-01 6.94444478e-02 5.55555560e-02 2.77777780e-02
      9.72222239e-02 8.33333358e-02 5.55555560e-02 1.11111112e-01</_>
    <_>
      5.41666687e-01 8.33333358e-02 1.38888890e-02 1.38888890e-02
      1.38888896e-01 2.77777780e-02 8.33333358e-02 9.72222239e-02</_>
    <_>
      4.44444448e-01 8.33333358e-02 9.72222239e-02 1.38888890e-02
      1.38888896e-01 6.94444478e-02 1.38888890e-02 1.38888896e-01</_>
    <_>
      5.13888896e-01 8.33333358e-02 4.16666679e-02 2.77777780e-02
      1.52777776e-01 6.94444478e-02 5.55555560e-02 5.55555560e-02</_>
    <_>
      5.13888896e-01 8.33333358e-02 1.38888890e-02 1.38888890e-02
      1.11111112e-01 0. 6.94444478e-02 1.94444448e-01</_>
    <_>
      4.58333343e-01 8.33333358e-02 5.55555560e-02 1.38888890e-02
      1.25000000e-01 6.94444478e-02 5.55555560e-02 1.38888896e-01</_>
    <_>
      5.41666687e-01 4.16666679e-02 8.33333358e-02 1.38888890e-02
      8.33333358e-02 8.33333358e-02 2.77777780e-02 1.25000000e-01</_>
    <_>
      4.86111104e-01 8.33333358e-02 4.16666679e-02 2.77777780e-02
      9.72222239e-02 2.77777780e-02 5.55555560e-02 1.80555552e-01</_>
    <_>
      4.86111104e-01 4.16666679e-02 1.52777776e-01 1.38888890e-02
      4.16666679e-02 1.11111112e-01 0. 1.52777776e-01</_>
    <_>
      5.00000000e-01 8.33333358e-02 5.55555560e-02 1.38888890e-02
      9.72222239e-02 4.16666679e-02 5.55555560e-02 1.52777776e-01</_>
    <_>
      4.72222209e-01 8.33333358e-02 1.38888890e-02 1.38888890e-02
      9.72222239e-02 6.94444478e-02 8.33333358e-02 1.66666672e-01</_>
    <_>
      4.86111104e-01 8.33333358e-02 2.77777780e-02 1.38888890e-02
      1.11111112e-01 6.94444478e-02 6.94444478e-02 1.38888896e-01</_></support_vectors>
  <decision_functions>
    <_>
      <sv_count>40</sv_count>
      <rho>-4.7922134399414062e-04</rho>
      <alpha>
        1. 1. 1. 1. 1. 1. 1. 1. 1. 1. 1. 1. 1. 1. 1. 1. 1. 1. 1. 1. -1.
        -1. -1. -1. -1. -1. -1. -1. -1. -1. -1. -1. -1. -1. -1. -1. -1.
        -1. -1. -1.</alpha>
      <index>
        0 1 2 3 4 5 6 7 8 9 10 11 12 13 14 15 16 17 18 19 20 21 22 23 24
        25 26 27 28 29 30 31 32 33 34 35 36 37 38 39</index></_>
    <_>
      <sv_count>40</sv_count>
      <rho>2.4461656808853149e-02</rho>
      <alpha>
        1. 1. 1. 1. 1. 1. 1. 1. 1. 1. 1. 1. 1. 1. 1. 1. 1. 1. 1. 1. -1.
        -1. -1. -1. -1. -1. -1. -1. -1. -1. -1. -1. -1. -1. -1. -1. -1.
        -1. -1. -1.</alpha>
      <index>
        0 1 2 3 4 5 6 7 8 9 10 11 12 13 14 15 16 17 18 19 40 41 42 43 44
        45 46 47 48 49 50 51 52 53 54 55 56 57 58 59</index></_>
    <_>
      <sv_count>40</sv_count>
      <rho>8.2537531852722168e-03</rho>
      <alpha>
        1. 1. 1. 1. 1. 1. 1. 1. 1. 1. 1. 1. 1. 1. 1. 1. 1. 1. 1. 1. -1.
        -1. -1. -1. -1. -1. -1. -1. -1. -1. -1. -1. -1. -1. -1. -1. -1.
        -1. -1. -1.</alpha>
      <index>
        20 21 22 23 24 25 26 27 28 29 30 31 32 33 34 35 36 37 38 39 40
        41 42 43 44 45 46 47 48 49 50 51 52 53 54 55 56 57 58 59</index></_></decision_functions></default_classifier_name>
</opencv_storage>
