<?xml version="1.0"?>
<opencv_storage>
<default_classifier_name type_id="opencv-ml-svm">
  <svm_type>C_SVC</svm_type>
  <kernel><type>RBF</type>
    <gamma>5.0000000000000000e-01</gamma></kernel>
  <C>1.</C>
  <term_criteria><epsilon>1.1920928955078125e-07</epsilon>
    <iterations>1000</iterations></term_criteria>
  <var_all>8</var_all>
  <var_count>8</var_count>
  <class_count>3</class_count>
  <class_labels type_id="opencv-matrix">
    <rows>1</rows>
    <cols>3</cols>
    <dt>i</dt>
    <data>
      1 2 3</data></class_labels>
  <sv_total>60</sv_total>
  <support_vectors>
    <_>
      7.66645670e-02 4.62297827e-01 7.56143704e-02 8.42260048e-02
      7.54043236e-02 7.60344490e-02 6.57424927e-02 8.40159655e-02</_>
    <_>
      7.87649676e-02 4.34572577e-01 7.91850463e-02 7.24637657e-02
      6.51123747e-02 9.28376392e-02 7.60344490e-02 1.01029195e-01</_>
    <_>
      9.38878357e-02 4.97374505e-01 6.97332472e-02 7.60344490e-02
      4.59987409e-02 8.86368379e-02 6.65826499e-02 6.17517345e-02</_>
    <_>
      7.39340484e-02 5.13757586e-01 6.32220134e-02 8.92669633e-02
      6.84730113e-02 5.67107759e-02 5.65007366e-02 7.81348422e-02</_>
    <_>
      6.51123747e-02 5.13127506e-01 7.14135692e-02 7.96051249e-02
      7.64545277e-02 7.24637657e-02 5.65007366e-02 6.53224140e-02</_>
    <_>
      7.24637657e-02 5.25099754e-01 6.34320527e-02 6.65826499e-02
      5.92312552e-02 7.05734119e-02 6.23818524e-02 8.02352428e-02</_>
    <_>
      6.63726106e-02 5.01995385e-01 6.59525320e-02 7.91850463e-02
      7.03633726e-02 7.24637657e-02 6.65826499e-02 7.70846456e-02</_>
    <_>
      6.67926893e-02 5.42953134e-01 5.10396957e-02 8.00252035e-02
      6.61625713e-02 6.13316521e-02 5.46103753e-02 7.70846456e-02</_>
    <_>
      1.25183791e-01 8.40159657e-04 2.00168028e-01 1.49758458e-01
      9.87187549e-02 1.73282921e-01 7.64545277e-02 1.75593361e-01</_>
    <_>
      8.44360441e-02 5.19428670e-01 5.83910942e-02 7.93950856e-02
      6.15416914e-02 6.82629719e-02 6.11216128e-02 6.74228072e-02</_>
    <_>
      8.48561227e-02 5.35391748e-01 5.46103753e-02 7.12035298e-02
      5.88111728e-02 7.16236085e-02 6.09115735e-02 6.25918955e-02</_>
    <_>
      6.36420920e-02 5.29930711e-01 7.45641664e-02 6.30119741e-02
      5.94412945e-02 6.57424927e-02 6.07015342e-02 8.29657614e-02</_>
    <_>
      7.41440877e-02 5.09766877e-01 4.68388982e-02 9.51480791e-02
      7.16236085e-02 6.55324534e-02 6.34320527e-02 7.35139698e-02</_>
    <_>
      6.36420920e-02 5.19428670e-01 6.49023280e-02 7.28838444e-02
      7.14135692e-02 6.93131685e-02 6.07015342e-02 7.77147636e-02</_>
    <_>
      6.00714125e-02 5.05566061e-01 7.30938911e-02 7.24637657e-02
      6.59525320e-02 7.26738051e-02 6.74228072e-02 8.27557221e-02</_>
    <_>
      6.40621707e-02 5.21108985e-01 5.56605756e-02 9.34677571e-02
      7.81348422e-02 6.57424927e-02 5.73408939e-02 6.44822493e-02</_>
    <_>
      5.22999354e-02 4.78260875e-01 6.25918955e-02 9.47280005e-02
      7.70846456e-02 7.83448890e-02 6.46922886e-02 9.19974819e-02</_>
    <_>
      8.65364447e-02 5.00735164e-01 5.81810549e-02 7.89750069e-02
      5.90212159e-02 7.72946849e-02 6.99432865e-02 6.93131685e-02</_>
    <_>
      8.59063193e-02 5.07666469e-01 6.04914948e-02 7.75047243e-02
      6.95232078e-02 6.91031292e-02 6.84730113e-02 6.13316521e-02</_>
    <_>
      5.92312552e-02 5.09136736e-01 6.11216128e-02 8.50661620e-02
      8.17055255e-02 6.00714125e-02 6.25918955e-02 8.10754076e-02</_>
    <_>
      9.95589197e-02 3.63789111e-01 1.13421552e-01 7.91850463e-02
      6.51123747e-02 7.37240091e-02 9.87187549e-02 1.06490232e-01</_>
    <_>
      9.82986763e-02 3.40474695e-01 1.25813901e-01 8.29657614e-02
      6.65826499e-02 8.04452822e-02 6.86830506e-02 1.36735976e-01</_>
    <_>
      1.16152070e-01 3.56647760e-01 1.03339635e-01 8.35958868e-02
      7.09934905e-02 8.59063193e-02 9.45179611e-02 8.88468772e-02</_>
    <_>
      8.86368379e-02 3.65679473e-01 1.01869352e-01 9.17874426e-02
      7.20436871e-02 9.19974819e-02 8.23356435e-02 1.05650075e-01</_>
    <_>
      1.08380593e-01 3.50976676e-01 1.08170554e-01 8.08653608e-02
      6.59525320e-02 9.80886370e-02 6.63726106e-02 1.21193029e-01</_>
    <_>
      9.49380398e-02 3.54757398e-01 1.01449274e-01 8.35958868e-02
      6.36420920e-02 1.15731992e-01 6.19617738e-02 1.23923548e-01</_>
    <_>
      9.78785977e-02 3.85633260e-01 9.66183543e-02 8.59063193e-02
      6.72127679e-02 9.47280005e-02 7.56143704e-02 9.64083150e-02</_>
    <_>
      1.14471748e-01 4.09787863e-01 7.30938911e-02 1.01449274e-01
      7.45641664e-02 7.33039305e-02 7.91850463e-02 7.41440877e-02</_>
    <_>
      9.34677571e-02 3.41314852e-01 1.00609116e-01 8.61163586e-02
      7.37240091e-02 9.55681577e-02 6.91031292e-02 1.40096620e-01</_>
    <_>
      9.17874426e-02 4.53686208e-01 6.63726106e-02 9.40978751e-02
      7.03633726e-02 1.03339635e-01 5.12497388e-02 6.91031292e-02</_>
    <_>
      1.03549674e-01 3.88153762e-01 1.00609116e-01 8.33858401e-02
      6.72127679e-02 8.56962800e-02 7.09934905e-02 1.00399077e-01</_>
    <_>
      9.89287943e-02 3.60848576e-01 9.45179611e-02 8.38059261e-02
      7.45641664e-02 8.44360441e-02 7.35139698e-02 1.29384577e-01</_>
    <_>
      9.05271992e-02 3.62528890e-01 1.03969753e-01 9.05271992e-02
      7.56143704e-02 7.45641664e-02 8.19155648e-02 1.20352864e-01</_>
    <_>
      9.66183543e-02 4.45704699e-01 7.12035298e-02 9.30476785e-02
      7.16236085e-02 9.26275998e-02 5.92312552e-02 6.99432865e-02</_>
    <_>
      1.03549674e-01 3.45095575e-01 1.09850869e-01 8.63264054e-02
      8.00252035e-02 7.72946849e-02 7.28838444e-02 1.24973744e-01</_>
    <_>
      9.76685584e-02 3.41734916e-01 9.85087156e-02 8.96870419e-02
      8.02352428e-02 8.94770026e-02 7.87649676e-02 1.23923548e-01</_>
    <_>
      1.03339635e-01 3.65679473e-01 9.47280005e-02 8.82167593e-02
      8.02352428e-02 1.06490232e-01 5.44003360e-02 1.06910311e-01</_>
    <_>
      8.94770026e-02 4.52215910e-01 6.25918955e-02 9.64083150e-02
      7.54043236e-02 1.14471748e-01 5.16698174e-02 5.77609763e-02</_>
    <_>
      8.67464840e-02 3.78281862e-01 1.06910311e-01 8.44360441e-02
      7.09934905e-02 8.40159655e-02 6.86830506e-02 1.19932786e-01</_>
    <_>
      9.40978751e-02 4.12938446e-01 8.40159655e-02 7.22537264e-02
      6.44822493e-02 7.66645670e-02 8.59063193e-02 1.09640829e-01</_>
    <_>
      5.48204146e-02 6.01554275e-01 6.55324534e-02 4.85192202e-02
      4.64188196e-02 4.70489375e-02 8.40159655e-02 5.20898961e-02</_>
    <_>
      5.79710156e-02 5.88111758e-01 4.93593775e-02 6.65826499e-02
      6.15416914e-02 3.73871028e-02 6.84730113e-02 7.05734119e-02</_>
    <_>
      7.30938911e-02 5.88741839e-01 5.54505363e-02 5.71308546e-02
      5.50304540e-02 3.90674211e-02 5.81810549e-02 7.33039305e-02</_>
    <_>
      8.25456828e-02 5.05566061e-01 1.06910311e-01 4.76790592e-02
      4.78890985e-02 4.03276607e-02 7.30938911e-02 9.59882364e-02</_>
    <_>
      7.33039305e-02 5.57235897e-01 8.31758007e-02 3.86473425e-02
      4.22180220e-02 3.69670242e-02 7.49842450e-02 9.34677571e-02</_>
    <_>
      7.39340484e-02 6.09745860e-01 3.90674211e-02 5.73408939e-02
      4.57887016e-02 3.42365056e-02 6.61625713e-02 7.37240091e-02</_>
    <_>
      8.54862407e-02 5.25939941e-01 5.31400964e-02 6.19617738e-02
      5.50304540e-02 5.14597781e-02 8.02352428e-02 8.67464840e-02</_>
    <_>
      6.53224140e-02 5.89371979e-01 5.14597781e-02 6.82629719e-02
      5.92312552e-02 3.33963446e-02 6.74228072e-02 6.55324534e-02</_>
    <_>
      6.30119741e-02 5.90002120e-01 5.20898961e-02 5.83910942e-02
      5.20898961e-02 3.78071852e-02 7.16236085e-02 7.49842450e-02</_>
    <_>
      5.01995385e-02 6.01344228e-01 5.98613732e-02 5.44003360e-02
      5.22999354e-02 3.99075821e-02 7.64545277e-02 6.55324534e-02</_>
    <_>
      5.94412945e-02 5.72988868e-01 1.08800672e-01 4.24280614e-02
      4.32682224e-02 3.15059870e-02 5.77609763e-02 8.38059261e-02</_>
    <_>
      6.11216128e-02 5.99243879e-01 4.91493382e-02 5.83910942e-02
      5.44003360e-02 3.65469456e-02 6.78428933e-02 7.33039305e-02</_>
    <_>
      7.87649676e-02 6.13526583e-01 3.78071852e-02 5.65007366e-02
      4.72589806e-02 3.21361050e-02 6.57424927e-02 6.82629719e-02</_>
    <_>
      5.88111728e-02 5.78029811e-01 1.01659313e-01 4.53686193e-02
      4.57887016e-02 3.17160264e-02 6.07015342e-02 7.79248029e-02</_>
    <_>
      4.20079827e-02 5.78869998e-01 1.03549674e-01 4.49485406e-02
      4.30581793e-02 2.94055864e-02 5.12497388e-02 1.06910311e-01</_>
    <_>
      6.15416914e-02 5.91472387e-01 6.78428933e-02 5.69208153e-02
      5.20898961e-02 3.29762660e-02 7.33039305e-02 6.38521314e-02</_>
    <_>
      5.33501357e-02 5.61226606e-01 9.38878357e-02 4.89392988e-02
      5.31400964e-02 6.80529326e-02 4.55786586e-02 7.58244097e-02</_>
    <_>
      4.83091772e-02 5.60596526e-01 1.03969753e-01 5.12497388e-02
      4.78890985e-02 3.67569849e-02 5.33501357e-02 9.78785977e-02</_>
    <_>
      6.80529326e-02 6.09955907e-01 4.30581793e-02 5.67107759e-02
      5.37702180e-02 3.19260657e-02 6.74228072e-02 6.91031292e-02</_>
    <_>
      7.83448890e-02 5.90002120e-01 5.90212159e-02 5.71308546e-02
      4.99894992e-02 3.52867059e-02 5.77609763e-02 7.24637657e-02</_></support_vectors>
  <decision_functions>
    <_>
      <sv_count>40</sv_count>
      <rho>-1.0058009624481201e-01</rho>
      <alpha>
        1. 1. 1. 1. 1. 1. 1. 1. 1. 1. 1. 1. 1. 1. 1. 1. 1. 1. 1. 1. -1.
        -1. -1. -1. -1. -1. -1. -1. -1. -1. -1. -1. -1. -1. -1. -1. -1.
        -1. -1. -1.</alpha>
      <index>
        0 1 2 3 4 5 6 7 8 9 10 11 12 13 14 15 16 17 18 19 20 21 22 23 24
        25 26 27 28 29 30 31 32 33 34 35 36 37 38 39</index></_>
    <_>
      <sv_count>40</sv_count>
      <rho>3.0895844101905823e-01</rho>
      <alpha>
        1. 1. 1. 1. 1. 1. 1. 1. 1. 1. 1. 1. 1. 1. 1. 1. 1. 1. 1. 1. -1.
        -1. -1. -1. -1. -1. -1. -1. -1. -1. -1. -1. -1. -1. -1. -1. -1.
        -1. -1. -1.</alpha>
      <index>
        0 1 2 3 4 5 6 7 8 9 10 11 12 13 14 15 16 17 18 19 40 41 42 43 44
        45 46 47 48 49 50 51 52 53 54 55 56 57 58 59</index></_>
    <_>
      <sv_count>40</sv_count>
      <rho>5.8397948741912842e-03</rho>
      <alpha>
        1. 1. 1. 1. 1. 1. 1. 1. 1. 1. 1. 1. 1. 1. 1. 1. 1. 1. 1. 1. -1.
        -1. -1. -1. -1. -1. -1. -1. -1. -1. -1. -1. -1. -1. -1. -1. -1.
        -1. -1. -1.</alpha>
      <index>
        20 21 22 23 24 25 26 27 28 29 30 31 32 33 34 35 36 37 38 39 40
        41 42 43 44 45 46 47 48 49 50 51 52 53 54 55 56 57 58 59</index></_></decision_functions></default_classifier_name>
</opencv_storage>
