<?xml version="1.0"?>
<opencv_storage>
<default_classifier_name type_id="opencv-ml-svm">
  <svm_type>C_SVC</svm_type>
  <kernel><type>RBF</type>
    <gamma>5.0000000000000000e-01</gamma></kernel>
  <C>1.</C>
  <term_criteria><epsilon>1.1920928955078125e-07</epsilon>
    <iterations>1000</iterations></term_criteria>
  <var_all>32</var_all>
  <var_count>32</var_count>
  <class_count>2</class_count>
  <class_labels type_id="opencv-matrix">
    <rows>1</rows>
    <cols>2</cols>
    <dt>i</dt>
    <data>
      1 2</data></class_labels>
  <sv_total>20</sv_total>
  <support_vectors>
    <_>
      3.70370364e-03 6.66666627e-02 0. 1.11111104e-02 0. 7.40740746e-02
      1.03703700e-01 1.48148146e-02 2.59259250e-02 7.40740728e-03
      4.81481478e-02 6.66666627e-02 8.51851851e-02 0. 2.59259250e-02
      3.33333313e-02 7.40740728e-03 0. 8.51851851e-02 7.77777731e-02
      3.70370373e-02 7.40740728e-03 2.59259250e-02 3.70370364e-03
      1.11111104e-02 3.70370364e-03 3.70370373e-02 1.11111104e-02
      3.33333313e-02 3.33333313e-02 0. 5.92592582e-02</_>
    <_>
      4.21545655e-02 1.05386414e-01 2.34192028e-03 3.51288058e-02 0.
      4.21545655e-02 5.85480072e-02 1.63934417e-02 2.34192032e-02
      4.68384055e-03 4.68384065e-02 3.98126431e-02 5.62060848e-02
      1.17096016e-02 1.63934417e-02 7.25995302e-02 3.04449629e-02
      9.36768111e-03 5.15222475e-02 7.02576116e-02 9.36768111e-03
      7.02576060e-03 4.68384055e-03 1.87353622e-02 9.36768111e-03 0.
      7.25995302e-02 1.17096016e-02 1.17096016e-02 5.15222475e-02
      2.34192028e-03 6.55737668e-02</_>
    <_>
      2.88184434e-02 6.62824214e-02 2.88184430e-03 2.01729108e-02 0.
      6.05187304e-02 8.93371701e-02 2.59365980e-02 1.44092217e-02
      1.44092217e-02 5.76368868e-02 5.47550432e-02 4.03458215e-02
      2.88184430e-03 6.91642612e-02 5.18731959e-02 8.64553265e-03 0.
      6.62824214e-02 4.61095087e-02 1.72910653e-02 5.76368859e-03
      8.64553265e-03 8.64553265e-03 2.01729108e-02 0. 6.34005740e-02
      1.15273772e-02 1.44092217e-02 3.45821306e-02 2.88184430e-03
      9.22190174e-02</_>
    <_>
      3.06513403e-02 1.41762450e-01 0. 4.98084277e-02 1.14942528e-02
      1.53256701e-02 1.07279688e-01 2.29885057e-02 7.66283507e-03
      2.29885057e-02 3.06513403e-02 2.29885057e-02 8.81226063e-02
      3.83141753e-03 2.68199220e-02 4.59770113e-02 2.68199220e-02 0.
      1.14942528e-02 9.19540226e-02 3.06513403e-02 1.14942528e-02
      7.66283507e-03 7.66283507e-03 1.53256701e-02 1.14942528e-02
      4.59770113e-02 0. 7.66283507e-03 6.89655170e-02 0. 3.44827585e-02</_>
    <_>
      3.93700786e-03 1.14173226e-01 7.87401572e-03 2.75590550e-02 0.
      6.69291317e-02 7.08661377e-02 7.87401572e-03 3.93700786e-03
      7.87401572e-03 5.51181100e-02 6.29921257e-02 1.96850393e-02 0.
      4.72440943e-02 7.48031512e-02 1.57480314e-02 7.87401572e-03
      6.29921257e-02 7.08661377e-02 9.44881886e-02 0. 3.93700786e-03
      3.93700786e-03 3.14960629e-02 3.93700786e-03 5.51181100e-02
      1.18110236e-02 1.96850393e-02 3.93700786e-02 3.93700786e-03
      3.93700786e-03</_>
    <_>
      1.48305083e-02 1.03813559e-01 6.35593198e-03 2.54237279e-02
      1.05932206e-02 2.75423732e-02 9.95762721e-02 1.69491526e-02
      1.48305083e-02 1.69491526e-02 3.60169485e-02 4.44915257e-02
      7.41525441e-02 6.35593198e-03 4.23728824e-02 4.66101691e-02
      3.81355919e-02 4.23728814e-03 6.35593235e-02 9.11016986e-02
      5.72033897e-02 6.35593198e-03 1.27118640e-02 1.05932206e-02
      2.11864412e-02 4.23728814e-03 2.33050846e-02 1.48305083e-02
      8.47457629e-03 2.11864412e-02 2.11864407e-03 3.38983051e-02</_>
    <_>
      7.28863012e-03 7.72594810e-02 4.37317789e-03 5.97667657e-02
      1.02040824e-02 1.74927115e-02 6.70553967e-02 3.35276984e-02
      1.45772602e-02 1.45772602e-02 3.79008763e-02 5.83090410e-02
      6.55976683e-02 2.91545200e-03 3.35276984e-02 1.10787176e-01
      7.28863031e-02 5.83090400e-03 6.70553967e-02 5.83090410e-02
      6.85131252e-02 1.45772600e-03 4.37317789e-03 1.02040824e-02
      2.18658894e-02 8.74635577e-03 1.60349868e-02 2.91545200e-03
      4.37317789e-03 7.28863012e-03 1.45772600e-03 3.35276984e-02</_>
    <_>
      9.39849671e-03 9.58646610e-02 0. 2.06766929e-02 3.75939859e-03
      2.63157897e-02 9.58646610e-02 2.63157897e-02 1.31578948e-02
      1.69172939e-02 3.19548883e-02 5.45112789e-02 4.32330854e-02 0.
      4.32330854e-02 9.02255625e-02 3.94736864e-02 1.87969930e-03
      6.95488751e-02 8.45864713e-02 7.51879737e-02 1.87969930e-03
      7.51879718e-03 5.63909765e-03 1.50375944e-02 9.39849671e-03
      5.07518798e-02 5.63909765e-03 1.50375944e-02 1.12781953e-02
      3.75939859e-03 3.19548883e-02</_>
    <_>
      1.10132154e-02 6.82819337e-02 2.20264308e-03 2.20264308e-02
      8.81057233e-03 2.86343601e-02 1.14537440e-01 3.08370031e-02
      1.10132154e-02 2.20264308e-02 3.96475755e-02 4.40528616e-02
      5.94713613e-02 0. 2.20264308e-02 1.07929513e-01 2.42290739e-02 0.
      5.50660789e-02 7.92951509e-02 6.82819337e-02 4.40528616e-03 0.
      8.81057233e-03 1.10132154e-02 8.81057233e-03 2.20264308e-02
      1.10132154e-02 1.54185016e-02 3.08370031e-02 6.60792924e-03
      6.16740063e-02</_>
    <_>
      8.49256944e-03 5.09554148e-02 2.12314236e-03 8.49256944e-03
      6.36942685e-03 8.06794092e-02 1.35881111e-01 1.48619963e-02
      1.69851389e-02 1.48619963e-02 8.28025490e-02 3.39702778e-02
      6.15711287e-02 0. 5.09554148e-02 7.43099824e-02 2.76008509e-02 0.
      7.85562694e-02 4.24628481e-02 3.39702778e-02 8.49256944e-03
      8.49256944e-03 0. 1.91082805e-02 4.24628472e-03 3.82165611e-02
      1.06157120e-02 2.76008509e-02 1.06157120e-02 2.12314236e-03
      4.45859879e-02</_>
    <_>
      2.33918130e-02 6.14035092e-02 5.84795326e-03 7.01754391e-02
      2.92397663e-03 1.16959065e-02 9.94152054e-02 2.92397663e-02
      8.77192989e-03 1.75438598e-02 5.26315793e-02 3.50877196e-02
      9.64912325e-02 2.92397663e-03 3.50877196e-02 4.38596494e-02
      4.67836261e-02 0. 6.43274859e-02 4.09356728e-02 2.92397663e-02 0.
      1.46198831e-02 0. 2.63157897e-02 1.75438598e-02 4.67836261e-02
      8.77192989e-03 2.63157897e-02 3.50877196e-02 0. 4.67836261e-02</_>
    <_>
      1.81818176e-02 1.04545452e-01 0. 5.45454547e-02 2.27272715e-02
      1.36363637e-02 8.18181783e-02 3.63636352e-02 1.36363637e-02
      2.27272715e-02 2.72727273e-02 1.81818176e-02 5.45454547e-02 0.
      3.63636352e-02 6.81818128e-02 1.81818176e-02 0. 5.90909086e-02
      9.99999940e-02 1.81818176e-02 1.81818176e-02 1.36363637e-02
      4.54545440e-03 2.72727273e-02 9.09090880e-03 5.90909086e-02
      1.36363637e-02 1.36363637e-02 2.72727273e-02 4.54545440e-03
      4.09090891e-02</_>
    <_>
      4.73933667e-03 8.53080601e-02 4.73933667e-03 2.84360200e-02
      3.79146934e-02 4.26540300e-02 1.04265407e-01 1.89573467e-02 0.
      9.47867334e-03 3.31753567e-02 4.73933667e-03 7.10900500e-02
      4.73933667e-03 7.58293867e-02 6.16113767e-02 3.31753567e-02
      4.73933667e-03 1.13744080e-01 7.58293867e-02 2.36966833e-02
      4.73933667e-03 9.47867334e-03 4.73933667e-03 1.42180100e-02
      2.84360200e-02 1.89573467e-02 1.42180100e-02 1.42180100e-02
      2.84360200e-02 0. 2.36966833e-02</_>
    <_>
      2.94117648e-02 1.06617644e-01 0. 7.72058815e-02 0. 1.83823537e-02
      4.04411778e-02 2.20588241e-02 1.10294120e-02 1.83823537e-02
      2.57352944e-02 0. 5.14705889e-02 0. 4.77941185e-02 4.77941185e-02
      3.67647074e-02 7.35294120e-03 6.25000000e-02 2.94117648e-02
      2.20588241e-02 7.35294120e-03 7.35294120e-03 3.67647060e-03
      7.35294120e-03 7.35294120e-03 1.06617644e-01 2.20588241e-02
      1.83823537e-02 6.25000000e-02 0. 1.02941178e-01</_>
    <_>
      5.11654373e-03 1.02330875e-02 7.39056291e-03 2.21716892e-02
      1.70551450e-03 1.00056857e-01 6.48095533e-02 1.47811258e-02
      1.36441160e-02 5.68504864e-03 9.32347924e-02 3.69528159e-02
      1.25071071e-02 0. 6.65150657e-02 1.35872662e-01 8.47072229e-02 0.
      1.37009665e-01 1.13700973e-02 1.70551464e-02 5.68504853e-04
      1.13700973e-02 1.08015919e-02 3.63843106e-02 2.84252432e-03
      1.76236499e-02 2.27401946e-02 3.41102928e-02 5.11654373e-03
      2.27401941e-03 1.53496312e-02</_>
    <_>
      6.25000000e-02 1.95312500e-01 0. 2.34375000e-02 7.81250000e-03
      1.56250000e-02 6.25000000e-02 7.81250000e-03 3.12500000e-02
      2.34375000e-02 1.56250000e-02 2.34375000e-02 4.68750000e-02
      7.81250000e-03 1.56250000e-02 4.68750000e-02 7.81250000e-03 0.
      2.34375000e-02 1.64062500e-01 7.81250000e-03 4.68750000e-02
      2.34375000e-02 7.81250000e-03 3.90625000e-02 0. 1.56250000e-02 0.
      7.81250000e-03 3.90625000e-02 0. 3.12500000e-02</_>
    <_>
      4.96453866e-02 1.06382973e-01 0. 4.25531901e-02 7.09219836e-03 0.
      5.67375869e-02 2.83687934e-02 2.12765951e-02 7.09219836e-03
      4.96453866e-02 1.41843967e-02 7.09219873e-02 0. 5.67375869e-02
      7.80141801e-02 6.38297871e-02 7.09219836e-03 4.96453866e-02
      2.12765951e-02 1.06382973e-01 0. 7.09219836e-03 0. 2.12765951e-02
      0. 4.25531901e-02 1.41843967e-02 7.09219836e-03 4.25531901e-02
      7.09219836e-03 2.12765951e-02</_>
    <_>
      4.65116277e-03 8.37209299e-02 0. 5.11627905e-02 4.65116277e-03
      6.04651161e-02 6.97674453e-02 1.39534883e-02 0. 1.86046511e-02
      5.11627905e-02 6.04651161e-02 6.51162788e-02 0. 1.39534883e-02
      7.44186044e-02 4.65116277e-02 1.39534883e-02 1.02325581e-01
      6.51162788e-02 7.90697634e-02 4.65116277e-03 4.65116277e-03 0.
      1.86046511e-02 9.30232555e-03 3.72093022e-02 1.39534883e-02
      4.65116277e-03 9.30232555e-03 0. 1.86046511e-02</_>
    <_>
      1.22950813e-02 5.32786846e-02 0. 7.37704858e-02 4.09836043e-03 0.
      1.18852451e-01 3.68852429e-02 1.22950813e-02 2.86885239e-02
      5.32786846e-02 5.73770478e-02 6.96721300e-02 4.09836043e-03
      5.73770478e-02 8.60655680e-02 4.91803251e-02 0. 6.14754073e-02
      6.96721300e-02 2.04918012e-02 4.09836043e-03 8.19672085e-03
      4.09836043e-03 4.09836043e-03 1.22950813e-02 2.86885239e-02
      1.63934417e-02 0. 2.45901626e-02 0. 2.86885239e-02</_>
    <_>
      1.36054419e-02 7.48299286e-02 6.80272095e-03 3.40136066e-02
      4.08163257e-02 4.76190448e-02 7.48299286e-02 2.72108838e-02
      2.04081628e-02 2.72108838e-02 4.76190448e-02 2.04081628e-02
      1.08843535e-01 1.36054419e-02 2.04081628e-02 2.72108838e-02
      1.36054419e-02 6.80272095e-03 3.40136066e-02 1.22448981e-01
      1.36054419e-02 1.36054419e-02 3.40136066e-02 6.80272095e-03
      1.36054419e-02 2.04081628e-02 2.04081628e-02 6.80272095e-03
      6.80272095e-03 4.08163257e-02 6.80272095e-03 3.40136066e-02</_></support_vectors>
  <decision_functions>
    <_>
      <sv_count>20</sv_count>
      <rho>3.5157293081283569e-02</rho>
      <alpha>
        1. 1. 1. 1. 1. 1. 1. 1. 1. 1. -1. -1. -1. -1. -1. -1. -1. -1.
        -1. -1.</alpha>
      <index>
        0 1 2 3 4 5 6 7 8 9 10 11 12 13 14 15 16 17 18 19</index></_></decision_functions></default_classifier_name>
</opencv_storage>
