<?xml version="1.0"?>
<opencv_storage>
<default_classifier_name type_id="opencv-ml-svm">
  <svm_type>C_SVC</svm_type>
  <kernel><type>RBF</type>
    <gamma>1.0000000000000001e-09</gamma></kernel>
  <C>1.0000000000000000e-02</C>
  <term_criteria><epsilon>1.1920928955078125e-07</epsilon>
    <iterations>1000</iterations></term_criteria>
  <var_all>72</var_all>
  <var_count>72</var_count>
  <class_count>3</class_count>
  <class_labels type_id="opencv-matrix">
    <rows>1</rows>
    <cols>3</cols>
    <dt>i</dt>
    <data>
      1 2 3</data></class_labels>
  <sv_total>60</sv_total>
  <support_vectors>
    <_>
      6.21876478e-01 2.70155579e-01 6.36492223e-02 4.43187170e-02 0. 0.
      -3.78123522e-01 3.57378602e-01 1.76803395e-02 3.06459214e-03 0. 0.
      -1.36492223e-01 1.23998113e-01 1.24941068e-02 0. 0. 0.
      -1.36492223e-01 1.09382369e-01 2.26308350e-02 4.47901944e-03 0. 0.
      -1.36492223e-01 1.02310233e-01 3.41819897e-02 0. 0. 0.
      -2.73455918e-01 2.53418207e-01 2.00377181e-02 0. 0. 0.
      -2.73455918e-01 2.42102787e-01 2.52239518e-02 6.12918427e-03 0. 0.
      -3.34276289e-01 2.33616218e-01 9.45308805e-02 6.12918427e-03 0. 0.
      -3.34276289e-01 2.16171622e-01 7.16643110e-02 3.44177261e-02
      1.20226312e-02 0. -3.34276289e-01 2.52710998e-01 8.15652981e-02 0.
      0. 0. -3.78123522e-01 3.15652996e-01 6.24705330e-02 0. 0. 0.
      -3.78123522e-01 2.70155579e-01 6.36492223e-02 4.43187170e-02 0. 0.</_>
    <_>
      6.04305863e-01 3.21455091e-01 3.97178903e-02 2.52412762e-02
      9.27988160e-03 0. -3.95694137e-01 3.47067565e-01 4.38010395e-02
      4.82553802e-03 0. 0. -1.85597628e-01 1.20638452e-01 6.01336285e-02
      4.82553802e-03 0. 0. -1.85597628e-01 1.30289540e-01 5.53080924e-02
      0. 0. 0. -1.85597628e-01 1.48106903e-01 3.26651819e-02
      4.82553802e-03 0. 0. -2.55382329e-01 2.23088339e-01 3.22939865e-02
      0. 0. 0. -2.55382329e-01 2.22717151e-01 3.26651819e-02 0. 0. 0.
      -3.47067565e-01 2.57609516e-01 8.94580558e-02 0. 0. 0.
      -3.47067565e-01 2.24944323e-01 8.27765390e-02 2.07869336e-02
      1.85597632e-02 0. -3.47067565e-01 2.71343738e-01 4.41722348e-02
      3.15515958e-02 0. 0. -3.95694137e-01 3.44469190e-01 4.04602811e-02
      1.07646622e-02 0. 0. -3.95694137e-01 3.21455091e-01 3.97178903e-02
      2.52412762e-02 9.27988160e-03 0.</_>
    <_>
      6.22987628e-01 2.83414453e-01 5.12916520e-02 4.23062518e-02 0. 0.
      -3.77012342e-01 3.29090238e-01 3.81879434e-02 9.73418169e-03 0. 0.
      -2.15275183e-01 1.70722574e-01 3.96855101e-02 4.86709084e-03 0. 0.
      -2.15275183e-01 1.68476224e-01 4.67989519e-02 0. 0. 0.
      -2.15275183e-01 1.54249340e-01 6.10258318e-02 0. 0. 0.
      -2.08910525e-01 1.75964057e-01 3.29464637e-02 0. 0. 0.
      -2.08910525e-01 1.94683641e-01 1.42268809e-02 0. 0. 0.
      -3.31710964e-01 2.91276664e-01 4.04342934e-02 0. 0. 0.
      -3.31710964e-01 2.23137408e-01 8.23661536e-02 2.62074135e-02 0. 0.
      -3.31710964e-01 1.78210407e-01 7.41295367e-02 6.10258318e-02
      1.83451883e-02 0. -3.77012342e-01 3.49681765e-01 2.73305885e-02 0.
      0. 0. -3.77012342e-01 2.83414453e-01 5.12916520e-02 4.23062518e-02
      0. 0.</_>
    <_>
      6.27966106e-01 2.82768369e-01 4.83050831e-02 4.09604535e-02 0. 0.
      -3.72033894e-01 3.43220353e-01 2.88135596e-02 0. 0. 0.
      -1.56779662e-01 1.28813565e-01 2.42937859e-02 3.67231644e-03 0. 0.
      -1.56779662e-01 1.28531069e-01 1.61016956e-02 1.21468930e-02 0. 0.
      -1.56779662e-01 1.27401128e-01 2.03389823e-02 9.03954823e-03 0. 0.
      -2.15536729e-01 1.67231634e-01 4.83050831e-02 0. 0. 0.
      -2.15536729e-01 1.89830512e-01 2.57062148e-02 0. 0. 0.
      -3.48022610e-01 3.01129937e-01 4.32203375e-02 3.67231644e-03 0. 0.
      -3.48022610e-01 2.31638417e-01 7.82485902e-02 3.81355919e-02 0. 0.
      -3.48022610e-01 1.98305085e-01 7.28813559e-02 5.56497164e-02
      2.11864412e-02 0. -3.72033894e-01 3.06497186e-01 6.55367225e-02 0.
      0. 0. -3.72033894e-01 2.82768369e-01 4.83050831e-02 4.09604535e-02
      0. 0.</_>
    <_>
      6.47649944e-01 3.06320906e-01 2.91734189e-02 1.68557540e-02 0. 0.
      -3.52350086e-01 3.37115079e-01 1.52350077e-02 0. 0. 0.
      -2.94975698e-01 2.58022696e-01 3.69529985e-02 0. 0. 0.
      -2.94975698e-01 2.48622373e-01 3.43598053e-02 1.19935172e-02 0. 0.
      -2.94975698e-01 2.13614255e-01 8.13614279e-02 0. 0. 0.
      -2.80064821e-01 2.50891417e-01 2.49594823e-02 4.21393849e-03 0. 0.
      -2.80064821e-01 2.24959478e-01 5.51053472e-02 0. 0. 0.
      -3.72771472e-01 2.72285253e-01 1.00486226e-01 0. 0. 0.
      -3.72771472e-01 2.19124794e-01 8.78444090e-02 4.66774702e-02
      1.91247966e-02 0. -3.72771472e-01 2.60615885e-01 6.28849268e-02
      4.11669351e-02 8.10372736e-03 0. -3.52350086e-01 2.97244728e-01
      4.57050242e-02 9.40032396e-03 0. 0. -3.52350086e-01 3.06320906e-01
      2.91734189e-02 1.68557540e-02 0. 0.</_>
    <_>
      6.13529623e-01 3.31976205e-01 2.88130287e-02 1.75383650e-02
      8.14281218e-03 0. -3.86470407e-01 3.55151892e-01 2.72471029e-02
      4.07140609e-03 0. 0. -1.47823364e-01 1.20889448e-01 2.28625126e-02
      4.07140609e-03 0. 0. -1.47823364e-01 1.29971817e-01 1.78515501e-02
      0. 0. 0. -1.47823364e-01 1.31224558e-01 1.25274034e-02
      4.07140609e-03 0. 0. -2.80613840e-01 2.62449116e-01 1.81647353e-02
      0. 0. 0. -2.80613840e-01 2.63388664e-01 1.72251798e-02 0. 0. 0.
      -3.51080477e-01 2.83432513e-01 6.76479787e-02 0. 0. 0.
      -3.51080477e-01 2.43031636e-01 8.23676810e-02 2.56811772e-02 0. 0.
      -3.51080477e-01 2.35828370e-01 6.76479787e-02 2.81866584e-02
      1.94174759e-02 0. -3.86470407e-01 3.49201381e-01 3.22580636e-02
      5.01096155e-03 0. 0. -3.86470407e-01 3.31976205e-01 2.88130287e-02
      1.75383650e-02 8.14281218e-03 0.</_>
    <_>
      6.59261107e-01 2.86570132e-01 3.64453308e-02 1.77234150e-02 0. 0.
      -3.40738893e-01 3.04543197e-01 3.61957066e-02 0. 0. 0.
      -1.90214679e-01 1.37294054e-01 4.56814766e-02 7.23914150e-03 0. 0.
      -1.90214679e-01 1.66749880e-01 1.12331500e-02 1.22316526e-02 0. 0.
      -1.90214679e-01 1.65002495e-01 2.52121817e-02 0. 0. 0.
      -2.54118830e-01 2.08437338e-01 4.56814766e-02 0. 0. 0.
      -2.54118830e-01 2.34897658e-01 1.92211680e-02 0. 0. 0.
      -3.35247129e-01 2.56115824e-01 7.91313052e-02 0. 0. 0.
      -3.35247129e-01 1.87219173e-01 7.51372948e-02 6.06590100e-02
      1.22316526e-02 0. -3.35247129e-01 2.39390910e-01 6.11582622e-02
      2.84573138e-02 6.24063890e-03 0. -3.40738893e-01 2.82326519e-01
      5.84123805e-02 0. 0. 0. -3.40738893e-01 2.86570132e-01
      3.64453308e-02 1.77234150e-02 0. 0.</_>
    <_>
      5.85154831e-01 3.46083790e-01 3.82513665e-02 1.41165759e-02
      1.63934417e-02 0. -4.14845169e-01 3.88888896e-01 2.59562843e-02 0.
      0. 0. -1.58925325e-01 1.44353375e-01 8.65209475e-03 5.91985416e-03
      0. 0. -1.58925325e-01 1.40255004e-01 1.86703093e-02 0. 0. 0.
      -1.58925325e-01 9.60837901e-02 6.28415272e-02 0. 0. 0.
      -2.75956273e-01 2.30418950e-01 4.55373414e-02 0. 0. 0.
      -2.75956273e-01 2.58652091e-01 1.13843353e-02 5.91985416e-03 0. 0.
      -3.73406202e-01 3.32422584e-01 4.09836061e-02 0. 0. 0.
      -3.73406202e-01 2.51366109e-01 7.10382536e-02 5.10018207e-02 0. 0.
      -3.73406202e-01 2.33151183e-01 9.01639313e-02 3.09653915e-02
      1.91256832e-02 0. -4.14845169e-01 3.32422584e-01 7.65027329e-02
      5.91985416e-03 0. 0. -4.14845169e-01 3.46083790e-01 3.82513665e-02
      1.41165759e-02 1.63934417e-02 0.</_>
    <_>
      6.39490008e-01 3.11621130e-01 4.53916229e-02 3.49726784e-03 0. 0.
      -3.60510021e-01 3.39526415e-01 2.00364292e-02 9.47176712e-04 0. 0.
      -2.00364292e-01 1.88269585e-01 1.14389798e-02 5.10018202e-04 0. 0.
      -2.00218573e-01 1.86229512e-01 8.88888910e-03 5.10018226e-03 0. 0.
      -2.00218573e-01 1.83825135e-01 1.32604735e-02 3.06010921e-03 0. 0.
      -3.40837896e-01 3.16794157e-01 2.42622942e-02 0. 0. 0.
      -3.41056466e-01 3.18834245e-01 2.14936249e-02 7.28597457e-04 0. 0.
      -2.50127494e-01 2.20182151e-01 2.89981794e-02 9.47176712e-04 0. 0.
      -2.50127494e-01 2.16247723e-01 2.35336982e-02 6.63023675e-03
      3.64298723e-03 0. -2.50054657e-01 2.19307840e-01 2.92896181e-02
      1.45719491e-03 0. 0. -3.60437155e-01 3.30928952e-01 2.62295082e-02
      1.16575591e-03 2.04007281e-03 0. -3.60364288e-01 3.11621130e-01
      4.53916229e-02 3.49726784e-03 0. 0.</_>
    <_>
      6.32725835e-01 3.04278910e-01 3.16957198e-02 2.09984146e-02
      1.03011094e-02 0. -3.67274165e-01 3.33597451e-01 3.36767025e-02 0.
      0. 0. -1.29160061e-01 1.02218702e-01 2.17908081e-02 5.15055470e-03
      0. 0. -1.29160061e-01 9.23137888e-02 3.16957198e-02 5.15055470e-03
      0. 0. -1.29160061e-01 1.00237720e-01 2.37717908e-02 5.15055470e-03
      0. 0. -2.04833597e-01 1.80665612e-01 2.41679866e-02 0. 0. 0.
      -2.04833597e-01 1.83438987e-01 1.62440576e-02 5.15055470e-03 0. 0.
      -4.52456415e-01 3.60142618e-01 9.23137888e-02 0. 0. 0.
      -4.52456415e-01 2.51188576e-01 1.04992077e-01 5.11093512e-02
      4.51664031e-02 0. -4.52456415e-01 2.53565758e-01 7.88431093e-02
      6.93343878e-02 5.07131554e-02 0. -3.67274165e-01 2.88431048e-01
      6.10142648e-02 1.78288426e-02 0. 0. -3.67274165e-01 3.04278910e-01
      3.16957198e-02 2.09984146e-02 1.03011094e-02 0.</_>
    <_>
      6.10389590e-01 3.23051959e-01 5.60064949e-02 1.05519481e-02 0. 0.
      -3.89610380e-01 3.64042222e-01 1.50162335e-02 1.05519481e-02 0. 0.
      -1.23376623e-01 1.07954547e-01 1.54220778e-02 0. 0. 0.
      -1.23376623e-01 1.09983765e-01 1.33928573e-02 0. 0. 0.
      -1.23376623e-01 9.17207822e-02 3.16558443e-02 0. 0. 0.
      -2.60957778e-01 2.40259737e-01 1.54220778e-02 5.27597405e-03 0. 0.
      -2.60957778e-01 2.32142851e-01 2.88149342e-02 0. 0. 0.
      -4.06250000e-01 3.44561696e-01 6.16883114e-02 0. 0. 0.
      -4.06250000e-01 2.60146111e-01 1.14853896e-01 3.12500000e-02 0. 0.
      -4.06250000e-01 2.30519474e-01 1.03490263e-01 5.43831177e-02
      1.78571437e-02 0. -3.89610380e-01 3.25892866e-01 6.37175292e-02 0.
      0. 0. -3.89610380e-01 3.23051959e-01 5.60064949e-02 1.05519481e-02
      0. 0.</_>
    <_>
      6.35208011e-01 3.10862869e-01 4.89214174e-02 5.00770425e-03 0. 0.
      -3.64791989e-01 3.44375968e-01 1.54083204e-02 5.00770425e-03 0. 0.
      -1.72573194e-01 1.43297374e-01 2.92758085e-02 0. 0. 0.
      -1.72573194e-01 1.25577807e-01 4.16024663e-02 5.39291231e-03 0. 0.
      -1.72573194e-01 1.34437591e-01 3.81355919e-02 0. 0. 0.
      -2.44221881e-01 2.23035440e-01 2.11864412e-02 0. 0. 0.
      -2.44221881e-01 2.14560866e-01 2.46533137e-02 5.00770425e-03 0. 0.
      -3.60169500e-01 2.89291203e-01 6.58705682e-02 5.00770425e-03 0. 0.
      -3.60169500e-01 2.57318944e-01 7.24191070e-02 1.73343606e-02
      1.30970720e-02 0. -3.60169500e-01 2.28428349e-01 6.43297359e-02
      5.20030819e-02 1.54083204e-02 0. -3.64791989e-01 3.13944519e-01
      4.58397530e-02 5.00770425e-03 0. 0. -3.64791989e-01 3.10862869e-01
      4.89214174e-02 5.00770425e-03 0. 0.</_>
    <_>
      6.07142866e-01 3.02333802e-01 8.02687407e-02 1.02545973e-02 0. 0.
      -3.92857134e-01 3.56789261e-01 3.60678919e-02 0. 0. 0.
      -1.20226309e-01 9.61810499e-02 2.40452625e-02 0. 0. 0.
      -1.20226309e-01 9.58274379e-02 1.13154175e-02 1.30834514e-02 0. 0.
      -1.20226309e-01 1.01485148e-01 1.41442716e-02 4.59688809e-03 0. 0.
      -2.02616692e-01 1.73267320e-01 2.93493643e-02 0. 0. 0.
      -2.02616692e-01 1.77157000e-01 2.08628010e-02 4.59688809e-03 0. 0.
      -4.23974544e-01 3.42291385e-01 8.16831663e-02 0. 0. 0.
      -4.23974544e-01 2.10749641e-01 8.48656297e-02 1.00424327e-01
      2.79349368e-02 0. -4.23974544e-01 2.16760963e-01 1.29066482e-01
      5.51626608e-02 2.29844414e-02 0. -3.92857134e-01 3.05869877e-01
      6.68316856e-02 2.01555863e-02 0. 0. -3.92857134e-01 3.02333802e-01
      8.02687407e-02 1.02545973e-02 0. 0.</_>
    <_>
      5.92576623e-01 3.20241690e-01 6.73284456e-02 7.76866637e-03
      1.20845921e-02 0. -4.07423407e-01 3.92317653e-01 1.51057402e-02 0.
      0. 0. -1.75226584e-01 1.69184297e-01 6.04229607e-03 0. 0. 0.
      -1.75226584e-01 1.35951668e-01 3.92749235e-02 0. 0. 0.
      -1.75226584e-01 1.24298662e-01 5.09279259e-02 0. 0. 0.
      -2.43849799e-01 2.02416912e-01 4.14328873e-02 0. 0. 0.
      -2.43849799e-01 2.30470434e-01 1.33793699e-02 0. 0. 0.
      -3.62537771e-01 3.03409576e-01 5.91281839e-02 0. 0. 0.
      -3.62537771e-01 2.32196808e-01 7.16443658e-02 5.86965904e-02 0. 0.
      -3.62537771e-01 2.14069918e-01 8.84764791e-02 2.76219249e-02
      3.23694423e-02 0. -4.07423407e-01 3.62537771e-01 4.48856279e-02 0.
      0. 0. -4.07423407e-01 3.20241690e-01 6.73284456e-02 7.76866637e-03
      1.20845921e-02 0.</_>
    <_>
      6.22240365e-01 2.79367685e-01 5.15126735e-02 3.81575376e-02
      8.72172229e-03 0. -3.77759606e-01 3.32243115e-01 4.11556289e-02
      4.36086114e-03 0. 0. -1.92695558e-01 1.30280733e-01 4.85145822e-02
      1.39002455e-02 0. 0. -1.92695558e-01 1.67348057e-01 2.53475066e-02
      0. 0. 0. -1.92695558e-01 1.61351860e-01 2.69828290e-02
      4.36086114e-03 0. 0. -1.98419183e-01 1.87244475e-01 1.11747067e-02
      0. 0. 0. -1.98419183e-01 1.67620599e-01 3.07985824e-02 0. 0. 0.
      -3.21340978e-01 2.64377207e-01 5.26028909e-02 4.36086114e-03 0. 0.
      -3.21340978e-01 2.08231121e-01 4.17007357e-02 6.45952597e-02
      6.81384560e-03 0. -3.21340978e-01 2.09866449e-01 8.25838074e-02
      2.88907066e-02 0. 0. -3.77759606e-01 3.41509938e-01 2.91632600e-02
      7.08639948e-03 0. 0. -3.77759606e-01 2.79367685e-01 5.15126735e-02
      3.81575376e-02 8.72172229e-03 0.</_>
    <_>
      6.10968947e-01 3.11883003e-01 3.18098739e-02 4.53382097e-02 0. 0.
      -3.89031082e-01 3.57586831e-01 2.66910419e-02 4.75319941e-03 0. 0.
      -1.11883000e-01 6.58135265e-02 4.60694693e-02 0. 0. 0.
      -1.11883000e-01 9.28701982e-02 1.90127976e-02 0. 0. 0.
      -1.11883000e-01 9.72577706e-02 1.46252289e-02 0. 0. 0.
      -2.06946984e-01 1.83546618e-01 2.34003663e-02 0. 0. 0.
      -2.06946984e-01 1.74040213e-01 3.29067633e-02 0. 0. 0.
      -4.48628873e-01 3.61243159e-01 8.73857439e-02 0. 0. 0.
      -4.48628873e-01 2.25594148e-01 9.94515568e-02 1.00914076e-01
      2.26691049e-02 0. -4.48628873e-01 2.27422297e-01 1.15173675e-01
      9.28701982e-02 1.31627060e-02 0. -3.89031082e-01 2.88116992e-01
      7.86106065e-02 2.23034732e-02 0. 0. -3.89031082e-01 3.11883003e-01
      3.18098739e-02 4.53382097e-02 0. 0.</_>
    <_>
      6.28050983e-01 2.68123865e-01 7.79599249e-02 1.67577416e-02
      9.10746772e-03 0. -3.71948987e-01 3.43169391e-01 2.40437165e-02
      4.73588333e-03 0. 0. -9.32604745e-02 8.23315084e-02 1.09289614e-02
      0. 0. 0. -9.32604745e-02 9.03460830e-02 2.91438983e-03 0. 0. 0.
      -9.32604745e-02 8.19672123e-02 1.12932604e-02 0. 0. 0.
      -2.99817860e-01 2.94717669e-01 5.10018226e-03 0. 0. 0.
      -2.99817860e-01 2.76502728e-01 1.85792353e-02 4.73588333e-03 0. 0.
      -3.60291451e-01 2.76138425e-01 8.41530040e-02 0. 0. 0.
      -3.60291451e-01 2.18579233e-01 6.84881583e-02 6.19307831e-02
      1.12932604e-02 0. -3.60291451e-01 2.69581050e-01 7.65027329e-02
      1.42076500e-02 0. 0. -3.71948987e-01 3.35519135e-01 3.06010935e-02
      5.82877966e-03 0. 0. -3.71948987e-01 2.68123865e-01 7.79599249e-02
      1.67577416e-02 9.10746772e-03 0.</_>
    <_>
      6.25129104e-01 2.97762483e-01 6.47160038e-02 1.23924268e-02 0. 0.
      -3.74870926e-01 3.31153184e-01 4.37177271e-02 0. 0. 0.
      -1.47676423e-01 1.24956973e-01 2.27194484e-02 0. 0. 0.
      -1.47676423e-01 1.20826162e-01 2.68502589e-02 0. 0. 0.
      -1.47676423e-01 1.35972455e-01 7.22891558e-03 4.47504316e-03 0. 0.
      -2.38554209e-01 2.04475045e-01 3.40791754e-02 0. 0. 0.
      -2.38554209e-01 1.97246134e-01 4.13080901e-02 0. 0. 0.
      -3.82099837e-01 2.85025805e-01 9.25989673e-02 4.47504316e-03 0. 0.
      -3.82099837e-01 2.33734936e-01 1.22203097e-01 1.54905338e-02
      1.06712561e-02 0. -3.82099837e-01 2.72977620e-01 7.95180723e-02
      2.96041314e-02 0. 0. -3.74870926e-01 3.21858853e-01 4.61273678e-02
      6.88468153e-03 0. 0. -3.74870926e-01 2.97762483e-01 6.47160038e-02
      1.23924268e-02 0. 0.</_>
    <_>
      6.29224658e-01 2.94565946e-01 3.71106677e-02 3.90987396e-02 0. 0.
      -3.70775342e-01 3.44930410e-01 2.15374418e-02 4.30748845e-03 0. 0.
      -1.35520205e-01 1.10669315e-01 2.48508938e-02 0. 0. 0.
      -1.35520205e-01 1.17958911e-01 1.75612997e-02 0. 0. 0.
      -1.35520205e-01 1.12657391e-01 1.62359178e-02 6.62690541e-03 0. 0.
      -2.08747521e-01 1.99801192e-01 8.94632190e-03 0. 0. 0.
      -2.08747521e-01 1.82239890e-01 2.22001318e-02 4.30748845e-03 0. 0.
      -4.36050355e-01 3.52551371e-01 8.34990069e-02 0. 0. 0.
      -4.36050355e-01 2.22332671e-01 1.13320082e-01 7.72034451e-02
      2.31941678e-02 0. -4.36050355e-01 2.54473150e-01 1.04373761e-01
      5.50033152e-02 2.22001318e-02 0. -3.70775342e-01 2.84294248e-01
      6.26242533e-02 2.38568597e-02 0. 0. -3.70775342e-01 2.94565946e-01
      3.71106677e-02 3.90987396e-02 0. 0.</_>
    <_>
      5.67615151e-01 3.78996760e-01 3.34408917e-02 1.99471992e-02 0. 0.
      -4.32384878e-01 3.89557064e-01 3.90143730e-02 3.81343509e-03 0. 0.
      -1.19976535e-01 8.50689337e-02 1.87738333e-02 1.61337629e-02 0. 0.
      -1.19976535e-01 1.09416254e-01 1.05602816e-02 0. 0. 0.
      -1.19976535e-01 1.09122910e-01 1.08536230e-02 0. 0. 0.
      -3.07714880e-01 2.88941026e-01 1.87738333e-02 0. 0. 0.
      -3.07714880e-01 2.84247577e-01 1.96538568e-02 3.81343509e-03 0. 0.
      -2.88354367e-01 2.41126433e-01 4.34144922e-02 3.81343509e-03 0. 0.
      -2.88354367e-01 1.97711945e-01 6.86418340e-02 2.20005866e-02 0. 0.
      -2.88354367e-01 1.92431793e-01 7.68553838e-02 1.90671757e-02 0. 0.
      -4.32384878e-01 4.00997370e-01 2.75740679e-02 3.81343509e-03 0. 0.
      -4.32384878e-01 3.78996760e-01 3.34408917e-02 1.99471992e-02 0. 0.</_>
    <_>
      5.94833970e-01 3.20295215e-01 5.51045500e-02 2.97662970e-02 0. 0.
      -4.05166060e-01 3.32595319e-01 6.54366538e-02 7.13407155e-03 0. 0.
      -2.00738013e-01 1.22509226e-01 4.67404686e-02 3.14883143e-02 0. 0.
      -2.00738013e-01 1.44649446e-01 4.96924967e-02 6.39606407e-03 0. 0.
      -2.00738013e-01 1.84009835e-01 1.67281665e-02 0. 0. 0.
      -2.16236159e-01 1.94341943e-01 2.18942184e-02 0. 0. 0.
      -2.16236159e-01 1.93603933e-01 1.94341950e-02 3.19803203e-03 0. 0.
      -3.30873311e-01 2.95694947e-01 3.51783521e-02 0. 0. 0.
      -3.30873311e-01 2.11070105e-01 6.71586692e-02 3.81303802e-02
      1.45141454e-02 0. -3.30873311e-01 2.09348097e-01 4.62484621e-02
      2.92742923e-02 4.60024588e-02 0. -4.05166060e-01 3.69741708e-01
      1.84501838e-02 1.69741698e-02 0. 0. -4.05166060e-01 3.20295215e-01
      5.51045500e-02 2.97662970e-02 0. 0.</_>
    <_>
      6.11992061e-01 3.35232913e-01 4.38553020e-02 0. 8.91972240e-03 0.
      -3.88007939e-01 2.98315167e-01 6.59068376e-02 2.37859264e-02 0. 0.
      -1.93756193e-01 1.33548066e-01 5.15361726e-02 8.67195241e-03 0. 0.
      -1.93756193e-01 1.55847371e-01 3.79088223e-02 0. 0. 0.
      -1.93756193e-01 1.80872157e-01 1.28840432e-02 0. 0. 0.
      -2.01932609e-01 1.85084239e-01 1.38751240e-02 2.97324080e-03 0. 0.
      -2.01932609e-01 1.75173432e-01 2.42814664e-02 2.47770059e-03 0. 0.
      -3.02775025e-01 2.25966305e-01 7.68087208e-02 0. 0. 0.
      -3.02775025e-01 2.06888005e-01 7.40832537e-02 2.18037665e-02 0. 0.
      -3.02775025e-01 2.00941533e-01 6.11992069e-02 4.06342931e-02 0. 0.
      -3.88007939e-01 3.36967289e-01 5.10406345e-02 0. 0. 0.
      -3.88007939e-01 3.35232913e-01 4.38553020e-02 0. 8.91972240e-03 0.</_>
    <_>
      6.14945650e-01 3.08423907e-01 4.04891297e-02 2.11956520e-02
      1.49456523e-02 0. -3.85054350e-01 3.42934787e-01 3.85869555e-02
      3.53260874e-03 0. 0. -2.02717394e-01 1.22826084e-01 4.70108688e-02
      2.60869563e-02 6.79347804e-03 0. -2.02717394e-01 1.71467394e-01
      2.33695656e-02 7.88043439e-03 0. 0. -2.02717394e-01 1.85597822e-01
      1.71195660e-02 0. 0. 0. -2.23097831e-01 2.04891309e-01
      1.82065219e-02 0. 0. 0. -2.23097831e-01 1.88043475e-01
      3.50543484e-02 0. 0. 0. -3.57880443e-01 3.04619551e-01
      4.97282594e-02 3.53260874e-03 0. 0. -3.57880443e-01 2.19836950e-01
      8.66847858e-02 3.83152179e-02 1.30434781e-02 0. -3.57880443e-01
      2.28804350e-01 4.94565219e-02 4.23913039e-02 3.72282602e-02 0.
      -3.85054350e-01 3.35054338e-01 3.77717391e-02 1.22282607e-02 0. 0.
      -3.85054350e-01 3.08423907e-01 4.04891297e-02 2.11956520e-02
      1.49456523e-02 0.</_>
    <_>
      5.49562037e-01 3.60765338e-01 6.75426498e-02 2.21300144e-02 0. 0.
      -4.50437993e-01 4.22083914e-01 2.12079305e-02 0. 7.14615034e-03 0.
      -1.48455516e-01 1.27017066e-01 1.84416790e-02 2.99677276e-03 0. 0.
      -1.48455516e-01 1.27939150e-01 1.19870910e-02 8.52927659e-03 0. 0.
      -1.48455516e-01 1.23559244e-01 2.48962659e-02 0. 0. 0.
      -2.41124943e-01 2.19225451e-01 2.18994934e-02 0. 0. 0.
      -2.41124943e-01 2.10465655e-01 3.06592900e-02 0. 0. 0.
      -3.05670828e-01 2.49884740e-01 5.57860769e-02 0. 0. 0.
      -3.05670828e-01 2.38128170e-01 5.00230528e-02 1.75195951e-02 0. 0.
      -3.05670828e-01 2.18072847e-01 5.87828495e-02 2.88151223e-02 0. 0.
      -4.50437993e-01 3.76671284e-01 6.77731708e-02 5.99354552e-03 0. 0.
      -4.50437993e-01 3.60765338e-01 6.75426498e-02 2.21300144e-02 0. 0.</_>
    <_>
      6.01321578e-01 3.30396473e-01 5.60450330e-02 3.67107196e-03
      8.56583472e-03 0. -3.98678422e-01 3.56338710e-01 4.23396975e-02 0.
      0. 0. -1.57121882e-01 1.05482131e-01 4.67449836e-02 4.89476277e-03
      0. 0. -1.57121882e-01 1.34850711e-01 2.22711693e-02 0. 0. 0.
      -1.57121882e-01 1.39745474e-01 1.73764080e-02 0. 0. 0.
      -2.17572197e-01 2.05824763e-01 1.17474301e-02 0. 0. 0.
      -2.17572197e-01 2.03622118e-01 1.39500732e-02 0. 0. 0.
      -3.27704370e-01 2.58443475e-01 6.92608878e-02 0. 0. 0.
      -3.27704370e-01 1.80616736e-01 6.26529604e-02 5.87371513e-02
      2.56975032e-02 0. -3.27704370e-01 2.33724907e-01 6.38766512e-02
      3.01027894e-02 0. 0. -3.98678422e-01 3.54870290e-01 4.06265296e-02
      3.18159559e-03 0. 0. -3.98678422e-01 3.30396473e-01 5.60450330e-02
      3.67107196e-03 8.56583472e-03 0.</_>
    <_>
      6.05921030e-01 3.13486844e-01 6.64473698e-02 1.41447373e-02 0. 0.
      -3.94078940e-01 3.30592096e-01 5.82236834e-02 5.26315812e-03 0. 0.
      -1.23355262e-01 7.99342096e-02 3.05921044e-02 1.28289470e-02 0. 0.
      -1.23355262e-01 1.12171054e-01 1.11842109e-02 0. 0. 0.
      -1.23355262e-01 1.17105260e-01 1.97368418e-03 4.27631568e-03 0. 0.
      -2.63157904e-01 2.47697368e-01 1.11842109e-02 4.27631568e-03 0. 0.
      -2.63157904e-01 2.10526317e-01 4.83552627e-02 4.27631568e-03 0. 0.
      -3.45394731e-01 2.46710524e-01 9.44078937e-02 4.27631568e-03 0. 0.
      -3.45394731e-01 2.59539485e-01 7.73026347e-02 8.55263136e-03 0. 0.
      -3.45394731e-01 2.62828946e-01 5.13157882e-02 3.12500000e-02 0. 0.
      -3.94078940e-01 3.51315796e-01 4.27631587e-02 0. 0. 0.
      -3.94078940e-01 3.13486844e-01 6.64473698e-02 1.41447373e-02 0. 0.</_>
    <_>
      6.58354104e-01 2.80014247e-01 2.92126834e-02 2.28001419e-02
      9.61881038e-03 0. -3.41645896e-01 2.92839319e-01 4.88065556e-02 0.
      0. 0. -2.60064125e-01 1.87388673e-01 4.84503023e-02 1.21125756e-02
      1.21125756e-02 0. -2.60064125e-01 1.39294624e-01 8.94193053e-02
      3.13501954e-02 0. 0. -2.60064125e-01 1.87388673e-01 7.26754516e-02
      0. 0. 0. -1.90951198e-01 1.83469892e-01 2.85001774e-03
      4.63127904e-03 0. 0. -1.90951198e-01 1.55325964e-01 3.56252231e-02
      0. 0. 0. -3.28464568e-01 2.83576787e-01 4.02565002e-02
      4.63127904e-03 0. 0. -3.28464568e-01 1.71713576e-01 6.84004277e-02
      8.83505493e-02 0. 0. -3.28464568e-01 1.67794794e-01 9.15568247e-02
      2.92126834e-02 3.99002507e-02 0. -3.41645896e-01 2.90701807e-01
      4.63127904e-02 4.63127904e-03 0. 0. -3.41645896e-01 2.80014247e-01
      2.92126834e-02 2.28001419e-02 9.61881038e-03 0.</_>
    <_>
      6.24673426e-01 3.07982594e-01 3.83163989e-02 2.90275756e-02 0. 0.
      -3.75326574e-01 3.42525393e-01 3.28011625e-02 0. 0. 0.
      -1.75907105e-01 1.47750363e-01 2.81567480e-02 0. 0. 0.
      -1.75907105e-01 1.18722789e-01 5.71843237e-02 0. 0. 0.
      -1.75907105e-01 1.21335268e-01 5.45718446e-02 0. 0. 0.
      -2.27866471e-01 2.06095785e-01 2.17706822e-02 0. 0. 0.
      -2.27866471e-01 1.96226418e-01 3.16400565e-02 0. 0. 0.
      -3.92743111e-01 3.42235118e-01 4.67343964e-02 3.77358496e-03 0. 0.
      -3.92743111e-01 2.76632816e-01 1.03047892e-01 1.30624091e-02 0. 0.
      -3.92743111e-01 1.66908562e-01 1.20174162e-01 8.30188692e-02
      2.26415098e-02 0. -3.75326574e-01 2.89695203e-01 8.09869394e-02
      4.64441208e-03 0. 0. -3.75326574e-01 3.07982594e-01 3.83163989e-02
      2.90275756e-02 0. 0.</_>
    <_>
      5.99396706e-01 2.94720978e-01 6.00301661e-02 4.58521880e-02 0. 0.
      -4.00603324e-01 3.27601820e-01 7.30015114e-02 0. 0. 0.
      -1.49622932e-01 1.02262445e-01 4.25339378e-02 4.82654618e-03 0. 0.
      -1.49622932e-01 1.36048272e-01 1.35746608e-02 0. 0. 0.
      -1.49622932e-01 1.43589750e-01 6.03318261e-03 0. 0. 0.
      -2.34690800e-01 2.30467573e-01 4.22322797e-03 0. 0. 0.
      -2.34690800e-01 1.84615389e-01 5.00754155e-02 0. 0. 0.
      -3.39064866e-01 2.37104073e-01 9.20060351e-02 9.95475147e-03 0. 0.
      -3.39064866e-01 2.48868778e-01 7.60181025e-02 1.41779790e-02 0. 0.
      -3.39064866e-01 2.60331839e-01 4.88687791e-02 2.98642535e-02 0. 0.
      -4.00603324e-01 3.49622935e-01 4.31372561e-02 7.84313772e-03 0. 0.
      -4.00603324e-01 2.94720978e-01 6.00301661e-02 4.58521880e-02 0. 0.</_>
    <_>
      6.68022811e-01 2.31489018e-01 4.75996733e-02 1.13913752e-02
      4.14971523e-02 0. -3.31977218e-01 2.87225395e-01 3.94629799e-02
      5.28885284e-03 0. 0. -1.44833192e-01 9.80471894e-02 2.96989419e-02
      1.70870628e-02 0. 0. -1.44833192e-01 1.21236779e-01 2.35964190e-02
      0. 0. 0. -1.44833192e-01 1.26118794e-01 1.87144019e-02 0. 0. 0.
      -2.55085438e-01 2.40439385e-01 9.35720094e-03 5.28885284e-03 0. 0.
      -2.55085438e-01 1.83482513e-01 7.16029257e-02 0. 0. 0.
      -3.78356397e-01 2.46135071e-01 1.12286411e-01 6.10252237e-03
      1.38323838e-02 0. -3.78356397e-01 1.87957689e-01 1.20829940e-01
      5.32953627e-02 1.62733924e-02 0. -3.78356397e-01 2.55899101e-01
      8.78763199e-02 3.45809609e-02 0. 0. -3.31977218e-01 2.76647687e-01
      3.29536200e-02 2.23759152e-02 0. 0. -3.31977218e-01 2.31489018e-01
      4.75996733e-02 1.13913752e-02 4.14971523e-02 0.</_>
    <_>
      5.99599123e-01 3.18717122e-01 4.51014787e-02 2.85642687e-02
      8.01804103e-03 0. -4.00400907e-01 3.27236295e-01 7.31646195e-02 0.
      0. 0. -2.17990473e-01 1.39062896e-01 6.01353049e-02 1.87922828e-02
      0. 0. -2.17990473e-01 1.65372089e-01 4.20947149e-02 1.05236787e-02
      0. 0. -2.17990473e-01 2.01202706e-01 1.67877730e-02 0. 0. 0.
      -2.17739910e-01 2.06464544e-01 1.12753697e-02 0. 0. 0.
      -2.17739910e-01 1.90929592e-01 2.68103238e-02 0. 0. 0.
      -3.26735169e-01 2.39789531e-01 8.04309696e-02 6.51465775e-03 0. 0.
      -3.26735169e-01 2.04710603e-01 7.64219463e-02 4.56026047e-02 0. 0.
      -3.26735169e-01 2.14733154e-01 6.43948913e-02 2.28013024e-02
      2.48058122e-02 0. -4.00400907e-01 3.55800539e-01 3.33249830e-02
      1.12753697e-02 0. 0. -4.00400907e-01 3.18717122e-01 4.51014787e-02
      2.85642687e-02 8.01804103e-03 0.</_>
    <_>
      6.21138811e-01 3.24897647e-01 4.24264967e-02 1.15370303e-02 0. 0.
      -3.78861189e-01 3.14104944e-01 5.34052849e-02 1.13509493e-02 0. 0.
      -1.81056947e-01 1.39560848e-01 3.23781185e-02 9.11797583e-03 0. 0.
      -1.81056947e-01 1.51470035e-01 2.45627090e-02 5.02419053e-03 0. 0.
      -1.81056947e-01 1.58168957e-01 2.28879787e-02 0. 0. 0.
      -2.16784522e-01 2.00037211e-01 1.43282469e-02 2.41905474e-03 0. 0.
      -2.16784522e-01 1.90360993e-01 2.64235213e-02 0. 0. 0.
      -3.56903613e-01 2.86937118e-01 6.99665025e-02 0. 0. 0.
      -3.56903613e-01 2.10643843e-01 8.42947513e-02 6.19650185e-02 0. 0.
      -3.56903613e-01 2.51395613e-01 6.69892058e-02 3.85187939e-02 0. 0.
      -3.78861189e-01 3.28805357e-01 3.92631181e-02 1.07927052e-02 0. 0.
      -3.78861189e-01 3.24897647e-01 4.24264967e-02 1.15370303e-02 0. 0.</_>
    <_>
      6.09471500e-01 3.27041864e-01 4.42690477e-02 1.92175712e-02 0. 0.
      -3.90528470e-01 3.33905280e-01 5.43925874e-02 2.23061093e-03 0. 0.
      -2.36959502e-01 1.39670551e-01 6.50308877e-02 2.79684290e-02
      4.28963639e-03 0. -2.36959502e-01 1.90631434e-01 4.35827039e-02
      2.74536712e-03 0. 0. -2.36959502e-01 2.09677413e-01 2.72820871e-02
      0. 0. 0. -2.28723407e-01 2.10878521e-01 1.78448875e-02 0. 0. 0.
      -2.28723407e-01 1.97323263e-01 3.14001366e-02 0. 0. 0.
      -3.16060394e-01 2.58579284e-01 5.07892929e-02 6.69183256e-03 0. 0.
      -3.16060394e-01 2.18428284e-01 7.08647892e-02 2.67673302e-02 0. 0.
      -3.16060394e-01 2.04015106e-01 7.87577182e-02 3.32875773e-02 0. 0.
      -3.90528470e-01 3.46259445e-01 4.20384370e-02 2.23061093e-03 0. 0.
      -3.90528470e-01 3.27041864e-01 4.42690477e-02 1.92175712e-02 0. 0.</_>
    <_>
      6.91814959e-01 2.40213528e-01 3.55871879e-02 1.99288260e-02
      1.24555156e-02 0. -3.08185041e-01 2.74021357e-01 2.84697507e-02
      5.69395022e-03 0. 0. -1.56227753e-01 9.25266892e-02 3.30960862e-02
      3.06049827e-02 0. 0. -1.56227753e-01 1.38434157e-01 1.77935939e-02
      0. 0. 0. -1.56227753e-01 1.39145911e-01 1.70818511e-02 0. 0. 0.
      -2.65124559e-01 2.55516022e-01 4.98220650e-03 4.62633464e-03 0. 0.
      -2.65124559e-01 1.91103205e-01 7.40213543e-02 0. 0. 0.
      -4.10320282e-01 2.61209965e-01 1.30604982e-01 1.85053386e-02 0. 0.
      -4.10320282e-01 2.33807832e-01 1.14946619e-01 5.16014248e-02
      9.96441301e-03 0. -4.10320282e-01 2.98932374e-01 6.72597885e-02
      4.41281125e-02 0. 0. -3.08185041e-01 2.66192168e-01 2.70462632e-02
      1.49466190e-02 0. 0. -3.08185041e-01 2.40213528e-01 3.55871879e-02
      1.99288260e-02 1.24555156e-02 0.</_>
    <_>
      6.46870911e-01 3.13286990e-01 2.40556281e-02 1.57865062e-02 0. 0.
      -3.53129119e-01 3.04266125e-01 4.39766943e-02 4.88629937e-03 0. 0.
      -2.00526223e-01 1.49783880e-01 3.87145281e-02 1.20278141e-02 0. 0.
      -2.00526223e-01 1.65570378e-01 2.76263859e-02 7.32944952e-03 0. 0.
      -2.00526223e-01 1.82296559e-01 1.82296559e-02 0. 0. 0.
      -2.46946067e-01 2.27025002e-01 1.74779184e-02 2.44314969e-03 0. 0.
      -2.46946067e-01 2.11050555e-01 3.58955078e-02 0. 0. 0.
      -3.42416853e-01 2.93365896e-01 4.49163690e-02 4.13456140e-03 0. 0.
      -3.42416853e-01 2.34166503e-01 8.81413296e-02 2.01090015e-02 0. 0.
      -3.42416853e-01 2.12741971e-01 8.11877474e-02 4.84871268e-02 0. 0.
      -3.53129119e-01 2.99003959e-01 5.16820140e-02 2.44314969e-03 0. 0.
      -3.53129119e-01 3.13286990e-01 2.40556281e-02 1.57865062e-02 0. 0.</_>
    <_>
      6.49056613e-01 3.08535486e-01 3.03683747e-02 1.20395329e-02 0. 0.
      -3.50943387e-01 3.06199461e-01 4.47439365e-02 0. 0. 0.
      -2.19407007e-01 1.36028752e-01 5.64240776e-02 1.79694518e-02
      8.98472592e-03 0. -2.19407007e-01 1.82749331e-01 3.66576836e-02 0.
      0. 0. -2.19407007e-01 2.01257855e-01 1.81491468e-02 0. 0. 0.
      -2.41509438e-01 2.25876004e-01 1.20395329e-02 3.59389046e-03 0. 0.
      -2.41509438e-01 2.07008094e-01 3.45013477e-02 0. 0. 0.
      -3.24348599e-01 2.55885005e-01 6.37915507e-02 4.67205746e-03 0. 0.
      -3.24348599e-01 2.03773588e-01 8.53548944e-02 3.52201276e-02 0. 0.
      -3.24348599e-01 2.06109613e-01 8.17610100e-02 3.00089847e-02
      6.46900292e-03 0. -3.50943387e-01 2.95058399e-01 4.52830195e-02
      1.06019769e-02 0. 0. -3.50943387e-01 3.08535486e-01 3.03683747e-02
      1.20395329e-02 0. 0.</_>
    <_>
      6.41757667e-01 2.95431972e-01 3.52532268e-02 2.75571011e-02 0. 0.
      -3.58242303e-01 3.07100296e-01 5.11420071e-02 0. 0. 0.
      -1.80734858e-01 9.08639506e-02 5.46176769e-02 3.52532268e-02 0. 0.
      -1.80734858e-01 1.53922543e-01 2.68123131e-02 0. 0. 0.
      -1.80734858e-01 1.68570012e-01 1.21648461e-02 0. 0. 0.
      -2.64399201e-01 2.59185702e-01 1.98609731e-03 3.22740804e-03 0. 0.
      -2.64399201e-01 2.35104263e-01 2.92949360e-02 0. 0. 0.
      -3.27457786e-01 2.57696122e-01 6.65342584e-02 3.22740804e-03 0. 0.
      -3.27457786e-01 2.33614698e-01 5.48659377e-02 3.89771610e-02 0. 0.
      -3.27457786e-01 2.27656409e-01 5.93346581e-02 3.27706076e-02
      7.69612705e-03 0. -3.58242303e-01 3.09582919e-01 4.54319753e-02
      3.22740804e-03 0. 0. -3.58242303e-01 2.95431972e-01 3.52532268e-02
      2.75571011e-02 0. 0.</_>
    <_>
      7.09858298e-01 2.36127511e-01 3.71900834e-02 9.14994068e-03
      7.67414412e-03 0. -2.90141672e-01 2.54427403e-01 3.18772122e-02
      3.83707206e-03 0. 0. -1.20425031e-01 9.53364819e-02 1.74144041e-02
      7.67414412e-03 0. 0. -1.20425031e-01 1.10684767e-01 9.74025950e-03
      0. 0. 0. -1.20425031e-01 1.10389613e-01 1.00354189e-02 0. 0. 0.
      -3.35301071e-01 3.23199540e-01 8.26446246e-03 3.83707206e-03 0. 0.
      -3.35301071e-01 2.66824096e-01 6.84769750e-02 0. 0. 0.
      -3.41499418e-01 2.27863044e-01 9.82880741e-02 1.53482882e-02 0. 0.
      -3.41499418e-01 2.16351837e-01 6.31641075e-02 6.19834699e-02 0. 0.
      -3.41499418e-01 2.69480526e-01 6.08028322e-02 1.12160565e-02 0. 0.
      -2.90141672e-01 2.49704838e-01 2.80401409e-02 1.23966942e-02 0. 0.
      -2.90141672e-01 2.36127511e-01 3.71900834e-02 9.14994068e-03
      7.67414412e-03 0.</_>
    <_>
      6.74321532e-01 2.90651828e-01 1.46137783e-02 1.41498493e-02
      6.26304792e-03 0. -3.25678498e-01 2.83924848e-01 3.27070281e-02
      9.04662535e-03 0. 0. -2.22686157e-01 1.38250992e-01 6.23985156e-02
      2.20366511e-02 0. 0. -2.22686157e-01 1.81860358e-01 3.61865014e-02
      4.63929493e-03 0. 0. -2.22686157e-01 2.09464163e-01 1.32219903e-02
      0. 0. 0. -2.23150074e-01 2.14335427e-01 8.81465990e-03 0. 0. 0.
      -2.23150074e-01 1.92066804e-01 3.10832746e-02 0. 0. 0.
      -3.46091390e-01 2.67455339e-01 6.75017387e-02 1.11343078e-02 0. 0.
      -3.46091390e-01 2.41939232e-01 7.56205022e-02 2.85316631e-02 0. 0.
      -3.46091390e-01 2.59104609e-01 6.26304820e-02 2.43562981e-02 0. 0.
      -3.25678498e-01 2.83228964e-01 3.94340046e-02 3.01554170e-03 0. 0.
      -3.25678498e-01 2.90651828e-01 1.46137783e-02 1.41498493e-02
      6.26304792e-03 0.</_>
    <_>
      5.65734506e-01 3.38154942e-01 6.87881708e-02 2.73224041e-02 0. 0.
      -4.34265524e-01 3.69013190e-01 6.01092912e-02 5.14304079e-03 0. 0.
      -2.12471873e-01 1.40469298e-01 4.56444882e-02 1.83220822e-02
      8.03600159e-03 0. -2.12471873e-01 1.51076823e-01 5.11089675e-02
      1.02860816e-02 0. 0. -2.12471873e-01 1.78077787e-01 3.02153639e-02
      4.17872053e-03 0. 0. -1.75506264e-01 1.62005782e-01 1.35004818e-02
      0. 0. 0. -1.75506264e-01 1.50433943e-01 2.50723232e-02 0. 0. 0.
      -3.46190929e-01 3.11475396e-01 2.63580848e-02 8.35744105e-03 0. 0.
      -3.46190929e-01 2.19222113e-01 7.52169713e-02 5.17518483e-02 0. 0.
      -3.46190929e-01 1.64577305e-01 7.26454481e-02 5.52876890e-02
      5.36804870e-02 0. -4.34265524e-01 3.72549027e-01 4.21086475e-02
      1.96078438e-02 0. 0. -4.34265524e-01 3.38154942e-01 6.87881708e-02
      2.73224041e-02 0. 0.</_>
    <_>
      4.28806573e-01 4.33744848e-01 7.65432119e-02 3.62139903e-02
      2.46913582e-02 0. -5.71193397e-01 5.18518507e-01 3.12757194e-02
      2.13991776e-02 0. 0. -1.12757199e-01 5.76131679e-02 2.96296291e-02
      2.55144034e-02 0. 0. -1.12757199e-01 7.81892985e-02 3.45679000e-02
      0. 0. 0. -1.12757199e-01 9.87654328e-02 1.39917694e-02 0. 0. 0.
      -1.46502063e-01 1.32510290e-01 1.39917694e-02 0. 0. 0.
      -1.46502063e-01 9.95884761e-02 4.69135791e-02 0. 0. 0.
      -3.72016460e-01 3.06172848e-01 4.19753082e-02 2.38683131e-02 0. 0.
      -3.72016460e-01 3.00411522e-01 4.93827164e-02 2.22222228e-02 0. 0.
      -3.72016460e-01 1.24279834e-01 1.10288069e-01 1.06995888e-02
      1.26748964e-01 0. -5.71193397e-01 4.18107003e-01 1.24279834e-01
      2.88065840e-02 0. 0. -5.71193397e-01 4.33744848e-01 7.65432119e-02
      3.62139903e-02 2.46913582e-02 0.</_>
    <_>
      5.03259480e-01 3.81681889e-01 7.49674067e-02 4.00912650e-02 0. 0.
      -4.96740550e-01 4.48500663e-01 4.82398942e-02 0. 0. 0.
      -1.61342889e-01 9.25684497e-02 4.69361134e-02 2.18383316e-02 0. 0.
      -1.61342889e-01 1.24837026e-01 3.19426320e-02 4.56323335e-03 0. 0.
      -1.61342889e-01 1.32333770e-01 2.90091261e-02 0. 0. 0.
      -1.54823989e-01 1.36245117e-01 1.85788795e-02 0. 0. 0.
      -1.54823989e-01 1.44719690e-01 1.01043023e-02 0. 0. 0.
      -3.58865708e-01 3.33767921e-01 2.50977837e-02 0. 0. 0.
      -3.58865708e-01 2.18709260e-01 1.05606258e-01 3.45501974e-02 0. 0.
      -3.58865708e-01 1.61668837e-01 1.35593221e-01 4.53063883e-02
      1.62972622e-02 0. -4.96740550e-01 4.06779647e-01 8.05084780e-02
      9.45241190e-03 0. 0. -4.96740550e-01 3.81681889e-01 7.49674067e-02
      4.00912650e-02 0. 0.</_>
    <_>
      5.39580643e-01 3.35044920e-01 6.80359453e-02 5.73384687e-02 0. 0.
      -4.60419327e-01 4.18057352e-01 2.99529303e-02 1.24090714e-02 0. 0.
      -1.27941802e-01 1.02267861e-01 1.36927683e-02 1.19811725e-02 0. 0.
      -1.27941802e-01 1.03979461e-01 1.75438598e-02 6.41848519e-03 0. 0.
      -1.27941802e-01 1.19383827e-01 8.55797995e-03 0. 0. 0.
      -1.73299104e-01 1.69020116e-01 4.27898997e-03 0. 0. 0.
      -1.73299104e-01 1.43774062e-01 2.95250323e-02 0. 0. 0.
      -3.65853667e-01 3.22635859e-01 4.32178006e-02 0. 0. 0.
      -3.65853667e-01 2.35772356e-01 7.27428347e-02 4.15062048e-02
      1.58322640e-02 0. -3.65853667e-01 1.87419772e-01 9.84167755e-02
      8.00171196e-02 0. 0. -4.60419327e-01 3.82969618e-01 6.63243458e-02
      1.11253746e-02 0. 0. -4.60419327e-01 3.35044920e-01 6.80359453e-02
      5.73384687e-02 0. 0.</_>
    <_>
      6.31561816e-01 2.89859802e-01 5.73850684e-02 2.11933479e-02 0. 0.
      -3.68438214e-01 2.44212583e-01 1.14770137e-01 9.45549365e-03 0. 0.
      -2.59863049e-01 6.71666116e-02 1.18682750e-01 6.58624098e-02
      8.15128814e-03 0. -2.59863049e-01 2.15520054e-01 3.91261801e-02
      5.21682436e-03 0. 0. -2.59863049e-01 2.53015965e-01 6.84708171e-03
      0. 0. 0. -1.57482877e-01 1.46397129e-01 1.10857515e-02 0. 0. 0.
      -1.57482877e-01 1.41506359e-01 1.59765240e-02 0. 0. 0.
      -3.22138906e-01 1.85197264e-01 1.32702962e-01 4.23866976e-03 0. 0.
      -3.22138906e-01 1.38571888e-01 7.49918520e-02 6.65145069e-02
      2.60841213e-02 1.59765240e-02 -3.22138906e-01 2.26605803e-01
      4.98858802e-02 2.90185846e-02 1.66286267e-02 0. -3.68438214e-01
      3.44636440e-01 1.85849369e-02 5.21682436e-03 0. 0. -3.68438214e-01
      2.89859802e-01 5.73850684e-02 2.11933479e-02 0. 0.</_>
    <_>
      5.52826941e-01 3.58081102e-01 6.73900619e-02 1.25642493e-02
      9.13763605e-03 0. -4.47173029e-01 3.12964022e-01 1.02798402e-01
      3.14106233e-02 0. 0. -2.47287259e-01 5.16847521e-02 1.52484298e-01
      4.31182198e-02 0. 0. -2.47287259e-01 2.20731005e-01 2.65562534e-02
      0. 0. 0. -2.47287259e-01 2.45288402e-01 1.99885783e-03 0. 0. 0.
      -1.05653912e-01 1.03655055e-01 1.99885783e-03 0. 0. 0.
      -1.05653912e-01 9.79440287e-02 7.70987989e-03 0. 0. 0.
      -2.52427191e-01 1.72472879e-01 7.99543113e-02 0. 0. 0.
      -2.52427191e-01 1.15648203e-01 5.71102239e-02 6.59623072e-02
      1.37064531e-02 0. -2.52427191e-01 1.71901777e-01 4.96858954e-02
      1.65619645e-02 1.42775560e-02 0. -4.47173029e-01 4.13763553e-01
      2.88406629e-02 4.56881803e-03 0. 0. -4.47173029e-01 3.58081102e-01
      6.73900619e-02 1.25642493e-02 9.13763605e-03 0.</_>
    <_>
      4.47404683e-01 4.06982094e-01 7.71704167e-02 5.60404211e-02
      1.24023883e-02 0. -5.52595317e-01 5.12632072e-01 3.39917317e-02
      5.97152067e-03 0. 0. -5.74184656e-02 3.35323848e-02 1.79145616e-02
      5.97152067e-03 0. 0. -5.74184656e-02 4.91502061e-02 8.26825947e-03
      0. 0. 0. -5.74184656e-02 5.09875976e-02 6.43086806e-03 0. 0. 0.
      -8.95728096e-02 8.63573700e-02 3.21543403e-03 0. 0. 0.
      -8.95728096e-02 8.17638934e-02 7.80891115e-03 0. 0. 0.
      -4.21221852e-01 3.97335798e-01 2.38860827e-02 0. 0. 0.
      -4.21221852e-01 3.19706023e-01 8.81947652e-02 1.33210840e-02 0. 0.
      -4.21221852e-01 9.18695480e-02 1.26320630e-01 1.26320630e-01
      7.67110735e-02 0. -5.52595317e-01 3.97335798e-01 1.29995406e-01
      2.52641253e-02 0. 0. -5.52595317e-01 4.06982094e-01 7.71704167e-02
      5.60404211e-02 1.24023883e-02 0.</_>
    <_>
      5.58388591e-01 3.18204999e-01 9.07700136e-02 1.83579810e-02
      1.42784296e-02 0. -4.41611409e-01 4.08975005e-01 2.60071401e-02
      6.62927097e-03 0. 0. -8.77103508e-02 5.45639992e-02 3.31463553e-02
      0. 0. 0. -8.77103508e-02 3.77358496e-02 3.36562991e-02
      1.63182057e-02 0. 0. -8.77103508e-02 8.05711374e-02 7.13921478e-03
      0. 0. 0. -1.25446200e-01 1.25446200e-01 0. 0. 0. 0.
      -1.25446200e-01 9.48495641e-02 3.05966344e-02 0. 0. 0.
      -4.71698105e-01 3.96736354e-01 7.49617517e-02 0. 0. 0.
      -4.71698105e-01 1.85109645e-01 1.03008673e-01 1.61652222e-01
      2.19275877e-02 0. -4.71698105e-01 2.72310048e-01 1.03008673e-01
      9.63793993e-02 0. 0. -4.41611409e-01 3.72259051e-01 4.94645573e-02
      1.98878124e-02 0. 0. -4.41611409e-01 3.18204999e-01 9.07700136e-02
      1.83579810e-02 1.42784296e-02 0.</_>
    <_>
      4.99839485e-01 3.91974330e-01 7.99357966e-02 2.82504018e-02 0. 0.
      -5.00160515e-01 4.68057781e-01 3.21027301e-02 0. 0. 0.
      -1.69502407e-01 1.05617978e-01 3.98073830e-02 2.40770467e-02 0. 0.
      -1.69502407e-01 1.25200644e-01 3.98073830e-02 4.49438207e-03 0. 0.
      -1.69502407e-01 1.45746395e-01 2.37560198e-02 0. 0. 0.
      -1.47672549e-01 1.30016059e-01 1.76565014e-02 0. 0. 0.
      -1.47672549e-01 1.31942213e-01 1.57303363e-02 0. 0. 0.
      -3.65008026e-01 3.30016047e-01 3.49919759e-02 0. 0. 0.
      -3.65008026e-01 2.58747995e-01 9.72712710e-02 8.98876414e-03 0. 0.
      -3.65008026e-01 1.56340286e-01 1.25200644e-01 5.07223122e-02
      3.27447839e-02 0. -5.00160515e-01 3.92937392e-01 8.37881193e-02
      2.34349929e-02 0. 0. -5.00160515e-01 3.91974330e-01 7.99357966e-02
      2.82504018e-02 0. 0.</_>
    <_>
      4.64205176e-01 2.93404728e-01 1.01465613e-01 7.89176971e-02
      4.31228876e-02 1.88838784e-02 -5.35794795e-01 5.13246894e-01
      1.52198421e-02 7.32807210e-03 0. 0. -1.17531002e-01 1.02593012e-01
      1.12739569e-02 3.66403605e-03 0. 0. -1.17531002e-01 1.04565956e-01
      9.30101424e-03 3.66403605e-03 0. 0. -1.17531002e-01 1.11330330e-01
      6.20067632e-03 0. 0. 0. -2.92841047e-01 2.86922216e-01
      5.91882737e-03 0. 0. 0. -2.92841047e-01 2.55073279e-01
      3.41037214e-02 3.66403605e-03 0. 0. -2.90586233e-01 2.55073279e-01
      3.55129652e-02 0. 0. 0. -2.90586233e-01 2.00394586e-01
      7.04622343e-02 1.26832016e-02 7.04622315e-03 0. -2.90586233e-01
      1.67700112e-01 5.83427288e-02 6.45434037e-02 0. 0. -5.35794795e-01
      5.00000000e-01 2.59301011e-02 9.86471213e-03 0. 0. -5.35794795e-01
      2.93404728e-01 1.01465613e-01 7.89176971e-02 4.31228876e-02
      1.88838784e-02</_>
    <_>
      4.23240930e-01 3.91258001e-01 1.02345414e-01 8.31556469e-02 0. 0.
      -5.76759040e-01 5.42643905e-01 2.02558637e-02 1.38592748e-02 0. 0.
      -8.52878466e-02 4.26439233e-02 2.87846476e-02 1.38592748e-02 0. 0.
      -8.52878466e-02 5.33049032e-02 3.19829434e-02 0. 0. 0.
      -8.52878466e-02 7.03624710e-02 1.49253728e-02 0. 0. 0.
      -1.15138590e-01 1.07675903e-01 7.46268639e-03 0. 0. 0.
      -1.15138590e-01 9.59488302e-02 1.91897657e-02 0. 0. 0.
      -4.48827296e-01 3.91258001e-01 4.37100232e-02 1.38592748e-02 0. 0.
      -4.48827296e-01 3.42217475e-01 1.06609806e-01 0. 0. 0.
      -4.48827296e-01 1.05543710e-01 8.20895508e-02 1.87633261e-01
      7.35607669e-02 0. -5.76759040e-01 4.31769729e-01 1.27931774e-01
      1.70575697e-02 0. 0. -5.76759040e-01 3.91258001e-01 1.02345414e-01
      8.31556469e-02 0. 0.</_>
    <_>
      6.72663987e-01 2.76842713e-01 2.64074281e-02 2.40858961e-02 0. 0.
      -3.27336043e-01 2.40858972e-01 8.18340108e-02 4.64306446e-03 0. 0.
      -4.21067894e-01 2.74521172e-01 1.07080676e-01 3.94660458e-02 0. 0.
      -4.21067894e-01 2.12710395e-01 1.26233310e-01 8.21242034e-02 0. 0.
      -4.21067894e-01 3.70574594e-01 5.04933260e-02 0. 0. 0.
      -1.06790483e-01 1.06790483e-01 0. 0. 0. 0. -1.06790483e-01
      9.98258814e-02 6.96459645e-03 0. 0. 0. -2.59721428e-01
      2.06906557e-01 5.28148562e-02 0. 0. 0. -2.59721428e-01
      1.07951246e-01 7.95124769e-02 7.22576901e-02 0. 0. -2.59721428e-01
      1.13174692e-01 1.08821824e-01 2.95995362e-02 8.12536292e-03 0.
      -3.27336043e-01 2.78583854e-01 4.03366238e-02 8.41555465e-03 0. 0.
      -3.27336043e-01 2.76842713e-01 2.64074281e-02 2.40858961e-02 0. 0.</_>
    <_>
      4.59979385e-01 3.15012038e-01 1.07179664e-01 9.85915512e-02
      1.92373749e-02 0. -5.40020585e-01 5.19752681e-01 2.02679485e-02 0.
      0. 0. -1.08897284e-01 8.82858112e-02 1.61456540e-02 4.46581934e-03
      0. 0. -1.08897284e-01 9.58433524e-02 1.30539332e-02 0. 0. 0.
      -1.08897284e-01 9.96221229e-02 9.27516352e-03 0. 0. 0.
      -2.49398828e-01 2.43558913e-01 5.83991734e-03 0. 0. 0.
      -2.49398828e-01 1.90312609e-01 5.90862259e-02 0. 0. 0.
      -3.38371694e-01 3.11576784e-01 2.67949160e-02 0. 0. 0.
      -3.38371694e-01 2.33253181e-01 8.93163830e-02 1.58021301e-02 0. 0.
      -3.38371694e-01 1.55960158e-01 8.10717940e-02 7.90106505e-02
      2.23290958e-02 0. -5.40020585e-01 4.95362431e-01 4.46581915e-02 0.
      0. 0. -5.40020585e-01 3.15012038e-01 1.07179664e-01 9.85915512e-02
      1.92373749e-02 0.</_>
    <_>
      4.59323585e-01 3.81627053e-01 4.61608768e-02 7.58683756e-02
      3.70201096e-02 0. -5.40676415e-01 5.10968924e-01 2.97074951e-02 0.
      0. 0. -7.67824501e-02 4.47897613e-02 2.60511879e-02 5.94149902e-03
      0. 0. -7.67824501e-02 5.80438748e-02 1.87385734e-02 0. 0. 0.
      -7.67824501e-02 5.71298003e-02 1.96526516e-02 0. 0. 0.
      -8.77513736e-02 8.77513736e-02 0. 0. 0. 0. -8.77513736e-02
      7.49542937e-02 1.27970753e-02 0. 0. 0. -4.36471671e-01
      4.00822669e-01 3.56489941e-02 0. 0. 0. -4.36471671e-01
      2.71937847e-01 1.39396712e-01 2.51371115e-02 0. 0. -4.36471671e-01
      1.15173675e-01 1.34369284e-01 1.16544791e-01 7.03839138e-02 0.
      -5.40676415e-01 3.97166371e-01 1.11060329e-01 3.24497260e-02 0. 0.
      -5.40676415e-01 3.81627053e-01 4.61608768e-02 7.58683756e-02
      3.70201096e-02 0.</_>
    <_>
      6.59440756e-01 2.97832221e-01 2.48193536e-02 6.28338056e-03
      1.16242543e-02 0. -3.40559214e-01 2.62645304e-01 6.97455257e-02
      8.16839468e-03 0. 0. -4.04963881e-01 2.49450207e-01 1.14043355e-01
      3.36160846e-02 7.85422511e-03 0. -4.04963881e-01 1.92271441e-01
      1.12786680e-01 9.99057516e-02 0. 0. -4.04963881e-01 3.58466864e-01
      4.64970171e-02 0. 0. 0. -1.04932457e-01 1.00534089e-01
      4.39836644e-03 0. 0. 0. -1.04932457e-01 1.02733269e-01
      2.19918322e-03 0. 0. 0. -2.78982103e-01 2.38140121e-01
      4.08419743e-02 0. 0. 0. -2.78982103e-01 1.25039265e-01
      8.10556114e-02 4.86961976e-02 2.41910145e-02 0. -2.78982103e-01
      1.06817469e-01 1.04618281e-01 6.75463378e-02 0. 0. -3.40559214e-01
      2.90920526e-01 4.96387072e-02 0. 0. 0. -3.40559214e-01
      2.97832221e-01 2.48193536e-02 6.28338056e-03 1.16242543e-02 0.</_>
    <_>
      7.28365362e-01 2.14182690e-01 3.55769247e-02 2.18749996e-02 0. 0.
      -2.71634609e-01 2.54086524e-01 1.75480768e-02 0. 0. 0.
      -4.71634626e-01 2.98317313e-01 1.28365383e-01 3.75000015e-02
      7.45192310e-03 0. -4.71634626e-01 2.36057699e-01 1.56490386e-01
      7.90865421e-02 0. 0. -4.71634626e-01 4.62019235e-01 9.61538497e-03
      0. 0. 0. -5.69711551e-02 5.19230776e-02 5.04807709e-03 0. 0. 0.
      -5.69711551e-02 5.36057688e-02 3.36538465e-03 0. 0. 0.
      -2.16586545e-01 2.03846157e-01 1.27403848e-02 0. 0. 0.
      -2.16586545e-01 1.09375000e-01 5.02403863e-02 5.69711551e-02 0. 0.
      -2.16586545e-01 8.02884623e-02 9.30288434e-02 2.78846156e-02
      1.53846154e-02 0. -2.71634609e-01 2.22836539e-01 4.25480753e-02
      6.25000009e-03 0. 0. -2.71634609e-01 2.14182690e-01 3.55769247e-02
      2.18749996e-02 0. 0.</_>
    <_>
      4.82364148e-01 3.52716863e-01 3.62249762e-02 7.81696886e-02
      5.05243093e-02 0. -5.17635822e-01 4.85224009e-01 3.24118212e-02 0.
      0. 0. -7.43565336e-02 4.48045768e-02 2.95519549e-02 0. 0. 0.
      -7.43565336e-02 3.81315537e-02 3.62249762e-02 0. 0. 0.
      -7.43565336e-02 6.76835105e-02 6.67302171e-03 0. 0. 0.
      -1.29647285e-01 1.20114394e-01 9.53288842e-03 0. 0. 0.
      -1.29647285e-01 9.62821767e-02 3.33651081e-02 0. 0. 0.
      -4.88083899e-01 4.48999047e-01 3.90848443e-02 0. 0. 0.
      -4.88083899e-01 2.24022880e-01 2.51668245e-01 1.23927547e-02 0. 0.
      -4.88083899e-01 1.22020975e-01 2.07816973e-01 7.14966655e-02
      8.67492855e-02 0. -5.17635822e-01 3.95614862e-01 1.09628215e-01
      1.23927547e-02 0. 0. -5.17635822e-01 3.52716863e-01 3.62249762e-02
      7.81696886e-02 5.05243093e-02 0.</_>
    <_>
      7.35400379e-01 2.25466579e-01 3.52197476e-02 3.91330523e-03 0. 0.
      -2.64599651e-01 2.08910301e-01 5.56893423e-02 0. 0. 0.
      -3.42263699e-01 2.50752568e-01 8.21794122e-02 9.33172833e-03 0. 0.
      -3.42263699e-01 2.29078874e-01 8.57916921e-02 2.73931362e-02 0. 0.
      -3.42263699e-01 2.73630351e-01 6.86333552e-02 0. 0. 0.
      -2.24864542e-01 2.01083690e-01 1.98675506e-02 3.91330523e-03 0. 0.
      -2.24864542e-01 2.00782657e-01 2.40818784e-02 0. 0. 0.
      -2.49247447e-01 2.01986760e-01 4.33473811e-02 3.91330523e-03 0. 0.
      -2.49247447e-01 1.63154721e-01 4.69596647e-02 3.91330533e-02 0. 0.
      -2.49247447e-01 1.74593613e-01 4.63576168e-02 1.65562909e-02
      1.17399162e-02 0. -2.64599651e-01 2.29379892e-01 3.13064419e-02
      3.91330523e-03 0. 0. -2.64599651e-01 2.25466579e-01 3.52197476e-02
      3.91330523e-03 0. 0.</_>
    <_>
      6.74671888e-01 2.91538686e-01 2.42948905e-02 9.49455425e-03 0. 0.
      -3.25328112e-01 2.40714878e-01 5.83635867e-02 2.62496509e-02 0. 0.
      -4.18877423e-01 2.39318624e-01 1.30410492e-01 4.91482839e-02 0. 0.
      -4.18877423e-01 2.08880201e-01 1.42139062e-01 6.78581372e-02 0. 0.
      -4.18877423e-01 3.97933543e-01 2.09438708e-02 0. 0. 0.
      -9.52247977e-02 9.13152769e-02 3.90952267e-03 0. 0. 0.
      -9.52247977e-02 9.52247977e-02 0. 0. 0. 0. -2.46579170e-01
      2.03574419e-01 4.30047475e-02 0. 0. 0. -2.46579170e-01
      1.17844179e-01 6.03183471e-02 6.84166402e-02 0. 0. -2.46579170e-01
      1.23987712e-01 9.18737799e-02 2.28986312e-02 7.81904534e-03 0.
      -3.25328112e-01 2.85395145e-01 3.26724388e-02 7.26054190e-03 0. 0.
      -3.25328112e-01 2.91538686e-01 2.42948905e-02 9.49455425e-03 0. 0.</_>
    <_>
      5.15072107e-01 3.86959374e-01 4.94757518e-02 3.11271306e-02
      1.73656624e-02 0. -4.84927922e-01 4.26933169e-01 4.52162512e-02
      1.27785057e-02 0. 0. -1.03211008e-01 6.94626495e-02 2.35910881e-02
      1.01572741e-02 0. 0. -1.03211008e-01 8.25688094e-02 1.60550456e-02
      4.58715577e-03 0. 0. -1.03211008e-01 9.69855860e-02 6.22542575e-03
      0. 0. 0. -1.48754910e-01 1.41874179e-01 6.88073412e-03 0. 0. 0.
      -1.48754910e-01 1.21887289e-01 2.68676281e-02 0. 0. 0.
      -4.26933169e-01 3.53538662e-01 6.06159903e-02 1.27785057e-02 0. 0.
      -4.26933169e-01 3.04390550e-01 9.33813900e-02 2.91612055e-02 0. 0.
      -4.26933169e-01 1.95609435e-01 7.24115297e-02 9.63302776e-02
      6.25819117e-02 0. -4.84927922e-01 3.82044554e-01 8.58453438e-02
      1.70380082e-02 0. 0. -4.84927922e-01 3.86959374e-01 4.94757518e-02
      3.11271306e-02 1.73656624e-02 0.</_>
    <_>
      5.32338321e-01 3.59867334e-01 5.63847423e-02 3.48258689e-02
      1.65837482e-02 0. -4.67661679e-01 4.14593697e-01 3.98009941e-02
      1.32669983e-02 0. 0. -1.41376451e-01 1.06550582e-01 2.65339967e-02
      8.29187408e-03 0. 0. -1.41376451e-01 1.18988395e-01 1.61691550e-02
      6.21890556e-03 0. 0. -1.41376451e-01 1.26451075e-01 1.49253728e-02
      0. 0. 0. -1.58789381e-01 1.50082916e-01 8.70646723e-03 0. 0. 0.
      -1.58789381e-01 1.29353240e-01 2.94361524e-02 0. 0. 0.
      -3.68573785e-01 3.34991693e-01 2.81923711e-02 5.38971787e-03 0. 0.
      -3.68573785e-01 2.28026539e-01 8.29187408e-02 4.35323380e-02
      1.40961856e-02 0. -3.68573785e-01 1.80762857e-01 9.82587039e-02
      7.79436156e-02 1.16086239e-02 0. -4.67661679e-01 3.90961856e-01
      7.13101178e-02 5.38971787e-03 0. 0. -4.67661679e-01 3.59867334e-01
      5.63847423e-02 3.48258689e-02 1.65837482e-02 0.</_></support_vectors>
  <decision_functions>
    <_>
      <sv_count>40</sv_count>
      <rho>0.</rho>
      <alpha>
        1.0000000000000000e-02 1.0000000000000000e-02
        1.0000000000000000e-02 1.0000000000000000e-02
        1.0000000000000000e-02 1.0000000000000000e-02
        1.0000000000000000e-02 1.0000000000000000e-02
        1.0000000000000000e-02 1.0000000000000000e-02
        1.0000000000000000e-02 1.0000000000000000e-02
        1.0000000000000000e-02 1.0000000000000000e-02
        1.0000000000000000e-02 1.0000000000000000e-02
        1.0000000000000000e-02 1.0000000000000000e-02
        1.0000000000000000e-02 1.0000000000000000e-02
        -1.0000000000000000e-02 -1.0000000000000000e-02
        -1.0000000000000000e-02 -1.0000000000000000e-02
        -1.0000000000000000e-02 -1.0000000000000000e-02
        -1.0000000000000000e-02 -1.0000000000000000e-02
        -1.0000000000000000e-02 -1.0000000000000000e-02
        -1.0000000000000000e-02 -1.0000000000000000e-02
        -1.0000000000000000e-02 -1.0000000000000000e-02
        -1.0000000000000000e-02 -1.0000000000000000e-02
        -1.0000000000000000e-02 -1.0000000000000000e-02
        -1.0000000000000000e-02 -1.0000000000000000e-02</alpha>
      <index>
        0 1 2 3 4 5 6 7 8 9 10 11 12 13 14 15 16 17 18 19 20 21 22 23 24
        25 26 27 28 29 30 31 32 33 34 35 36 37 38 39</index></_>
    <_>
      <sv_count>40</sv_count>
      <rho>0.</rho>
      <alpha>
        1.0000000000000000e-02 1.0000000000000000e-02
        1.0000000000000000e-02 1.0000000000000000e-02
        1.0000000000000000e-02 1.0000000000000000e-02
        1.0000000000000000e-02 1.0000000000000000e-02
        1.0000000000000000e-02 1.0000000000000000e-02
        1.0000000000000000e-02 1.0000000000000000e-02
        1.0000000000000000e-02 1.0000000000000000e-02
        1.0000000000000000e-02 1.0000000000000000e-02
        1.0000000000000000e-02 1.0000000000000000e-02
        1.0000000000000000e-02 1.0000000000000000e-02
        -1.0000000000000000e-02 -1.0000000000000000e-02
        -1.0000000000000000e-02 -1.0000000000000000e-02
        -1.0000000000000000e-02 -1.0000000000000000e-02
        -1.0000000000000000e-02 -1.0000000000000000e-02
        -1.0000000000000000e-02 -1.0000000000000000e-02
        -1.0000000000000000e-02 -1.0000000000000000e-02
        -1.0000000000000000e-02 -1.0000000000000000e-02
        -1.0000000000000000e-02 -1.0000000000000000e-02
        -1.0000000000000000e-02 -1.0000000000000000e-02
        -1.0000000000000000e-02 -1.0000000000000000e-02</alpha>
      <index>
        0 1 2 3 4 5 6 7 8 9 10 11 12 13 14 15 16 17 18 19 40 41 42 43 44
        45 46 47 48 49 50 51 52 53 54 55 56 57 58 59</index></_>
    <_>
      <sv_count>40</sv_count>
      <rho>0.</rho>
      <alpha>
        1.0000000000000000e-02 1.0000000000000000e-02
        1.0000000000000000e-02 1.0000000000000000e-02
        1.0000000000000000e-02 1.0000000000000000e-02
        1.0000000000000000e-02 1.0000000000000000e-02
        1.0000000000000000e-02 1.0000000000000000e-02
        1.0000000000000000e-02 1.0000000000000000e-02
        1.0000000000000000e-02 1.0000000000000000e-02
        1.0000000000000000e-02 1.0000000000000000e-02
        1.0000000000000000e-02 1.0000000000000000e-02
        1.0000000000000000e-02 1.0000000000000000e-02
        -1.0000000000000000e-02 -1.0000000000000000e-02
        -1.0000000000000000e-02 -1.0000000000000000e-02
        -1.0000000000000000e-02 -1.0000000000000000e-02
        -1.0000000000000000e-02 -1.0000000000000000e-02
        -1.0000000000000000e-02 -1.0000000000000000e-02
        -1.0000000000000000e-02 -1.0000000000000000e-02
        -1.0000000000000000e-02 -1.0000000000000000e-02
        -1.0000000000000000e-02 -1.0000000000000000e-02
        -1.0000000000000000e-02 -1.0000000000000000e-02
        -1.0000000000000000e-02 -1.0000000000000000e-02</alpha>
      <index>
        20 21 22 23 24 25 26 27 28 29 30 31 32 33 34 35 36 37 38 39 40
        41 42 43 44 45 46 47 48 49 50 51 52 53 54 55 56 57 58 59</index></_></decision_functions></default_classifier_name>
</opencv_storage>
