<?xml version="1.0"?>
<opencv_storage>
<default_classifier_name type_id="opencv-ml-svm">
  <svm_type>C_SVC</svm_type>
  <kernel><type>RBF</type>
    <gamma>5.0000000000000000e-01</gamma></kernel>
  <C>1.</C>
  <term_criteria><epsilon>1.1920928955078125e-07</epsilon>
    <iterations>1000</iterations></term_criteria>
  <var_all>8</var_all>
  <var_count>8</var_count>
  <class_count>3</class_count>
  <class_labels type_id="opencv-matrix">
    <rows>1</rows>
    <cols>3</cols>
    <dt>i</dt>
    <data>
      1 2 3</data></class_labels>
  <sv_total>60</sv_total>
  <support_vectors>
    <_>
      1.49122804e-01 1.34502918e-01 1.81286544e-01 6.14035092e-02
      1.57894731e-01 6.43274859e-02 1.75438598e-01 7.60233924e-02</_>
    <_>
      1.00000001e-01 1.86363637e-01 4.09090891e-02 6.81818202e-02
      1.72727272e-01 3.63636352e-02 2.95454532e-01 1.00000001e-01</_>
    <_>
      6.63507134e-02 1.37440756e-01 9.00473967e-02 1.42180100e-01
      2.18009472e-01 2.84360182e-02 2.70142168e-01 4.73933667e-02</_>
    <_>
      7.22222254e-02 1.77777782e-01 1.55555561e-01 7.77777806e-02
      1.44444451e-01 1.11111112e-01 1.50000006e-01 1.11111112e-01</_>
    <_>
      1.59763306e-01 1.36094674e-01 1.71597630e-01 4.14201170e-02
      1.89349115e-01 2.36686394e-02 1.95266277e-01 8.28402340e-02</_>
    <_>
      1.03225805e-01 9.67741907e-02 1.41935483e-01 1.35483876e-01
      2.74193555e-01 3.22580636e-02 1.32258058e-01 8.38709697e-02</_>
    <_>
      4.74452563e-02 1.31386861e-01 1.24087594e-01 3.28467153e-02
      1.38686135e-01 1.38686135e-01 2.44525552e-01 1.42335773e-01</_>
    <_>
      1.98529407e-01 1.28676474e-01 1.25000000e-01 6.61764741e-02
      1.47058830e-01 4.04411778e-02 2.31617644e-01 6.25000000e-02</_>
    <_>
      1.98976696e-02 2.44457070e-02 3.52472991e-01 2.69471288e-01
      2.60375202e-01 2.33086981e-02 2.61512231e-02 2.38772035e-02</_>
    <_>
      3.26797403e-02 1.69934645e-01 6.53594807e-02 4.57516350e-02
      1.96078435e-01 6.53594807e-02 3.66013080e-01 5.88235296e-02</_>
    <_>
      1.32812500e-01 1.64062500e-01 5.46875000e-02 1.56250000e-02
      1.40625000e-01 7.81250000e-03 4.29687500e-01 5.46875000e-02</_>
    <_>
      8.89830515e-02 1.61016956e-01 1.65254235e-01 1.31355926e-01
      1.52542368e-01 4.66101691e-02 1.86440676e-01 6.77966103e-02</_>
    <_>
      1.03825137e-01 1.80327863e-01 1.03825137e-01 1.03825137e-01
      1.96721315e-01 5.46448082e-02 2.02185795e-01 5.46448082e-02</_>
    <_>
      1.20567374e-01 1.06382981e-01 1.98581561e-01 4.25531901e-02
      1.48936167e-01 1.56028375e-01 1.77304968e-01 4.96453904e-02</_>
    <_>
      1.16279073e-01 1.02325581e-01 1.44186050e-01 9.30232555e-02
      1.90697670e-01 1.06976748e-01 1.25581399e-01 1.20930232e-01</_>
    <_>
      9.80392173e-02 3.07189554e-01 1.50326803e-01 5.88235296e-02
      5.22875823e-02 1.96078438e-02 2.67973870e-01 4.57516350e-02</_>
    <_>
      1.43442616e-01 1.18852459e-01 1.80327863e-01 3.68852466e-02
      1.10655740e-01 6.14754111e-02 1.68032780e-01 1.80327863e-01</_>
    <_>
      8.16326514e-02 2.04081640e-01 2.72108838e-02 2.04081628e-02
      1.56462580e-01 2.72108838e-02 4.35374141e-01 4.76190485e-02</_>
    <_>
      5.99999987e-02 1.93333328e-01 7.99999982e-02 7.33333305e-02
      1.86666667e-01 1.19999997e-01 2.33333334e-01 5.33333346e-02</_>
    <_>
      8.41121525e-02 4.20560762e-02 2.61682242e-01 6.54205605e-02
      2.47663558e-01 9.34579447e-02 7.47663528e-02 1.30841121e-01</_>
    <_>
      1.50273219e-01 1.33879781e-01 1.53005466e-01 9.83606577e-02
      1.69398904e-01 6.83060139e-02 1.42076507e-01 8.46994519e-02</_>
    <_>
      7.77777806e-02 1.44444451e-01 8.51851851e-02 7.77777806e-02
      2.00000003e-01 9.25925896e-02 2.62962967e-01 5.92592582e-02</_>
    <_>
      1.41914189e-01 2.11221129e-01 9.90099013e-02 5.28052822e-02
      1.71617165e-01 5.28052822e-02 2.34323427e-01 3.63036320e-02</_>
    <_>
      1.52224824e-01 1.24121778e-01 1.68618262e-01 1.12412177e-01
      1.38173297e-01 2.81030443e-02 2.22482443e-01 5.38641699e-02</_>
    <_>
      1.38328537e-01 1.38328537e-01 1.23919308e-01 8.93371776e-02
      1.81556195e-01 6.62824214e-02 2.01729104e-01 6.05187304e-02</_>
    <_>
      1.14427857e-01 1.54228851e-01 3.98009941e-02 1.04477614e-01
      1.04477614e-01 3.98009941e-02 3.93034816e-01 4.97512445e-02</_>
    <_>
      1.34831458e-01 1.29213482e-01 5.61797768e-02 1.06741570e-01
      1.06741570e-01 3.37078646e-02 3.98876399e-01 3.37078646e-02</_>
    <_>
      3.37078646e-02 1.12359554e-01 9.36329588e-02 3.03370774e-01
      1.98501870e-01 1.27340823e-01 9.73782763e-02 3.37078646e-02</_>
    <_>
      1.30268201e-01 1.76245213e-01 6.13026805e-02 4.59770113e-02
      1.07279696e-01 6.51341006e-02 3.44827592e-01 6.89655170e-02</_>
    <_>
      8.33333358e-02 2.61904776e-01 2.38095243e-02 3.57142873e-02
      4.76190485e-02 4.76190485e-02 4.04761910e-01 9.52380970e-02</_>
    <_>
      7.08661452e-02 1.22047246e-01 5.90551198e-02 1.53543308e-01
      2.28346452e-01 1.25984251e-01 1.57480314e-01 8.26771632e-02</_>
    <_>
      5.93220331e-02 1.61016956e-01 1.44067794e-01 8.68644044e-02
      1.75847456e-01 7.20338970e-02 2.33050853e-01 6.77966103e-02</_>
    <_>
      7.72594735e-02 8.60058293e-02 1.35568514e-01 1.15160353e-01
      1.80758014e-01 1.06413998e-01 1.58892125e-01 1.39941692e-01</_>
    <_>
      5.26315793e-02 1.90789476e-01 1.18421055e-01 3.28947380e-02
      2.63157897e-02 2.10526317e-01 3.02631587e-01 6.57894760e-02</_>
    <_>
      8.83458629e-02 1.12781957e-01 1.33458644e-01 1.09022558e-01
      1.54135332e-01 9.21052620e-02 1.71052635e-01 1.39097750e-01</_>
    <_>
      8.37004408e-02 1.40969157e-01 1.32158592e-01 1.34361237e-01
      1.32158592e-01 8.14977959e-02 1.71806172e-01 1.23348020e-01</_>
    <_>
      2.07729474e-01 1.44927531e-01 8.21256042e-02 8.69565234e-02
      1.59420297e-01 9.66183543e-02 1.73913047e-01 4.83091772e-02</_>
    <_>
      1.43749997e-01 1.56250000e-01 1.18749999e-01 8.12499970e-02
      1.43749997e-01 6.25000000e-02 2.12500006e-01 8.12499970e-02</_>
    <_>
      1.12526536e-01 9.76645425e-02 1.35881111e-01 2.14437366e-01
      1.65605098e-01 6.36942685e-02 1.29511684e-01 8.06794092e-02</_>
    <_>
      8.51063803e-02 1.86170205e-01 1.17021278e-01 6.91489354e-02
      1.06382981e-01 1.70212761e-01 1.43617019e-01 1.22340426e-01</_>
    <_>
      8.69565234e-02 1.08695649e-01 1.73913047e-01 0. 1.08695649e-01
      6.52173907e-02 3.69565219e-01 8.69565234e-02</_>
    <_>
      9.85074639e-02 8.95522386e-02 1.37313426e-01 1.28358215e-01
      2.11940303e-01 1.07462689e-01 1.25373140e-01 1.01492539e-01</_>
    <_>
      6.84931502e-02 1.09589040e-01 1.64383560e-01 9.58904102e-02
      3.42465758e-01 4.10958901e-02 1.09589040e-01 6.84931502e-02</_>
    <_>
      8.39694664e-02 4.58015278e-02 3.89312983e-01 6.10687025e-02
      1.52671756e-02 2.97709912e-01 8.39694664e-02 2.29007639e-02</_>
    <_>
      4.29184549e-02 1.58798277e-01 1.97424889e-01 2.14592274e-02
      4.72103022e-02 3.09012890e-01 1.28755361e-01 9.44206044e-02</_>
    <_>
      6.02409653e-02 8.43373463e-02 3.61445770e-02 2.53012061e-01
      2.04819277e-01 4.81927693e-02 2.53012061e-01 6.02409653e-02</_>
    <_>
      1.08108111e-01 2.34234229e-01 5.40540554e-02 9.00900923e-03
      9.90990996e-02 5.40540554e-02 2.88288295e-01 1.53153151e-01</_>
    <_>
      1.12318844e-01 1.26811594e-01 1.41304344e-01 9.42028984e-02
      2.64492750e-01 3.98550741e-02 1.41304344e-01 7.97101483e-02</_>
    <_>
      7.20720738e-02 1.53153151e-01 1.77177176e-01 6.30630627e-02
      2.22222224e-01 3.30330320e-02 2.40240246e-01 3.90390381e-02</_>
    <_>
      2.14285716e-01 1.07142858e-01 2.14285716e-01 7.14285746e-02
      7.14285746e-02 2.50000000e-01 3.57142873e-02 3.57142873e-02</_>
    <_>
      2.91970801e-02 8.02919716e-02 2.37226278e-01 5.10948896e-02
      1.05839416e-01 2.15328470e-01 2.18978096e-02 2.59124100e-01</_>
    <_>
      8.33333358e-02 1.05072461e-01 2.06521735e-01 5.43478243e-02
      2.28260875e-01 2.89855078e-02 2.31884062e-01 6.15942031e-02</_>
    <_>
      7.07070678e-02 2.02020202e-02 1.11111112e-01 2.12121218e-01
      1.11111112e-01 6.06060624e-02 2.52525240e-01 1.61616161e-01</_>
    <_>
      6.73076957e-02 9.61538479e-02 2.78846145e-01 3.36538479e-02
      1.44230770e-02 2.74038464e-01 5.28846160e-02 1.82692304e-01</_>
    <_>
      1.22448981e-01 1.32653058e-01 8.16326514e-02 2.04081628e-02
      5.10204099e-02 5.10204099e-02 4.28571433e-01 1.12244897e-01</_>
    <_>
      3.19999993e-01 7.99999982e-02 2.39999995e-01 3.99999991e-02 0.
      7.99999982e-02 2.00000003e-01 3.99999991e-02</_>
    <_>
      1.16161615e-01 8.58585835e-02 3.03030312e-02 4.04040404e-02
      2.07070708e-01 1.66666672e-01 2.57575750e-01 9.59595963e-02</_>
    <_>
      3.19148935e-02 5.67375869e-02 1.98581561e-01 2.48226952e-02
      1.17021278e-01 2.37588659e-01 5.67375869e-02 2.76595742e-01</_>
    <_>
      6.25000000e-02 8.43750015e-02 1.84375003e-01 1.81250006e-01
      3.71874988e-01 2.18749996e-02 2.81249993e-02 6.56249970e-02</_>
    <_>
      5.88235296e-02 8.40336159e-02 1.59663871e-01 1.42857149e-01
      3.94957989e-01 4.20168079e-02 7.56302550e-02 4.20168079e-02</_></support_vectors>
  <decision_functions>
    <_>
      <sv_count>40</sv_count>
      <rho>-3.4970700740814209e-02</rho>
      <alpha>
        1. 1. 1. 1. 1. 1. 1. 1. 1. 1. 1. 1. 1. 1. 1. 1. 1. 1. 1. 1. -1.
        -1. -1. -1. -1. -1. -1. -1. -1. -1. -1. -1. -1. -1. -1. -1. -1.
        -1. -1. -1.</alpha>
      <index>
        0 1 2 3 4 5 6 7 8 9 10 11 12 13 14 15 16 17 18 19 20 21 22 23 24
        25 26 27 28 29 30 31 32 33 34 35 36 37 38 39</index></_>
    <_>
      <sv_count>40</sv_count>
      <rho>2.2284376621246338e-01</rho>
      <alpha>
        1. 1. 1. 1. 1. 1. 1. 1. 1. 1. 1. 1. 1. 1. 1. 1. 1. 1. 1. 1. -1.
        -1. -1. -1. -1. -1. -1. -1. -1. -1. -1. -1. -1. -1. -1. -1. -1.
        -1. -1. -1.</alpha>
      <index>
        0 1 2 3 4 5 6 7 8 9 10 11 12 13 14 15 16 17 18 19 40 41 42 43 44
        45 46 47 48 49 50 51 52 53 54 55 56 57 58 59</index></_>
    <_>
      <sv_count>40</sv_count>
      <rho>3.0011251568794250e-01</rho>
      <alpha>
        1. 1. 1. 1. 1. 1. 1. 1. 1. 1. 1. 1. 1. 1. 1. 1. 1. 1. 1. 1. -1.
        -1. -1. -1. -1. -1. -1. -1. -1. -1. -1. -1. -1. -1. -1. -1. -1.
        -1. -1. -1.</alpha>
      <index>
        20 21 22 23 24 25 26 27 28 29 30 31 32 33 34 35 36 37 38 39 40
        41 42 43 44 45 46 47 48 49 50 51 52 53 54 55 56 57 58 59</index></_></decision_functions></default_classifier_name>
</opencv_storage>
