<?xml version="1.0"?>
<opencv_storage>
<default_classifier_name type_id="opencv-ml-svm">
  <svm_type>C_SVC</svm_type>
  <kernel><type>RBF</type>
    <gamma>5.0000000000000000e-01</gamma></kernel>
  <C>1.</C>
  <term_criteria><epsilon>1.1920928955078125e-07</epsilon>
    <iterations>1000</iterations></term_criteria>
  <var_all>216</var_all>
  <var_count>216</var_count>
  <class_count>3</class_count>
  <class_labels type_id="opencv-matrix">
    <rows>1</rows>
    <cols>3</cols>
    <dt>i</dt>
    <data>
      1 2 3</data></class_labels>
  <sv_total>47</sv_total>
  <support_vectors>
    <_>
      6.18110240e-01 3.01837265e-01 5.64304478e-02 2.36220472e-02 0. 0.
      -3.81889760e-01 3.41207355e-01 4.06824164e-02 0. 0. 0.
      -1.12860896e-01 7.21784756e-02 4.06824164e-02 0. 0. 0.
      -1.12860896e-01 1.07611552e-01 5.24934381e-03 0. 0. 0.
      -1.12860896e-01 1.07611552e-01 5.24934381e-03 0. 0. 0.
      -3.50393713e-01 3.03149611e-01 4.72440943e-02 0. 0. 0.
      -3.50393713e-01 3.01837265e-01 3.14960629e-02 1.70603674e-02 0. 0.
      -2.67716527e-01 1.27296582e-01 1.20734908e-01 1.96850393e-02 0. 0.
      -2.67716527e-01 1.56167984e-01 9.44881886e-02 1.70603674e-02 0. 0.
      -2.67716527e-01 2.16535434e-01 5.11811040e-02 0. 0. 0.
      -3.81889760e-01 3.03149611e-01 7.87401572e-02 0. 0. 0.
      -3.81889760e-01 3.01837265e-01 5.64304478e-02 2.36220472e-02 0. 0.
      6.68975055e-01 2.14219764e-01 6.69436753e-02 4.98614945e-02 0. 0.
      -3.31024945e-01 3.14404428e-01 1.06186522e-02 6.00184686e-03 0. 0.
      -1.69436753e-01 1.58356413e-01 7.84856919e-03 3.23176361e-03 0. 0.
      -1.69436753e-01 1.30655587e-01 3.09325941e-02 7.84856919e-03 0. 0.
      -1.69436753e-01 1.14035085e-01 5.54016605e-02 0. 0. 0.
      -2.95013845e-01 2.67313033e-01 2.44690683e-02 3.23176361e-03 0. 0.
      -2.95013845e-01 2.52539247e-01 4.24746089e-02 0. 0. 0.
      -3.63342553e-01 2.57156044e-01 1.02954753e-01 -2.77008303e-03
      6.00184686e-03 0. -3.63342553e-01 2.16066480e-01 8.31024945e-02
      5.81717454e-02 6.00184686e-03 0. -3.63342553e-01 2.77469993e-01
      8.58725756e-02 0. 0. 0. -3.31024945e-01 3.00554007e-01
      3.04709133e-02 0. 0. 0. -3.31024945e-01 2.14219764e-01
      6.69436753e-02 4.98614945e-02 0. 0. 5.22870660e-01 3.77760261e-01
      6.23028390e-02 3.70662473e-02 0. 0. -4.77129340e-01 4.61356461e-01
      5.52050490e-03 1.02523658e-02 0. 0. -1.03312306e-01 8.20189267e-02
      2.12933756e-02 0. 0. 0. -1.03312306e-01 9.06940028e-02
      1.26182968e-02 0. 0. 0. -1.03312306e-01 8.12302828e-02
      1.57728698e-02 6.30914839e-03 0. 0. -2.65772879e-01 2.32649848e-01
      3.31230275e-02 0. 0. 0. -2.65772879e-01 2.32649848e-01
      2.28706617e-02 1.02523658e-02 0. 0. -3.26498419e-01 2.51577288e-01
      7.49211386e-02 0. 0. 0. -3.26498419e-01 2.41324916e-01
      5.75709790e-02 4.73186141e-03 2.28706617e-02 0. -3.26498419e-01
      2.27917984e-01 7.72870630e-02 2.12933756e-02 0. 0. -4.77129340e-01
      3.87223989e-01 8.99053663e-02 0. 0. 0. -4.77129340e-01
      3.77760261e-01 6.23028390e-02 3.70662473e-02 0. 0.</_>
    <_>
      7.48071969e-01 2.05655530e-01 4.62724939e-02 0. 0. 0.
      -2.51928031e-01 2.39074543e-01 1.28534706e-02 0. 0. 0.
      -1.49100259e-01 1.00257069e-01 4.88431863e-02 0. 0. 0.
      -1.49100259e-01 1.23393320e-01 2.57069413e-02 0. 0. 0.
      -1.49100259e-01 1.07969150e-01 2.31362469e-02 1.79948583e-02 0. 0.
      -4.13881749e-01 3.11053991e-01 1.02827765e-01 0. 0. 0.
      -4.13881749e-01 3.85604113e-01 7.71208247e-03 2.05655526e-02 0. 0.
      -3.36760938e-01 2.41645247e-01 9.51156840e-02 0. 0. 0.
      -3.36760938e-01 2.54498720e-01 3.85604128e-02 4.37017977e-02 0. 0.
      -3.36760938e-01 2.62210786e-01 2.31362469e-02 5.14138825e-02 0. 0.
      -2.51928031e-01 1.56812340e-01 6.16966598e-02 3.34190242e-02 0. 0.
      -2.51928031e-01 2.05655530e-01 4.62724939e-02 0. 0. 0.
      6.42583132e-01 3.22250634e-01 2.68542208e-02 8.31202045e-03 0. 0.
      -3.57416868e-01 2.97953963e-01 5.11508957e-02 8.31202045e-03 0. 0.
      -2.08439901e-01 1.40025571e-01 5.43478243e-02 1.40664959e-02 0. 0.
      -2.08439901e-01 1.44501284e-01 5.81841432e-02 5.75447548e-03 0. 0.
      -2.08439901e-01 1.61125317e-01 3.90025564e-02 8.31202045e-03 0. 0.
      -2.65984654e-01 2.32097194e-01 3.38874683e-02 0. 0. 0.
      -2.65984654e-01 2.39130437e-01 2.68542208e-02 0. 0. 0.
      -3.86189252e-01 2.92838871e-01 9.33503807e-02 0. 0. 0.
      -3.86189252e-01 2.35933498e-01 1.19565219e-01 -1.27877237e-03
      3.19693089e-02 0. -3.86189252e-01 2.71739125e-01 6.84143230e-02
      3.77237834e-02 8.31202045e-03 0. -3.57416868e-01 3.20971876e-01
      3.13299224e-02 5.11508947e-03 0. 0. -3.57416868e-01 3.22250634e-01
      2.68542208e-02 8.31202045e-03 0. 0. 4.30916548e-01 4.09028739e-01
      9.16552693e-02 6.83994517e-02 0. 0. -5.69083452e-01 5.32147765e-01
      1.91518459e-02 1.77838579e-02 0. 0. -1.47742823e-01 9.16552693e-02
      5.60875498e-02 0. 0. 0. -1.47742823e-01 1.09439127e-01
      3.83036919e-02 0. 0. 0. -1.47742823e-01 1.09439127e-01
      3.83036919e-02 0. 0. 0. -1.65526673e-01 1.65526673e-01 0. 0. 0. 0.
      -1.65526673e-01 1.14911079e-01 5.06155938e-02 0. 0. 0.
      -2.61285901e-01 1.64158687e-01 9.71272215e-02 0. 0. 0.
      -2.61285901e-01 1.54582769e-01 7.79753774e-02 1.09439129e-02
      1.77838579e-02 0. -2.61285901e-01 2.13406295e-01 3.83036919e-02
      9.57592297e-03 0. 0. -5.69083452e-01 4.52804387e-01 1.16279073e-01
      0. 0. 0. -5.69083452e-01 4.09028739e-01 9.16552693e-02
      6.83994517e-02 0. 0.</_>
    <_>
      5.64476907e-01 3.57664227e-01 7.78588802e-02 0. 0. 0.
      -4.35523123e-01 3.38199526e-01 6.56934306e-02 3.16301696e-02 0. 0.
      -1.50851578e-01 1.41119227e-01 9.73236002e-03 0. 0. 0.
      -1.50851578e-01 1.28953770e-01 2.18978096e-02 0. 0. 0.
      -1.50851578e-01 1.24087594e-01 2.67639905e-02 0. 0. 0.
      -2.79805362e-01 2.16545016e-01 6.32603392e-02 0. 0. 0.
      -2.79805362e-01 2.16545016e-01 6.32603392e-02 0. 0. 0.
      -3.11435521e-01 2.60340631e-01 5.10948896e-02 0. 0. 0.
      -3.11435521e-01 1.77615568e-01 1.33819953e-01 0. 0. 0.
      -3.11435521e-01 1.67883217e-01 8.51581544e-02 5.83941601e-02 0. 0.
      -4.35523123e-01 3.28467160e-01 1.07055962e-01 0. 0. 0.
      -4.35523123e-01 3.57664227e-01 7.78588802e-02 0. 0. 0.
      7.36241639e-01 2.42281884e-01 2.14765109e-02 0. 0. 0.
      -2.63758391e-01 2.24161074e-01 3.95973139e-02 0. 0. 0.
      -2.57046968e-01 2.14765102e-01 3.35570462e-02 8.72483198e-03 0. 0.
      -2.57046968e-01 2.18120798e-01 3.42281871e-02 4.69798641e-03 0. 0.
      -2.57046968e-01 1.73825502e-01 8.32214728e-02 0. 0. 0.
      -2.56375849e-01 2.06040263e-01 5.03355712e-02 0. 0. 0.
      -2.56375849e-01 2.40268454e-01 1.61073823e-02 0. 0. 0.
      -3.91946316e-01 3.54362428e-01 3.75838913e-02 0. 0. 0.
      -3.91946316e-01 2.85234898e-01 8.45637619e-02 2.21476518e-02 0. 0.
      -3.91946316e-01 1.94630876e-01 7.24832192e-02 8.85906070e-02
      3.62416096e-02 0. -2.63758391e-01 2.63758391e-01 0. 0. 0. 0.
      -2.63758391e-01 2.42281884e-01 2.14765109e-02 0. 0. 0.
      4.36214000e-01 3.20987642e-01 1.35802463e-01 1.06995888e-01 0. 0.
      -5.63786030e-01 5.30864179e-01 3.29218097e-02 0. 0. 0.
      -1.49519891e-01 8.23045298e-02 4.93827164e-02 1.78326480e-02 0. 0.
      -1.49519891e-01 9.05349776e-02 3.97805199e-02 1.92043893e-02 0. 0.
      -1.49519891e-01 1.39917701e-01 9.60219465e-03 0. 0. 0.
      -1.15226336e-01 1.08367629e-01 -2.74348422e-03 9.60219465e-03 0.
      0. -1.15226336e-01 1.05624139e-01 9.60219465e-03 0. 0. 0.
      -2.71604925e-01 2.11248279e-01 6.03566542e-02 0. 0. 0.
      -2.71604925e-01 1.08367629e-01 5.48696853e-02 7.95610398e-02
      2.88065840e-02 0. -2.71604925e-01 1.70096025e-01 1.01508915e-01 0.
      0. 0. -5.63786030e-01 5.17146766e-01 4.66392301e-02 0. 0. 0.
      -5.63786030e-01 3.20987642e-01 1.35802463e-01 1.06995888e-01 0. 0.</_>
    <_>
      7.24508047e-01 2.75491953e-01 0. 0. 0. 0. -2.75491953e-01
      2.48658314e-01 2.68336311e-02 0. 0. 0. -2.05724508e-01
      1.93202153e-01 1.25223612e-02 0. 0. 0. -2.05724508e-01
      1.64579600e-01 4.11449000e-02 0. 0. 0. -2.05724508e-01
      1.55635059e-01 1.61001794e-02 3.39892656e-02 0. 0. -3.52415025e-01
      2.64758497e-01 8.76565278e-02 0. 0. 0. -3.52415025e-01
      2.93381035e-01 5.90339899e-02 0. 0. 0. -3.77459735e-01
      2.50447214e-01 1.27012521e-01 0. 0. 0. -3.77459735e-01
      3.25581402e-01 2.68336311e-02 2.50447225e-02 0. 0. -3.77459735e-01
      2.21824691e-01 4.47227210e-02 1.10912345e-01 0. 0. -2.75491953e-01
      1.82468697e-01 9.30232555e-02 0. 0. 0. -2.75491953e-01
      2.75491953e-01 0. 0. 0. 0. 6.99714005e-01 2.45948523e-01
      3.00285984e-02 2.43088659e-02 0. 0. -3.00285995e-01 2.69304097e-01
      2.71687321e-02 3.81315546e-03 0. 0. -1.73975214e-01 1.36320308e-01
      3.43183987e-02 3.33651085e-03 0. 0. -1.73975214e-01 1.37750238e-01
      1.57292653e-02 2.04957109e-02 0. 0. -1.73975214e-01 1.36796951e-01
      3.09818871e-02 6.19637733e-03 0. 0. -2.51668245e-01 2.00190663e-01
      5.14775962e-02 0. 0. 0. -2.51668245e-01 2.22592950e-01
      2.90753096e-02 0. 0. 0. -3.94184947e-01 3.42707336e-01
      4.38512862e-02 1.42993324e-03 6.19637733e-03 0. -3.94184947e-01
      2.43565306e-01 9.86653939e-02 4.48045768e-02 7.14966655e-03 0.
      -3.94184947e-01 2.35462338e-01 8.19828436e-02 4.09914218e-02
      3.57483327e-02 0. -3.00285995e-01 2.68827468e-01 2.62154434e-02
      5.24308858e-03 0. 0. -3.00285995e-01 2.45948523e-01 3.00285984e-02
      2.43088659e-02 0. 0. 4.04435068e-01 3.45300943e-01 1.09820485e-01
      8.13094005e-02 5.91341071e-02 0. -5.95564961e-01 5.55438221e-01
      4.01267149e-02 0. 0. 0. -1.41499475e-01 1.06652588e-01
      2.74551213e-02 7.39176339e-03 0. 0. -1.41499475e-01 9.60929245e-02
      3.16789858e-02 1.37275606e-02 0. 0. -1.41499475e-01 1.26715943e-01
      1.47835268e-02 0. 0. 0. -1.02428719e-01 8.34213272e-02
      1.90073922e-02 0. 0. 0. -1.02428719e-01 8.87011588e-02
      1.37275606e-02 0. 0. 0. -2.40760297e-01 2.12249205e-01
      2.85110883e-02 0. 0. 0. -2.40760297e-01 1.68954596e-01
      6.12460412e-02 1.05596622e-02 0. 0. -2.40760297e-01 1.19324185e-01
      6.33579716e-02 5.80781400e-02 0. 0. -5.95564961e-01 4.35058087e-01
      1.26715943e-01 3.37909199e-02 0. 0. -5.95564961e-01 3.45300943e-01
      1.09820485e-01 8.13094005e-02 5.91341071e-02 0.</_>
    <_>
      7.62376249e-01 2.17821777e-01 1.98019799e-02 0. 0. 0.
      -2.37623766e-01 2.12871283e-01 2.47524753e-02 0. 0. 0.
      -2.10396037e-01 1.01485148e-01 1.08910888e-01 0. 0. 0.
      -2.10396037e-01 1.38613865e-01 5.44554442e-02 1.73267331e-02 0. 0.
      -2.10396037e-01 1.38613865e-01 7.17821792e-02 0. 0. 0.
      -4.00990099e-01 3.68811876e-01 2.47524749e-03 2.97029708e-02 0. 0.
      -4.00990099e-01 3.31683159e-01 6.93069324e-02 0. 0. 0.
      -3.68811876e-01 1.65841579e-01 2.02970296e-01 0. 0. 0.
      -3.68811876e-01 2.20297024e-01 9.15841609e-02 5.69306947e-02 0. 0.
      -3.68811876e-01 2.52475262e-01 8.41584131e-02 3.21782194e-02 0. 0.
      -2.37623766e-01 1.63366333e-01 4.20792066e-02 3.21782194e-02 0. 0.
      -2.37623766e-01 2.17821777e-01 1.98019799e-02 0. 0. 0.
      6.91222548e-01 2.71159887e-01 2.42946707e-02 1.33228842e-02 0. 0.
      -3.08777422e-01 2.93887138e-01 1.48902824e-02 0. 0. 0.
      -1.54388711e-01 1.37931034e-01 1.64576806e-02 0. 0. 0.
      -1.54388711e-01 1.14420064e-01 1.09717865e-02 2.89968643e-02 0. 0.
      -1.54388711e-01 1.27742946e-01 2.66457684e-02 0. 0. 0.
      -3.07993740e-01 2.60971785e-01 4.70219441e-02 0. 0. 0.
      -3.07993740e-01 2.77429461e-01 3.05642635e-02 0. 0. 0.
      -4.87460822e-01 3.35423201e-01 1.46551728e-01 5.48589323e-03 0. 0.
      -4.87460822e-01 2.62539178e-01 1.37147337e-01 3.60501558e-02
      5.17241396e-02 0. -4.87460822e-01 3.07210028e-01 1.03448279e-01
      5.72100319e-02 1.95924770e-02 0. -3.08777422e-01 2.50783712e-01
      5.17241396e-02 6.26959233e-03 0. 0. -3.08777422e-01 2.71159887e-01
      2.42946707e-02 1.33228842e-02 0. 0. 5.58139563e-01 3.87096763e-01
      3.90097536e-02 1.57539379e-02 0. 0. -4.41860467e-01 4.05101269e-01
      3.67591903e-02 0. 0. 0. -3.70592654e-01 3.30082506e-01
      4.05101292e-02 0. 0. 0. -3.70592654e-01 3.23330820e-01
      4.72618155e-02 0. 0. 0. -3.70592654e-01 3.03075761e-01
      6.22655675e-02 5.25131263e-03 0. 0. -2.33308330e-01 1.86046511e-01
      4.72618155e-02 0. 0. 0. -2.33308330e-01 1.41785443e-01
      8.62715691e-02 5.25131263e-03 0. 0. -2.65566379e-01 2.31057763e-01
      3.45086269e-02 0. 0. 0. -2.65566379e-01 1.86796695e-01
      2.02550646e-02 4.57614399e-02 1.27531886e-02 0. -2.65566379e-01
      2.12303072e-01 2.47561894e-02 2.85071265e-02 0. 0. -4.41860467e-01
      3.87096763e-01 4.50112522e-02 9.75243840e-03 0. 0. -4.41860467e-01
      3.87096763e-01 3.90097536e-02 1.57539379e-02 0. 0.</_>
    <_>
      6.89189196e-01 2.74774760e-01 3.60360369e-02 0. 0. 0.
      -3.10810804e-01 2.59009004e-01 2.70270277e-02 2.47747749e-02 0. 0.
      -1.64414421e-01 1.30630627e-01 3.37837823e-02 0. 0. 0.
      -1.64414421e-01 1.46396399e-01 1.80180185e-02 0. 0. 0.
      -1.64414421e-01 8.78378376e-02 4.72972989e-02 2.92792786e-02 0. 0.
      -3.94144148e-01 3.40090096e-01 5.40540554e-02 0. 0. 0.
      -3.94144148e-01 3.46846849e-01 4.72972989e-02 0. 0. 0.
      -3.37837845e-01 1.86936930e-01 1.50900900e-01 0. 0. 0.
      -3.37837845e-01 1.82432428e-01 9.90990996e-02 5.63063063e-02 0. 0.
      -3.37837845e-01 2.27477476e-01 4.05405387e-02 6.98198229e-02 0. 0.
      -3.10810804e-01 2.56756753e-01 5.40540554e-02 0. 0. 0.
      -3.10810804e-01 2.74774760e-01 3.60360369e-02 0. 0. 0.
      6.47419512e-01 3.08635652e-01 3.01481858e-02 1.37966275e-02 0. 0.
      -3.52580488e-01 3.19877356e-01 2.86152270e-02 4.08788957e-03 0. 0.
      -1.57894731e-01 1.41032189e-01 1.68625452e-02 0. 0. 0.
      -1.57894731e-01 1.47164032e-01 1.07307099e-02 0. 0. 0.
      -1.57894731e-01 1.49207965e-01 8.68676510e-03 0. 0. 0.
      -2.99948901e-01 2.86663264e-01 1.32856416e-02 0. 0. 0.
      -2.99948901e-01 2.79509455e-01 1.58405714e-02 -3.06591718e-03
      7.66479317e-03 0. -3.96525294e-01 3.20388347e-01 7.25600421e-02
      -3.06591718e-03 6.64282078e-03 0. -3.96525294e-01 2.88707197e-01
      8.12468082e-02 2.65712831e-02 0. 0. -3.96525294e-01 2.78487474e-01
      8.02248344e-02 2.50383243e-02 1.27746547e-02 0. -3.52580488e-01
      3.16811442e-01 3.57690342e-02 0. 0. 0. -3.52580488e-01
      3.08635652e-01 3.01481858e-02 1.37966275e-02 0. 0. 4.84741777e-01
      4.24882621e-01 5.04694842e-02 0. 3.99061032e-02 0. -5.15258193e-01
      4.70657289e-01 4.46009375e-02 0. 0. 0. -1.59624413e-01
      1.07981220e-01 3.63849774e-02 1.52582163e-02 0. 0. -1.59624413e-01
      1.19718313e-01 3.99061032e-02 0. 0. 0. -1.59624413e-01
      1.33802816e-01 2.58215964e-02 0. 0. 0. -1.79577470e-01
      1.54929578e-01 2.46478878e-02 0. 0. 0. -1.79577470e-01
      1.71361506e-01 8.21596198e-03 0. 0. 0. -2.06572771e-01
      1.80751175e-01 2.58215964e-02 0. 0. 0. -2.06572771e-01
      1.31455392e-01 5.16431928e-02 2.34741792e-02 0. 0. -2.06572771e-01
      9.85915512e-02 6.10328652e-02 1.05633801e-02 3.63849774e-02 0.
      -5.15258193e-01 4.70657289e-01 1.40845068e-02 3.05164326e-02 0. 0.
      -5.15258193e-01 4.24882621e-01 5.04694842e-02 0. 3.99061032e-02 0.</_>
    <_>
      7.36920774e-01 2.24215239e-01 3.88639756e-02 0. 0. 0.
      -2.63079226e-01 2.42152467e-01 2.09267568e-02 0. 0. 0.
      -1.71898350e-01 1.06128551e-01 4.63378169e-02 1.94319878e-02 0. 0.
      -1.71898350e-01 1.34529144e-01 1.49476836e-02 0. 2.24215239e-02 0.
      -1.71898350e-01 9.56651717e-02 7.62331858e-02 0. 0. 0.
      -3.88639748e-01 3.72197300e-01 1.64424516e-02 0. 0. 0.
      -3.88639748e-01 3.01943213e-01 8.66965652e-02 0. 0. 0.
      -3.28849018e-01 2.28699550e-01 8.96860957e-02 1.04633784e-02 0. 0.
      -3.28849018e-01 2.21225709e-01 8.81913304e-02 1.94319878e-02 0. 0.
      -3.28849018e-01 2.42152467e-01 6.72645718e-02 1.94319878e-02 0. 0.
      -2.63079226e-01 2.06278026e-01 5.68011962e-02 0. 0. 0.
      -2.63079226e-01 2.24215239e-01 3.88639756e-02 0. 0. 0.
      7.12097228e-01 2.39830956e-01 4.01479118e-02 7.92392995e-03 0. 0.
      -2.87902802e-01 2.41415739e-01 4.06761765e-02 5.81088196e-03 0. 0.
      -1.60063386e-01 1.33650288e-01 2.27152668e-02 3.69783421e-03 0. 0.
      -1.60063386e-01 1.27311140e-01 1.53195988e-02 1.74326468e-02 0. 0.
      -1.60063386e-01 1.37348130e-01 2.27152668e-02 0. 0. 0.
      -2.16059163e-01 1.97041735e-01 1.90174319e-02 0. 0. 0.
      -2.16059163e-01 1.97569996e-01 1.42630748e-02 4.22609597e-03 0. 0.
      -4.59059685e-01 3.44426841e-01 1.07765451e-01 0. 6.86740642e-03 0.
      -4.59059685e-01 2.13417858e-01 1.06708929e-01 1.13048069e-01
      2.58848388e-02 0. -4.59059685e-01 3.16428959e-01 8.02958235e-02
      4.22609597e-02 2.00739559e-02 0. -2.87902802e-01 2.67300576e-01
      2.06022188e-02 0. 0. 0. -2.87902802e-01 2.39830956e-01
      4.01479118e-02 7.92392995e-03 0. 0. 5.27645051e-01 3.96587044e-01
      6.27986342e-02 1.29692834e-02 0. 0. -4.72354949e-01 4.41638231e-01
      3.07167228e-02 0. 0. 0. -2.39590451e-01 1.46075085e-01
      6.00682609e-02 3.34470980e-02 0. 0. -2.39590451e-01 2.13651881e-01
      2.59385668e-02 0. 0. 0. -2.39590451e-01 2.21160412e-01
      1.84300337e-02 0. 0. 0. -2.36860067e-01 1.69283271e-01
      6.75767884e-02 0. 0. 0. -2.36860067e-01 2.32081905e-01
      4.77815699e-03 0. 0. 0. -1.84300348e-01 1.65870309e-01
      1.84300337e-02 0. 0. 0. -1.84300348e-01 1.50853246e-01
      2.11604089e-02 1.22866891e-02 0. 0. -1.84300348e-01 1.29010245e-01
      2.73037534e-02 2.79863477e-02 0. 0. -4.72354949e-01 3.44709903e-01
      1.07849829e-01 1.97952222e-02 0. 0. -4.72354949e-01 3.96587044e-01
      6.27986342e-02 1.29692834e-02 0. 0.</_>
    <_>
      6.31944418e-01 3.49537045e-01 1.85185187e-02 0. 0. 0.
      -3.68055552e-01 3.56481493e-01 1.15740737e-02 0. 0. 0.
      -1.87500000e-01 1.45833328e-01 1.15740737e-02 3.00925933e-02 0. 0.
      -1.87500000e-01 1.55092597e-01 3.24074067e-02 0. 0. 0.
      -1.87500000e-01 1.04166664e-01 8.33333358e-02 0. 0. 0.
      -3.65740746e-01 2.68518507e-01 7.87037015e-02 1.85185187e-02 0. 0.
      -3.65740746e-01 3.40277791e-01 2.54629627e-02 0. 0. 0.
      -3.61111104e-01 3.21759254e-01 3.93518507e-02 0. 0. 0.
      -3.61111104e-01 2.63888896e-01 4.39814813e-02 5.32407425e-02 0. 0.
      -3.61111104e-01 2.06018522e-01 1.13425925e-01 4.16666679e-02 0. 0.
      -3.68055552e-01 1.92129627e-01 1.45833328e-01 3.00925933e-02 0. 0.
      -3.68055552e-01 3.49537045e-01 1.85185187e-02 0. 0. 0.
      6.18291736e-01 3.53741497e-01 2.79667415e-02 0. 0. 0.
      -3.81708235e-01 3.37868482e-01 3.77928950e-02 6.04686327e-03 0. 0.
      -1.83673471e-01 1.77626610e-01 6.04686327e-03 0. 0. 0.
      -1.83673471e-01 1.55706733e-01 2.79667415e-02 0. 0. 0.
      -1.83673471e-01 1.10355251e-01 7.33182132e-02 0. 0. 0.
      -2.86470145e-01 2.44897962e-01 4.15721834e-02 0. 0. 0.
      -2.86470145e-01 2.80423284e-01 -6.80272095e-03 1.28495842e-02 0.
      0. -4.11186695e-01 3.74149650e-01 3.70370373e-02 0. 0. 0.
      -4.11186695e-01 2.75132269e-01 8.08767974e-02 5.51776253e-02 0. 0.
      -4.11186695e-01 2.26757362e-01 1.14134543e-01 3.85487527e-02
      3.17460336e-02 0. -3.81708235e-01 3.18972021e-01 6.27362058e-02 0.
      0. 0. -3.81708235e-01 3.53741497e-01 2.79667415e-02 0. 0. 0.
      3.90361458e-01 3.75903606e-01 1.15662649e-01 0. 0. 1.18072286e-01
      -6.09638572e-01 5.59036136e-01 5.06024100e-02 0. 0. 0.
      -1.18072286e-01 1.01204820e-01 1.68674700e-02 0. 0. 0.
      -1.18072286e-01 1.18072286e-01 0. 0. 0. 0. -1.18072286e-01
      1.01204820e-01 1.68674700e-02 0. 0. 0. -1.85542166e-01
      1.51807234e-01 3.37349400e-02 0. 0. 0. -1.85542166e-01
      1.68674693e-01 1.68674700e-02 0. 0. 0. -2.55421698e-01
      1.68674693e-01 8.67469907e-02 0. 0. 0. -2.55421698e-01
      1.95180729e-01 2.89156623e-02 3.13253030e-02 0. 0. -2.55421698e-01
      2.12048188e-01 4.33734953e-02 0. 0. 0. -6.09638572e-01
      5.75903594e-01 3.37349400e-02 0. 0. 0. -6.09638572e-01
      3.75903606e-01 1.15662649e-01 0. 0. 1.18072286e-01</_>
    <_>
      6.52535319e-01 3.12759757e-01 3.47049050e-02 0. 0. 0.
      -3.47464681e-01 3.20656687e-01 2.24438906e-02 4.36408957e-03 0. 0.
      -2.21737325e-01 2.03241900e-01 1.82876140e-02 0. 0. 0.
      -2.21529514e-01 2.08021611e-01 1.35078970e-02 0. 0. 0.
      -2.21529514e-01 2.01371565e-01 1.64172910e-02 3.94846220e-03 0. 0.
      -3.72194529e-01 3.41438085e-01 3.07564419e-02 0. 0. 0.
      -3.72194529e-01 3.41438085e-01 2.86783036e-02 2.07813806e-03 0. 0.
      -2.28802994e-01 2.05112219e-01 2.30673309e-02 0. 0. 0.
      -2.28179544e-01 2.06982538e-01 1.12219453e-02 9.97506268e-03 0. 0.
      -2.28179544e-01 2.10099757e-01 1.66251045e-02 1.45469664e-03 0. 0.
      -3.46841216e-01 3.29384863e-01 1.76641736e-02 0. 0. 0.
      -3.47049057e-01 3.12759757e-01 3.47049050e-02 0. 0. 0.
      6.41175091e-01 2.91676372e-01 5.96875735e-02 7.46094668e-03 0. 0.
      -3.58824909e-01 3.34110528e-01 2.35486124e-02 0. 0. 0.
      -2.01212406e-01 1.91419914e-01 9.79249272e-03 0. 0. 0.
      -2.01212406e-01 1.76031709e-01 9.09302849e-03 1.63208209e-02 0. 0.
      -2.01445565e-01 1.78130105e-01 1.07251108e-02 9.55933798e-03
      3.03100958e-03 0. -3.29913735e-01 2.90044308e-01 3.91699709e-02
      1.63208204e-03 0. 0. -3.30846339e-01 2.93308467e-01 3.42737250e-02
      1.63208204e-03 0. 0. -2.93308467e-01 2.35252976e-01 5.64234070e-02
      2.09839130e-03 0. 0. -2.93774784e-01 2.20797390e-01 4.82629985e-02
      1.23571930e-02 1.16577288e-02 0. -2.93075323e-01 2.31522501e-01
      5.94544187e-02 1.63208204e-03 0. 0. -3.56493354e-01 3.17789704e-01
      4.03357409e-02 0. 0. 0. -3.58125448e-01 2.91676372e-01
      5.96875735e-02 7.46094668e-03 0. 0. 6.04498804e-01 3.40685725e-01
      4.69534844e-02 1.52871804e-03 6.33326033e-03 0. -3.95501196e-01
      3.72352034e-01 2.22756062e-02 0. 0. 0. -1.91744924e-01
      1.81262285e-01 8.95391963e-03 1.52871804e-03 0. 0. -1.91744924e-01
      1.82354227e-01 7.86197837e-03 1.52871804e-03 0. 0. -1.91744924e-01
      1.67940602e-01 2.14020535e-02 2.18388299e-03 0. 0. -3.35444421e-01
      3.20375621e-01 1.26665207e-02 2.18388299e-03 0. 0. -3.35226029e-01
      3.14697534e-01 2.03101113e-02 1.52871804e-03 0. 0. -2.43502945e-01
      2.26687044e-01 1.48504041e-02 1.96549459e-03 0. 0. -2.43502945e-01
      2.24284783e-01 1.74710639e-02 1.52871804e-03 0. 0. -2.43284553e-01
      2.22319290e-01 1.50687927e-02 5.89648401e-03 0. 0. -3.95282805e-01
      3.57501626e-01 2.88272556e-02 6.11487217e-03 3.05743609e-03 0.
      -3.95501196e-01 3.40685725e-01 4.69534844e-02 1.52871804e-03
      6.33326033e-03 0.</_>
    <_>
      7.30303049e-01 2.69696981e-01 0. 0. 0. 0. -2.69696981e-01
      2.39393935e-01 3.03030312e-02 0. 0. 0. -1.27272725e-01
      8.48484859e-02 4.24242429e-02 0. 0. 0. -1.27272725e-01
      1.00000001e-01 2.72727273e-02 0. 0. 0. -1.27272725e-01
      6.06060624e-02 2.72727273e-02 3.93939391e-02 0. 0. -4.12121207e-01
      2.96969712e-01 9.39393938e-02 2.12121215e-02 0. 0. -4.12121207e-01
      3.75757575e-01 3.63636352e-02 0. 0. 0. -4.21212107e-01
      2.21212119e-01 2.00000003e-01 0. 0. 0. -4.21212107e-01
      2.36363634e-01 1.39393941e-01 4.54545468e-02 0. 0. -4.21212107e-01
      2.15151519e-01 1.45454541e-01 6.06060624e-02 0. 0. -2.69696981e-01
      1.72727272e-01 9.69696939e-02 0. 0. 0. -2.69696981e-01
      2.69696981e-01 0. 0. 0. 0. 6.98003888e-01 2.62717307e-01
      2.70444304e-02 1.22343851e-02 0. 0. -3.01996142e-01 2.65936911e-01
      2.51126848e-02 1.93174498e-03 9.01481044e-03 0. -1.21056020e-01
      1.10753380e-01 1.03026405e-02 0. 0. 0. -1.21056020e-01
      9.14359316e-02 2.96200905e-02 0. 0. 0. -1.21056020e-01
      9.91629139e-02 2.18931101e-02 0. 0. 0. -2.29877651e-01
      2.20862851e-01 9.01481044e-03 0. 0. 0. -2.29877651e-01
      1.98325828e-01 2.31809393e-02 8.37089494e-03 0. 0. -5.29942036e-01
      4.28847402e-01 9.59433392e-02 5.15132025e-03 0. 0. -5.29942036e-01
      2.96200901e-01 1.12041213e-01 4.82936241e-02 7.34063089e-02 0.
      -5.29942036e-01 3.10367018e-01 6.95428178e-02 6.76110759e-02
      8.24211240e-02 0. -3.01996142e-01 2.63361245e-01 3.86349000e-02 0.
      0. 0. -3.01996142e-01 2.62717307e-01 2.70444304e-02 1.22343851e-02
      0. 0. 4.54400003e-01 4.09599990e-01 8.64000022e-02 4.96000014e-02
      0. 0. -5.45599997e-01 4.94399995e-01 5.11999987e-02 0. 0. 0.
      -1.64800003e-01 8.32000002e-02 6.08000010e-02 2.08000001e-02 0. 0.
      -1.64800003e-01 1.07199997e-01 5.75999990e-02 0. 0. 0.
      -1.64800003e-01 1.34399995e-01 3.04000005e-02 0. 0. 0.
      -1.23199999e-01 8.95999968e-02 3.35999988e-02 0. 0. 0.
      -1.23199999e-01 1.07199997e-01 1.60000008e-02 0. 0. 0.
      -3.10400009e-01 2.72000015e-01 3.84000018e-02 0. 0. 0.
      -3.10400009e-01 1.71200007e-01 7.68000036e-02 6.23999983e-02 0. 0.
      -3.10400009e-01 1.59999996e-01 3.84000018e-02 1.12000003e-01 0. 0.
      -5.45599997e-01 3.58399987e-01 1.56800002e-01 3.04000005e-02 0. 0.
      -5.45599997e-01 4.09599990e-01 8.64000022e-02 4.96000014e-02 0. 0.</_>
    <_>
      6.54639184e-01 2.73195863e-01 3.86597924e-02 3.35051529e-02 0. 0.
      -3.45360816e-01 3.24742258e-01 0. 2.06185561e-02 0. 0.
      -1.80412367e-01 1.44329891e-01 3.60824727e-02 0. 0. 0.
      -1.80412367e-01 8.50515440e-02 9.53608230e-02 0. 0. 0.
      -1.80412367e-01 1.05670102e-01 7.47422650e-02 0. 0. 0.
      -3.40206176e-01 2.60309279e-01 7.98969045e-02 0. 0. 0.
      -3.40206176e-01 2.44845361e-01 9.53608230e-02 0. 0. 0.
      -2.88659781e-01 2.24226803e-01 4.63917516e-02 1.80412363e-02 0. 0.
      -2.88659781e-01 2.73195863e-01 1.54639175e-02 0. 0. 0.
      -2.88659781e-01 1.59793809e-01 4.38144319e-02 8.50515440e-02 0. 0.
      -3.45360816e-01 2.62886584e-01 8.24742243e-02 0. 0. 0.
      -3.45360816e-01 2.73195863e-01 3.86597924e-02 3.35051529e-02 0. 0.
      6.61866665e-01 2.96533346e-01 4.16000001e-02 0. 0. 0.
      -3.38133335e-01 3.21599990e-01 1.65333338e-02 0. 0. 0.
      -1.82400003e-01 1.60533339e-01 2.18666662e-02 0. 0. 0.
      -1.82400003e-01 1.46666661e-01 3.57333347e-02 0. 0. 0.
      -1.82400003e-01 1.48266673e-01 3.41333337e-02 0. 0. 0.
      -2.56000012e-01 2.41066664e-01 1.49333337e-02 0. 0. 0.
      -2.56000012e-01 2.32533336e-01 1.70666669e-02 6.39999984e-03 0. 0.
      -3.80800009e-01 3.07733327e-01 6.93333298e-02 -3.19999992e-03
      6.93333335e-03 0. -3.80800009e-01 2.63999999e-01 9.38666686e-02
      1.38666667e-02 9.06666648e-03 0. -3.80800009e-01 2.42666662e-01
      6.93333298e-02 4.74666655e-02 2.13333331e-02 0. -3.38133335e-01
      3.03999990e-01 3.41333337e-02 0. 0. 0. -3.38133335e-01
      2.96533346e-01 4.16000001e-02 0. 0. 0. 4.22839493e-01
      3.73456776e-01 4.93827164e-02 7.09876567e-02 8.33333358e-02 0.
      -5.77160478e-01 5.24691343e-01 5.24691343e-02 0. 0. 0.
      -1.54320985e-01 6.79012313e-02 8.64197537e-02 0. 0. 0.
      -1.54320985e-01 8.95061716e-02 6.48148134e-02 0. 0. 0.
      -1.54320985e-01 1.04938269e-01 4.93827164e-02 0. 0. 0.
      -1.14197530e-01 9.25925896e-02 2.16049384e-02 0. 0. 0.
      -1.14197530e-01 9.25925896e-02 2.16049384e-02 0. 0. 0.
      -3.02469134e-01 2.40740746e-01 6.17283955e-02 0. 0. 0.
      -3.02469134e-01 1.63580254e-01 5.24691343e-02 2.16049384e-02
      6.48148134e-02 0. -3.02469134e-01 1.69753090e-01 7.09876567e-02
      6.17283955e-02 0. 0. -5.77160478e-01 4.53703701e-01 6.48148134e-02
      5.86419739e-02 0. 0. -5.77160478e-01 3.73456776e-01 4.93827164e-02
      7.09876567e-02 8.33333358e-02 0.</_>
    <_>
      6.31878555e-01 3.52941185e-01 1.51802655e-02 0. 0. 0.
      -3.68121445e-01 3.14990520e-01 2.27703992e-02 3.03605311e-02 0. 0.
      -1.70777991e-01 1.42314985e-01 2.84629986e-02 0. 0. 0.
      -1.70777991e-01 1.53700188e-01 1.70777980e-02 0. 0. 0.
      -1.70777991e-01 9.86717269e-02 2.84629986e-02 4.36432622e-02 0. 0.
      -3.45351040e-01 2.86527514e-01 4.36432622e-02 1.51802655e-02 0. 0.
      -3.45351040e-01 2.92220116e-01 5.31309284e-02 0. 0. 0.
      -3.28273237e-01 2.48576850e-01 4.93358634e-02 3.03605311e-02 0. 0.
      -3.28273237e-01 2.59962052e-01 5.50284646e-02 1.32827321e-02 0. 0.
      -3.28273237e-01 1.76470593e-01 9.67741907e-02 5.50284646e-02 0. 0.
      -3.68121445e-01 2.77039856e-01 6.64136633e-02 2.46679317e-02 0. 0.
      -3.68121445e-01 3.52941185e-01 1.51802655e-02 0. 0. 0.
      7.05205202e-01 2.39739746e-01 2.35235244e-02 3.15315314e-02 0. 0.
      -2.94794798e-01 2.61761755e-01 3.30330320e-02 0. 0. 0.
      -1.49649650e-01 1.32132128e-01 1.75175183e-02 0. 0. 0.
      -1.49649650e-01 1.35635629e-01 1.40140140e-02 0. 0. 0.
      -1.49649650e-01 1.18118115e-01 3.15315314e-02 0. 0. 0.
      -2.35735729e-01 2.22722724e-01 4.00400395e-03 9.00900923e-03 0. 0.
      -2.35735729e-01 2.08208203e-01 2.75275279e-02 0. 0. 0.
      -3.90390396e-01 3.04304302e-01 8.60860869e-02 0. 0. 0.
      -3.90390396e-01 2.14214221e-01 6.40640631e-02 9.95995998e-02
      1.25125125e-02 0. -3.90390396e-01 2.82782793e-01 8.35835859e-02
      2.40240246e-02 0. 0. -2.94794798e-01 2.68768758e-01 2.60260254e-02
      0. 0. 0. -2.94794798e-01 2.39739746e-01 2.35235244e-02
      3.15315314e-02 0. 0. 4.81680065e-01 3.50312769e-01 8.93655047e-02
      5.09383380e-02 2.77033057e-02 0. -5.18319905e-01 4.45040226e-01
      7.32797161e-02 0. 0. 0. -2.74352103e-01 1.44772112e-01
      9.56210867e-02 3.39588933e-02 0. 0. -2.74352103e-01 2.21626446e-01
      4.64700609e-02 6.25558523e-03 0. 0. -2.74352103e-01 2.56478995e-01
      1.78731009e-02 0. 0. 0. -1.05451293e-01 9.56210867e-02
      9.83020570e-03 0. 0. 0. -1.05451293e-01 8.57908875e-02
      1.96604114e-02 0. 0. 0. -2.21626446e-01 2.00178728e-01
      2.14477219e-02 0. 0. 0. -2.21626446e-01 1.73369080e-01
      3.48525457e-02 1.34048257e-02 0. 0. -2.21626446e-01 9.83020589e-02
      9.56210867e-02 2.77033057e-02 0. 0. -5.18319905e-01 4.45933878e-01
      7.23860562e-02 0. 0. 0. -5.18319905e-01 3.50312769e-01
      8.93655047e-02 5.09383380e-02 2.77033057e-02 0.</_>
    <_>
      7.31898248e-01 2.68101752e-01 0. 0. 0. 0. -2.68101752e-01
      2.48532295e-01 1.95694715e-02 0. 0. 0. -8.61056745e-02
      5.87084144e-02 2.73972601e-02 0. 0. 0. -8.61056745e-02
      7.04500973e-02 1.56555772e-02 0. 0. 0. -8.61056745e-02
      6.45792559e-02 2.15264186e-02 0. 0. 0. -3.32681030e-01
      2.75929540e-01 5.67514673e-02 0. 0. 0. -3.32681030e-01
      2.56360084e-01 7.63209388e-02 0. 0. 0. -4.61839527e-01
      2.60273963e-01 2.01565564e-01 0. 0. 0. -4.61839527e-01
      2.64187872e-01 1.38943255e-01 3.32681015e-02 2.54403129e-02 0.
      -4.61839527e-01 2.70058721e-01 1.40900195e-01 5.08806258e-02 0. 0.
      -2.68101752e-01 1.58512726e-01 1.09589040e-01 0. 0. 0.
      -2.68101752e-01 2.68101752e-01 0. 0. 0. 0. 6.78370774e-01
      2.64747202e-01 2.38764044e-02 3.30056176e-02 0. 0. -3.21629226e-01
      2.97050565e-01 1.89606734e-02 5.61797759e-03 0. 0. -1.04634829e-01
      7.02247173e-02 2.94943824e-02 4.91573056e-03 0. 0. -1.04634829e-01
      8.35674182e-02 2.10674163e-02 0. 0. 0. -1.04634829e-01
      9.48033705e-02 9.83146112e-03 0. 0. 0. -2.42977530e-01
      2.25421354e-01 1.75561793e-02 0. 0. 0. -2.42977530e-01
      2.02949435e-01 4.00280915e-02 0. 0. 0. -5.27387619e-01
      4.45224732e-01 6.95224702e-02 3.51123605e-03 9.12921317e-03 0.
      -5.27387619e-01 2.19803378e-01 1.27808988e-01 1.36235952e-01
      4.35393266e-02 0. -5.27387619e-01 2.54213482e-01 1.52387634e-01
      9.83146057e-02 2.24719103e-02 0. -3.21629226e-01 2.73174167e-01
      4.84550558e-02 0. 0. 0. -3.21629226e-01 2.64747202e-01
      2.38764044e-02 3.30056176e-02 0. 0. 4.20772314e-01 4.51398134e-01
      8.12250301e-02 4.66045290e-02 0. 0. -5.79227686e-01 5.03328919e-01
      7.58988038e-02 0. 0. 0. -1.50466040e-01 7.85619169e-02
      7.19041303e-02 0. 0. 0. -1.50466040e-01 1.10519305e-01
      3.99467386e-02 0. 0. 0. -1.50466040e-01 1.31824240e-01
      1.86418109e-02 0. 0. 0. -1.09187752e-01 9.98668447e-02
      9.32090543e-03 0. 0. 0. -1.09187752e-01 9.98668447e-02
      9.32090543e-03 0. 0. 0. -3.04926753e-01 2.54327565e-01
      5.05992025e-02 0. 0. 0. -3.04926753e-01 1.93075895e-01
      6.52463362e-02 4.66045290e-02 0. 0. -3.04926753e-01 1.38482019e-01
      6.79094568e-02 9.85352844e-02 0. 0. -5.79227686e-01 4.07456726e-01
      9.98668447e-02 7.19041303e-02 0. 0. -5.79227686e-01 4.51398134e-01
      8.12250301e-02 4.66045290e-02 0. 0.</_>
    <_>
      6.69950724e-01 2.36453205e-01 7.06075504e-02 2.29885057e-02 0. 0.
      -3.30049247e-01 3.13628912e-01 1.64203607e-02 0. 0. 0.
      -8.21018070e-02 6.56814426e-02 1.64203607e-02 0. 0. 0.
      -8.21018070e-02 7.55336583e-02 6.56814454e-03 0. 0. 0.
      -8.21018070e-02 7.55336583e-02 6.56814454e-03 0. 0. 0.
      -4.56486046e-01 4.31855500e-01 2.46305410e-02 0. 0. 0.
      -4.56486046e-01 4.20361251e-01 2.29885057e-02 1.31362891e-02 0. 0.
      -2.26600990e-01 1.46141216e-01 6.73234835e-02 1.31362891e-02 0. 0.
      -2.26600990e-01 1.93760261e-01 1.14942528e-02 2.13464703e-02 0. 0.
      -2.26600990e-01 1.85550079e-01 4.10509035e-02 0. 0. 0.
      -3.30049247e-01 2.84072250e-01 1.97044332e-02 2.62725782e-02 0. 0.
      -3.30049247e-01 2.36453205e-01 7.06075504e-02 2.29885057e-02 0. 0.
      6.67076945e-01 2.67692298e-01 6.52307719e-02 0. 0. 0.
      -3.32923084e-01 3.05846155e-01 2.70769224e-02 0. 0. 0.
      -1.06461540e-01 1.04000002e-01 2.46153842e-03 0. 0. 0.
      -1.06461540e-01 1.06461540e-01 0. 0. 0. 0. -1.06461540e-01
      9.35384631e-02 1.29230767e-02 0. 0. 0. -2.95384616e-01
      2.90461540e-01 4.92307683e-03 0. 0. 0. -2.95384616e-01
      2.65846163e-01 2.15384606e-02 8.00000038e-03 0. 0. -4.32615399e-01
      3.36615384e-01 9.10769254e-02 4.92307683e-03 0. 0. -4.32615399e-01
      2.59692311e-01 8.73846188e-02 6.64615408e-02 1.90769229e-02 0.
      -4.32615399e-01 3.08923066e-01 9.96923074e-02 2.40000002e-02 0. 0.
      -3.32923084e-01 2.91076928e-01 3.69230770e-02 4.92307683e-03 0. 0.
      -3.32923084e-01 2.67692298e-01 6.52307719e-02 0. 0. 0.
      4.44444448e-01 3.33333343e-01 1.78160921e-01 4.40613031e-02 0. 0.
      -5.55555582e-01 4.67432946e-01 5.74712642e-02 3.06513403e-02 0. 0.
      -1.07279696e-01 8.81226063e-02 1.91570874e-02 0. 0. 0.
      -1.07279696e-01 8.81226063e-02 1.91570874e-02 0. 0. 0.
      -1.07279696e-01 7.47126415e-02 3.25670503e-02 0. 0. 0.
      -1.51340991e-01 1.37931034e-01 1.34099619e-02 0. 0. 0.
      -1.51340991e-01 1.11111112e-01 4.02298868e-02 0. 0. 0.
      -3.27586204e-01 2.27969348e-01 9.96168554e-02 0. 0. 0.
      -3.27586204e-01 1.53256699e-01 1.53256699e-01 2.10727975e-02 0. 0.
      -3.27586204e-01 2.45210722e-01 6.89655170e-02 1.34099619e-02 0. 0.
      -5.55555582e-01 4.98084277e-01 3.25670503e-02 2.49042138e-02 0. 0.
      -5.55555582e-01 3.33333343e-01 1.78160921e-01 4.40613031e-02 0. 0.</_>
    <_>
      6.97038710e-01 2.36902043e-01 6.60592243e-02 0. 0. 0.
      -3.02961290e-01 2.71070629e-01 3.18906605e-02 0. 0. 0.
      -8.88382718e-02 8.88382718e-02 0. 0. 0. 0. -8.88382718e-02
      7.28929415e-02 1.59453303e-02 0. 0. 0. -8.88382718e-02
      7.28929415e-02 1.59453303e-02 0. 0. 0. -3.30296129e-01
      2.91571766e-01 1.82232354e-02 2.05011386e-02 0. 0. -3.30296129e-01
      2.61958987e-01 6.83371276e-02 0. 0. 0. -4.32801813e-01
      2.41457865e-01 1.91343963e-01 0. 0. 0. -4.32801813e-01
      2.57403195e-01 9.11161751e-02 8.42824578e-02 0. 0. -4.32801813e-01
      3.05239171e-01 9.79498848e-02 2.96127554e-02 0. 0. -3.02961290e-01
      2.34624147e-01 6.83371276e-02 0. 0. 0. -3.02961290e-01
      2.36902043e-01 6.60592243e-02 0. 0. 0. 7.34151304e-01
      2.61077017e-01 4.77164285e-03 0. 0. 0. -2.65848666e-01
      2.22222224e-01 4.36264500e-02 0. 0. 0. -1.71097472e-01
      1.44512609e-01 2.65848674e-02 0. 0. 0. -1.71097472e-01
      1.24744378e-01 4.63531017e-02 0. 0. 0. -1.71097472e-01
      1.49284258e-01 1.29516022e-02 8.86162277e-03 0. 0. -2.80163586e-01
      2.31083840e-01 4.90797535e-02 0. 0. 0. -2.80163586e-01
      2.37218812e-01 4.29447852e-02 0. 0. 0. -4.53306079e-01
      3.30606669e-01 1.13156103e-01 9.54328571e-03 0. 0. -4.53306079e-01
      2.79481947e-01 1.26107708e-01 1.97682343e-02 0. 2.79481933e-02
      -4.53306079e-01 3.23108375e-01 9.27062035e-02 3.74914780e-02 0. 0.
      -2.65848666e-01 2.35855490e-01 2.99931839e-02 0. 0. 0.
      -2.65848666e-01 2.61077017e-01 4.77164285e-03 0. 0. 0.
      4.45015430e-01 3.83350462e-01 1.57245636e-01 1.43884895e-02 0. 0.
      -5.54984570e-01 5.22096634e-01 3.28879766e-02 0. 0. 0.
      -1.50051385e-01 1.28468648e-01 2.15827338e-02 0. 0. 0.
      -1.50051385e-01 1.32579654e-01 1.74717363e-02 0. 0. 0.
      -1.50051385e-01 1.42857149e-01 7.19424477e-03 0. 0. 0.
      -1.56217888e-01 1.37718394e-01 1.84994861e-02 0. 0. 0.
      -1.56217888e-01 1.07913665e-01 4.83042151e-02 0. 0. 0.
      -2.66187042e-01 2.08633095e-01 4.00822200e-02 3.08324769e-03
      1.43884895e-02 0. -2.66187042e-01 1.90133601e-01 4.31654677e-02
      3.28879766e-02 0. 0. -2.66187042e-01 1.64439872e-01 6.57759532e-02
      3.59712243e-02 0. 0. -5.54984570e-01 4.80986625e-01 7.39979446e-02
      0. 0. 0. -5.54984570e-01 3.83350462e-01 1.57245636e-01
      1.43884895e-02 0. 0.</_>
    <_>
      6.76891625e-01 2.67893672e-01 2.04498973e-02 3.47648263e-02 0. 0.
      -3.23108375e-01 3.08793455e-01 1.43149281e-02 0. 0. 0.
      -5.72597124e-02 4.29447852e-02 1.43149281e-02 0. 0. 0.
      -5.72597124e-02 5.72597124e-02 0. 0. 0. 0. -5.72597124e-02
      4.29447852e-02 -2.65848674e-02 4.08997945e-02 0. 0.
      -3.61963183e-01 3.04703474e-01 5.72597124e-02 0. 0. 0.
      -3.61963183e-01 2.65848666e-01 6.95296526e-02 2.65848674e-02 0. 0.
      -4.51942742e-01 3.31288338e-01 9.40695331e-02 2.65848674e-02 0. 0.
      -4.51942742e-01 2.24948868e-01 2.12678939e-01 1.43149281e-02 0. 0.
      -4.51942742e-01 2.43353784e-01 1.82004094e-01 2.65848674e-02 0. 0.
      -3.23108375e-01 2.37218812e-01 8.58895704e-02 0. 0. 0.
      -3.23108375e-01 2.67893672e-01 2.04498973e-02 3.47648263e-02 0. 0.
      7.07530677e-01 2.55691767e-01 2.80210152e-02 8.75656772e-03 0. 0.
      -2.92469352e-01 2.46935204e-01 3.79451253e-02 7.58902496e-03 0. 0.
      -1.76298887e-01 1.47694111e-01 2.45183893e-02 4.08639805e-03 0. 0.
      -1.76298887e-01 1.54699355e-01 1.63455922e-02 5.25394036e-03 0. 0.
      -1.76298887e-01 1.48277879e-01 2.80210152e-02 0. 0. 0.
      -2.17746645e-01 2.08990082e-01 8.75656772e-03 0. 0. 0.
      -2.17746645e-01 2.04903677e-01 1.28429653e-02 0. 0. 0.
      -5.09048462e-01 4.01050776e-01 1.07997663e-01 0. 0. 0.
      -5.09048462e-01 2.53940463e-01 1.05662577e-01 1.22008175e-01
      2.74372455e-02 0. -5.09048462e-01 3.13485116e-01 8.63981321e-02
      5.42907193e-02 5.48744909e-02 0. -2.92469352e-01 2.43432581e-01
      4.26152945e-02 6.42148266e-03 0. 0. -2.92469352e-01 2.55691767e-01
      2.80210152e-02 8.75656772e-03 0. 0. 4.03120935e-01 4.42132652e-01
      9.75292623e-02 5.72171658e-02 0. 0. -5.96879065e-01 5.60468137e-01
      1.95058510e-02 1.69050712e-02 0. 0. -1.19635887e-01 6.89206794e-02
      3.90117019e-02 1.17035108e-02 0. 0. -1.19635887e-01 9.88296494e-02
      2.08062418e-02 0. 0. 0. -1.19635887e-01 1.01430431e-01
      1.82054620e-02 0. 0. 0. -1.33940175e-01 1.24837451e-01
      9.10273101e-03 0. 0. 0. -1.33940175e-01 1.24837451e-01
      9.10273101e-03 0. 0. 0. -3.12093616e-01 2.80884266e-01
      3.12093627e-02 0. 0. 0. -3.12093616e-01 1.46944076e-01
      9.49284807e-02 7.02210665e-02 0. 0. -3.12093616e-01 1.69050708e-01
      6.50195032e-02 7.80234039e-02 0. 0. -5.96879065e-01 3.65409613e-01
      1.62548766e-01 6.89206794e-02 0. 0. -5.96879065e-01 4.42132652e-01
      9.75292623e-02 5.72171658e-02 0. 0.</_>
    <_>
      6.63690448e-01 2.93154776e-01 2.23214291e-02 2.08333340e-02 0. 0.
      -3.36309522e-01 2.79761910e-01 5.65476194e-02 0. 0. 0.
      -1.02678575e-01 1.02678575e-01 0. 0. 0. 0. -1.02678575e-01
      9.67261940e-02 5.95238106e-03 0. 0. 0. -1.02678575e-01
      7.14285746e-02 3.12500000e-02 0. 0. 0. -4.07738090e-01
      3.31845224e-01 7.58928582e-02 0. 0. 0. -4.07738090e-01
      3.58630955e-01 4.91071418e-02 0. 0. 0. -3.19940478e-01
      2.24702388e-01 9.52380970e-02 0. 0. 0. -3.19940478e-01
      2.03869045e-01 6.69642836e-02 4.91071418e-02 0. 0. -3.19940478e-01
      2.00892851e-01 8.92857164e-02 2.97619049e-02 0. 0. -3.36309522e-01
      3.11011910e-01 2.52976194e-02 0. 0. 0. -3.36309522e-01
      2.93154776e-01 2.23214291e-02 2.08333340e-02 0. 0. 6.06153846e-01
      3.55384618e-01 3.07692308e-02 7.69230770e-03 0. 0. -3.93846154e-01
      3.41025651e-01 4.61538471e-02 6.66666683e-03 0. 0. -1.47692308e-01
      1.06666669e-01 2.87179481e-02 1.23076923e-02 0. 0. -1.47692308e-01
      1.39487177e-01 8.20512790e-03 0. 0. 0. -1.47692308e-01
      1.42564103e-01 5.12820529e-03 0. 0. 0. -2.93846160e-01
      2.88205117e-01 1.02564099e-03 4.61538462e-03 0. 0. -2.93846160e-01
      2.68205136e-01 1.89743582e-02 6.66666683e-03 0. 0. -3.40512812e-01
      2.86153853e-01 4.82051298e-02 -3.07692308e-03 9.23076924e-03 0.
      -3.40512812e-01 2.65641034e-01 6.05128221e-02 1.43589741e-02 0. 0.
      -3.40512812e-01 2.54871786e-01 6.56410232e-02 1.99999996e-02 0. 0.
      -3.93846154e-01 3.65128219e-01 2.87179481e-02 0. 0. 0.
      -3.93846154e-01 3.55384618e-01 3.07692308e-02 7.69230770e-03 0. 0.
      4.10872310e-01 5.08217454e-01 2.14917827e-02 5.94184585e-02 0. 0.
      -5.89127660e-01 5.57522118e-01 3.16055641e-02 0. 0. 0.
      -8.21744651e-02 3.16055641e-02 2.78128944e-02 2.27560047e-02 0. 0.
      -8.21744651e-02 4.55120094e-02 2.02275608e-02 1.64348930e-02 0. 0.
      -8.21744651e-02 6.44753501e-02 1.76991150e-02 0. 0. 0.
      -3.18584085e-01 3.09734523e-01 8.84955749e-03 0. 0. 0.
      -3.18584085e-01 3.18584085e-01 0. 0. 0. 0. -1.89633369e-01
      1.60556257e-01 2.90771183e-02 0. 0. 0. -1.89633369e-01
      1.37800246e-01 3.16055641e-02 2.02275608e-02 0. 0. -1.89633369e-01
      7.58533478e-02 5.81542365e-02 3.53982300e-02 2.02275608e-02 0.
      -5.89127660e-01 5.22123873e-01 4.67762314e-02 2.02275608e-02 0. 0.
      -5.89127660e-01 5.08217454e-01 2.14917827e-02 5.94184585e-02 0. 0.</_>
    <_>
      5.29900312e-01 3.74584705e-01 6.72757477e-02 2.82392018e-02 0. 0.
      -4.70099658e-01 3.31395358e-01 1.07973419e-01 3.07308976e-02 0. 0.
      -2.04318941e-01 1.35382056e-01 5.81395365e-02 1.07973423e-02 0. 0.
      -2.04318941e-01 1.71096340e-01 3.32225896e-02 0. 0. 0.
      -2.04318941e-01 1.95182726e-01 9.13621299e-03 0. 0. 0.
      -2.71594673e-01 2.46677741e-01 2.49169432e-02 0. 0. 0.
      -2.71594673e-01 2.42524922e-01 2.32558139e-02 5.81395347e-03 0. 0.
      -1.73588037e-01 1.48671091e-01 1.91029906e-02 5.81395347e-03 0. 0.
      -1.73588037e-01 1.61129564e-01 1.24584716e-02 0. 0. 0.
      -1.73588037e-01 1.55315608e-01 1.82724260e-02 0. 0. 0.
      -4.70099658e-01 4.36046511e-01 3.40531543e-02 0. 0. 0.
      -4.70099658e-01 3.74584705e-01 6.72757477e-02 2.82392018e-02 0. 0.
      6.85018539e-01 2.77924836e-01 3.70566435e-02 0. 0. 0.
      -3.14981461e-01 2.71042883e-01 4.39385921e-02 0. 0. 0.
      -2.37162516e-01 1.52461618e-01 4.34092097e-02 4.12916876e-02 0. 0.
      -2.37162516e-01 1.70460567e-01 5.24086803e-02 1.42932767e-02 0. 0.
      -2.37162516e-01 1.99047118e-01 3.81154045e-02 0. 0. 0.
      -2.73160398e-01 2.44044468e-01 2.91159339e-02 0. 0. 0.
      -2.73160398e-01 2.35574380e-01 3.07040755e-02 6.88194809e-03 0. 0.
      -3.89624149e-01 3.37215453e-01 4.65854965e-02 -3.17628379e-03
      8.99947062e-03 0. -3.89624149e-01 2.53043950e-01 9.10534710e-02
      1.42932767e-02 3.12334560e-02 0. -3.89624149e-01 2.68925369e-01
      3.01746950e-02 3.01746950e-02 6.03493899e-02 0. -3.14981461e-01
      3.02276343e-01 1.27051352e-02 0. 0. 0. -3.14981461e-01
      2.77924836e-01 3.70566435e-02 0. 0. 0. 4.96868461e-01
      3.95615876e-01 5.84551133e-02 4.90605421e-02 0. 0. -5.03131509e-01
      4.38413352e-01 6.47181645e-02 0. 0. 0. -1.59707725e-01
      4.80167009e-02 6.57620057e-02 4.59290184e-02 0. 0. -1.59707725e-01
      1.05427973e-01 3.96659710e-02 1.46137783e-02 0. 0. -1.59707725e-01
      1.34655535e-01 2.50521917e-02 0. 0. 0. -1.01252608e-01
      7.93319419e-02 2.19206680e-02 0. 0. 0. -1.01252608e-01
      1.01252608e-01 0. 0. 0. 0. -3.91440511e-01 3.37160766e-01
      5.42797484e-02 0. 0. 0. -3.91440511e-01 1.82672232e-01
      9.18580368e-02 1.16910227e-01 0. 0. -3.91440511e-01 1.68058455e-01
      1.01252608e-01 7.41127357e-02 2.19206680e-02 2.60960329e-02
      -5.03131509e-01 3.99791241e-01 7.62004182e-02 2.71398742e-02 0. 0.
      -5.03131509e-01 3.95615876e-01 5.84551133e-02 4.90605421e-02 0. 0.</_>
    <_>
      4.93915528e-01 3.50751609e-01 1.25268430e-01 3.00644245e-02 0. 0.
      -5.06084442e-01 4.70293492e-01 1.36005729e-02 0. 2.21904088e-02 0.
      -1.76807448e-01 1.53185397e-01 2.36220472e-02 0. 0. 0.
      -1.76807448e-01 1.71796709e-01 5.01073711e-03 0. 0. 0.
      -1.76807448e-01 1.57480314e-01 1.93271302e-02 0. 0. 0.
      -2.57695049e-01 2.19040796e-01 3.86542603e-02 0. 0. 0.
      -2.57695049e-01 2.31209740e-01 2.64853258e-02 0. 0. 0.
      -1.36721551e-01 1.25268430e-01 1.14531135e-02 0. 0. 0.
      -1.36721551e-01 1.33858263e-01 2.86327838e-03 0. 0. 0.
      -1.36721551e-01 1.28847525e-01 7.87401572e-03 0. 0. 0.
      -5.06084442e-01 4.30923402e-01 6.58554062e-02 9.30565502e-03 0. 0.
      -5.06084442e-01 3.50751609e-01 1.25268430e-01 3.00644245e-02 0. 0.
      5.84364474e-01 3.52643430e-01 4.16197963e-02 2.13723276e-02 0. 0.
      -4.15635556e-01 3.87514055e-01 2.81214844e-02 0. 0. 0.
      -1.10236220e-01 1.01237342e-01 8.99887551e-03 0. 0. 0.
      -1.10236220e-01 1.05736785e-01 4.49943775e-03 0. 0. 0.
      -1.10236220e-01 1.04049496e-01 6.18672650e-03 0. 0. 0.
      -2.79527545e-01 2.65466809e-01 1.40607422e-02 0. 0. 0.
      -2.79527545e-01 2.29471311e-01 5.00562415e-02 0. 0. 0.
      -3.89201343e-01 2.86839157e-01 1.02362208e-01 0. 0. 0.
      -3.89201343e-01 2.88526446e-01 7.31158629e-02 2.75590550e-02 0. 0.
      -3.89201343e-01 2.86839157e-01 6.58042729e-02 3.65579315e-02 0. 0.
      -4.15635556e-01 3.55455577e-01 6.01799786e-02 0. 0. 0.
      -4.15635556e-01 3.52643430e-01 4.16197963e-02 2.13723276e-02 0. 0.
      5.72493792e-01 3.84424180e-01 4.30820212e-02 0. 0. 0.
      -4.27506208e-01 4.04308200e-01 2.31980123e-02 0. 0. 0.
      -2.04639599e-01 1.55758083e-01 2.73405146e-02 2.15410106e-02 0. 0.
      -2.04639599e-01 1.35874063e-01 5.21955267e-02 1.65700074e-02 0. 0.
      -2.04639599e-01 1.45816073e-01 5.88235296e-02 0. 0. 0.
      -2.09610611e-01 1.78956091e-01 3.06545161e-02 0. 0. 0.
      -2.09610611e-01 1.98840097e-01 1.07705053e-02 0. 0. 0.
      -3.91880691e-01 3.21458161e-01 5.96520305e-02 1.07705053e-02 0. 0.
      -3.91880691e-01 3.18972647e-01 4.97100241e-02 2.31980123e-02 0. 0.
      -3.91880691e-01 2.24523619e-01 9.44490507e-02 5.71665280e-02
      1.57415085e-02 0. -4.27506208e-01 3.37199658e-01 9.03065428e-02 0.
      0. 0. -4.27506208e-01 3.84424180e-01 4.30820212e-02 0. 0. 0.</_>
    <_>
      5.29465079e-01 3.39075238e-01 8.61287415e-02 1.35992747e-02
      3.17316428e-02 0. -4.70534891e-01 4.17044431e-01 4.62375358e-02
      7.25294650e-03 0. 0. -1.65004537e-01 9.06618312e-02 7.43427053e-02
      0. 0. 0. -1.65004537e-01 1.37805983e-01 2.71985494e-02 0. 0. 0.
      -1.65004537e-01 1.36899367e-01 2.81051677e-02 0. 0. 0.
      -2.56572992e-01 2.37534001e-01 1.90389846e-02 0. 0. 0.
      -2.56572992e-01 2.50226647e-01 6.34632818e-03 0. 0. 0.
      -1.62284672e-01 1.37805983e-01 2.44786944e-02 0. 0. 0.
      -1.62284672e-01 1.54125109e-01 8.15956481e-03 0. 0. 0.
      -1.62284672e-01 1.26926571e-01 3.53581160e-02 0. 0. 0.
      -4.70534891e-01 3.90752494e-01 7.97824115e-02 0. 0. 0.
      -4.70534891e-01 3.39075238e-01 8.61287415e-02 1.35992747e-02
      3.17316428e-02 0. 6.60575867e-01 3.13399792e-01 2.60243639e-02 0.
      0. 0. -3.39424133e-01 3.13953489e-01 2.10409742e-02 4.42967890e-03
      0. 0. -1.75526023e-01 1.62236989e-01 1.32890362e-02 0. 0. 0.
      -1.75526023e-01 1.46733105e-01 2.87929121e-02 0. 0. 0.
      -1.75526023e-01 1.53377637e-01 2.21483950e-02 0. 0. 0.
      -2.61904776e-01 2.50830561e-01 7.19822804e-03 3.87596898e-03 0. 0.
      -2.61904776e-01 2.38095239e-01 1.99335553e-02 3.87596898e-03 0. 0.
      -3.94795120e-01 3.09523821e-01 8.52713212e-02 0. 0. 0.
      -3.94795120e-01 1.92691028e-01 8.58250260e-02 1.02436326e-01
      1.38427466e-02 0. -3.94795120e-01 2.75747508e-01 8.30564797e-02
      1.55038759e-02 2.04872638e-02 0. -3.39424133e-01 3.18383157e-01
      2.10409742e-02 0. 0. 0. -3.39424133e-01 3.13399792e-01
      2.60243639e-02 0. 0. 0. 5.37710726e-01 3.82431239e-01
      5.14640622e-02 2.83939671e-02 0. 0. -4.62289274e-01 3.69121552e-01
      7.71960989e-02 1.59716066e-02 0. 0. -1.45519078e-01 6.12244904e-02
      6.29991144e-02 2.12954748e-02 0. 0. -1.45519078e-01 1.34871334e-01
      1.06477374e-02 0. 0. 0. -1.45519078e-01 1.41969830e-01
      3.54924588e-03 0. 0. 0. -1.53504878e-01 1.53504878e-01 0. 0. 0. 0.
      -1.53504878e-01 1.47293702e-01 6.21118024e-03 0. 0. 0.
      -3.81543934e-01 2.54658371e-01 1.26885533e-01 0. 0. 0.
      -3.81543934e-01 2.20053241e-01 6.74356669e-02 4.34782617e-02
      5.05767539e-02 0. -3.81543934e-01 2.41348714e-01 1.18899733e-01
      2.12954748e-02 0. 0. -4.62289274e-01 4.01064783e-01 6.12244904e-02
      0. 0. 0. -4.62289274e-01 3.82431239e-01 5.14640622e-02
      2.83939671e-02 0. 0.</_>
    <_>
      5.94202876e-01 3.20158094e-01 5.00658751e-02 3.55731212e-02 0. 0.
      -4.05797094e-01 3.39920938e-01 6.58761561e-02 0. 0. 0.
      -3.08300406e-01 1.96310937e-01 7.37812892e-02 3.82081680e-02 0. 0.
      -3.08300406e-01 1.54150203e-01 1.10671937e-01 1.71277989e-02
      2.63504609e-02 0. -3.08300406e-01 2.39789203e-01 6.85111955e-02 0.
      0. 0. -2.42424250e-01 2.33201578e-01 -1.44927539e-02
      2.37154141e-02 0. 0. -2.42424250e-01 2.02898547e-01 3.95256914e-02
      0. 0. 0. -1.43610016e-01 9.88142267e-02 3.55731212e-02
      9.22266115e-03 0. 0. -1.43610016e-01 1.19894601e-01 2.37154141e-02
      0. 0. 0. -1.43610016e-01 1.25164688e-01 1.84453223e-02 0. 0. 0.
      -4.05797094e-01 3.83399218e-01 2.23978925e-02 0. 0. 0.
      -4.05797094e-01 3.20158094e-01 5.00658751e-02 3.55731212e-02 0. 0.
      7.89430916e-01 2.04065040e-01 6.50406489e-03 0. 0. 0.
      -2.10569099e-01 1.74796745e-01 3.57723571e-02 0. 0. 0.
      -3.24390233e-01 2.56097555e-01 2.92682927e-02 1.13821141e-02
      2.76422761e-02 0. -3.24390233e-01 2.02439025e-01 9.91869941e-02
      2.27642283e-02 0. 0. -3.24390233e-01 1.87804878e-01 1.36585370e-01
      0. 0. 0. -2.76422769e-01 2.61788607e-01 1.46341464e-02 0. 0. 0.
      -2.76422769e-01 2.19512194e-01 5.12195118e-02 5.69105707e-03 0. 0.
      -3.36585373e-01 2.78861791e-01 4.71544713e-02 1.05691059e-02 0. 0.
      -3.36585373e-01 1.75609753e-01 7.39837363e-02 8.69918689e-02 0. 0.
      -3.36585373e-01 2.09756091e-01 7.07317069e-02 9.75609757e-03
      4.63414639e-02 0. -2.10569099e-01 2.04878047e-01 5.69105707e-03 0.
      0. 0. -2.10569099e-01 2.04065040e-01 6.50406489e-03 0. 0. 0.
      5.13307989e-01 3.61216724e-01 7.09759220e-02 5.44993654e-02 0. 0.
      -4.86692011e-01 4.34727490e-01 3.54879610e-02 1.64765529e-02 0. 0.
      -1.29277572e-01 6.21039309e-02 6.71736374e-02 0. 0. 0.
      -1.29277572e-01 7.47781992e-02 3.42205316e-02 2.02788338e-02 0. 0.
      -1.29277572e-01 9.63244587e-02 3.29531059e-02 0. 0. 0.
      -6.33713529e-02 6.33713529e-02 0. 0. 0. 0. -6.33713529e-02
      6.33713529e-02 0. 0. 0. 0. -4.94296581e-01 4.51204062e-01
      4.30925228e-02 0. 0. 0. -4.94296581e-01 1.91381499e-01
      1.11533590e-01 1.91381499e-01 0. 0. -4.94296581e-01 1.82509512e-01
      1.67300373e-01 6.59062117e-02 7.85804838e-02 0. -4.86692011e-01
      3.39670479e-01 1.06463879e-01 4.05576676e-02 0. 0. -4.86692011e-01
      3.61216724e-01 7.09759220e-02 5.44993654e-02 0. 0.</_>
    <_>
      6.69745982e-01 2.49422640e-01 2.42494233e-02 5.65819852e-02 0. 0.
      -3.30254048e-01 2.96766758e-01 2.42494233e-02 9.23787523e-03 0. 0.
      -1.73210159e-01 1.31639719e-01 4.15704399e-02 0. 0. 0.
      -1.73210159e-01 1.05080828e-01 6.81293309e-02 0. 0. 0.
      -1.73210159e-01 1.37413397e-01 3.57967652e-02 0. 0. 0.
      -4.01847571e-01 3.72979224e-01 2.88683604e-02 0. 0. 0.
      -4.01847571e-01 3.22170913e-01 7.96766728e-02 0. 0. 0.
      -2.90993065e-01 1.77829102e-01 8.08314085e-02 3.23325619e-02 0. 0.
      -2.90993065e-01 2.04387993e-01 8.66050795e-02 0. 0. 0.
      -2.90993065e-01 2.05542728e-01 8.54503438e-02 0. 0. 0.
      -3.30254048e-01 2.86374122e-01 4.38799076e-02 0. 0. 0.
      -3.30254048e-01 2.49422640e-01 2.42494233e-02 5.65819852e-02 0. 0.
      7.28015065e-01 2.51256287e-01 2.07286440e-02 0. 0. 0.
      -2.71984935e-01 2.39321604e-01 3.26633155e-02 0. 0. 0.
      -2.11683422e-01 1.97864324e-01 1.38190957e-02 0. 0. 0.
      -2.11683422e-01 1.46356791e-01 6.09296486e-02 -3.76884430e-03
      8.16582888e-03 0. -2.11683422e-01 1.37562811e-01 7.41206035e-02 0.
      0. 0. -2.43090451e-01 2.11683422e-01 2.57537682e-02 5.65326633e-03
      0. 0. -2.43090451e-01 2.22989947e-01 2.01005023e-02 0. 0. 0.
      -4.38442200e-01 3.86934668e-01 5.15075363e-02 0. 0. 0.
      -4.38442200e-01 2.94597983e-01 1.03643216e-01 4.02010046e-02 0. 0.
      -4.38442200e-01 2.17336684e-01 1.25628144e-01 7.97738656e-02
      1.57035179e-02 0. -2.71984935e-01 2.21733674e-01 5.02512567e-02 0.
      0. 0. -2.71984935e-01 2.51256287e-01 2.07286440e-02 0. 0. 0.
      4.27850664e-01 4.33905154e-01 5.24722487e-02 8.57719481e-02 0. 0.
      -5.72149336e-01 5.54994941e-01 1.71543900e-02 0. 0. 0.
      -1.49344102e-01 1.27144292e-01 2.21997984e-02 0. 0. 0.
      -1.49344102e-01 1.03935421e-01 4.54086773e-02 0. 0. 0.
      -1.49344102e-01 1.15035318e-01 3.43087800e-02 0. 0. 0.
      -1.00908175e-01 8.67810324e-02 1.41271446e-02 0. 0. 0.
      -1.00908175e-01 9.38446000e-02 7.06357230e-03 0. 0. 0.
      -3.68314832e-01 3.55196774e-01 1.31180622e-02 0. 0. 0.
      -3.68314832e-01 2.50252277e-01 1.18062563e-01 0. 0. 0.
      -3.68314832e-01 4.43995968e-02 9.78809297e-02 1.66498482e-01
      3.02724522e-02 2.92633697e-02 -5.72149336e-01 4.15741682e-01
      1.19071648e-01 3.73360254e-02 0. 0. -5.72149336e-01 4.33905154e-01
      5.24722487e-02 8.57719481e-02 0. 0.</_>
    <_>
      5.10659873e-01 2.56852806e-01 1.11675128e-01 1.20812185e-01 0. 0.
      -4.89340097e-01 3.77664983e-01 1.11675128e-01 0. 0. 0.
      -1.87817261e-01 1.28934011e-01 5.88832498e-02 0. 0. 0.
      -1.87817261e-01 1.79695427e-01 8.12182762e-03 0. 0. 0.
      -1.87817261e-01 1.87817261e-01 0. 0. 0. 0. -2.59898484e-01
      2.59898484e-01 0. 0. 0. 0. -2.59898484e-01 2.03045681e-01
      5.68527915e-02 0. 0. 0. -1.26903549e-01 1.04568526e-01
      1.11675123e-02 1.11675123e-02 0. 0. -1.26903549e-01 1.19796954e-01
      7.10659893e-03 0. 0. 0. -1.26903549e-01 1.16751269e-01
      1.01522841e-02 0. 0. 0. -4.89340097e-01 4.61928934e-01
      1.42131979e-02 1.31979696e-02 0. 0. -4.89340097e-01 2.56852806e-01
      1.11675128e-01 1.20812185e-01 0. 0. 7.14082479e-01 2.44665712e-01
      2.84495018e-02 1.28022758e-02 0. 0. -2.85917491e-01 2.38264576e-01
      4.19630148e-02 5.68990037e-03 0. 0. -1.40113801e-01 1.14509247e-01
      2.56045517e-02 0. 0. 0. -1.40113801e-01 1.26600280e-01
      7.82361347e-03 5.68990037e-03 0. 0. -1.40113801e-01 1.30156472e-01
      9.95732564e-03 0. 0. 0. -2.77382642e-01 2.69559026e-01
      7.82361347e-03 0. 0. 0. -2.77382642e-01 2.39687055e-01
      3.76955904e-02 0. 0. 0. -4.57325757e-01 2.55334288e-01
      2.01991469e-01 0. 0. 0. -4.57325757e-01 3.06543380e-01
      1.23044096e-01 7.82361347e-03 1.99146513e-02 0. -4.57325757e-01
      4.03982937e-01 3.76955904e-02 1.56472269e-02 0. 0. -2.85917491e-01
      2.56756753e-01 2.91607399e-02 0. 0. 0. -2.85917491e-01
      2.44665712e-01 2.84495018e-02 1.28022758e-02 0. 0. 5.19522786e-01
      4.05639917e-01 5.42299338e-02 2.06073746e-02 0. 0. -4.80477214e-01
      4.13232118e-01 5.31453378e-02 1.40997833e-02 0. 0. -1.77874193e-01
      1.03036873e-01 4.01301533e-02 3.47071588e-02 0. 0. -1.77874193e-01
      1.26898050e-01 4.22993489e-02 8.67678970e-03 0. 0. -1.77874193e-01
      1.63774401e-01 1.40997833e-02 0. 0. 0. -1.49674624e-01
      1.42082423e-01 7.59219099e-03 0. 0. 0. -1.49674624e-01
      8.78524929e-02 6.18221276e-02 0. 0. 0. -4.02386129e-01
      3.39479387e-01 3.90455537e-02 2.38611717e-02 0. 0. -4.02386129e-01
      2.89587855e-01 1.04121476e-01 8.67678970e-03 0. 0. -4.02386129e-01
      2.24511936e-01 1.06290676e-01 7.15835169e-02 0. 0. -4.80477214e-01
      3.61171365e-01 1.05206072e-01 1.40997833e-02 0. 0. -4.80477214e-01
      4.05639917e-01 5.42299338e-02 2.06073746e-02 0. 0.</_>
    <_>
      6.98076904e-01 2.75000006e-01 0. 2.69230772e-02 0. 0.
      -3.01923066e-01 2.42307693e-01 3.46153863e-02 2.50000004e-02 0. 0.
      -1.28846154e-01 1.21153846e-01 7.69230770e-03 0. 0. 0.
      -1.28846154e-01 9.03846174e-02 2.50000004e-02 1.34615386e-02 0. 0.
      -1.28846154e-01 9.80769247e-02 3.07692308e-02 0. 0. 0.
      -4.57692295e-01 4.57692295e-01 0. 0. 0. 0. -4.57692295e-01
      3.11538458e-01 1.46153852e-01 0. 0. 0. -2.07692310e-01
      1.61538467e-01 4.61538471e-02 0. 0. 0. -2.07692310e-01
      1.73076928e-01 3.46153863e-02 0. 0. 0. -2.07692310e-01
      1.61538467e-01 4.61538471e-02 0. 0. 0. -3.01923066e-01
      1.65384620e-01 5.57692312e-02 8.07692334e-02 0. 0. -3.01923066e-01
      2.75000006e-01 0. 2.69230772e-02 0. 0. 8.12570155e-01
      1.47025809e-01 4.04040404e-02 0. 0. 0. -1.87429860e-01
      1.79573506e-01 7.85634108e-03 0. 0. 0. -2.04264864e-01
      1.26823798e-01 4.82603833e-02 2.91806962e-02 0. 0. -2.04264864e-01
      1.68350175e-01 3.59147042e-02 0. 0. 0. -2.04264864e-01
      1.93041533e-01 1.12233441e-02 0. 0. 0. -3.50168347e-01
      3.20987642e-01 -4.48933803e-03 3.36700343e-02 0. 0.
      -3.50168347e-01 2.28956223e-01 1.13355778e-01 7.85634108e-03 0. 0.
      -3.98428738e-01 1.77328840e-01 1.66105494e-01 1.68350171e-02
      3.81593704e-02 0. -3.98428738e-01 2.44668916e-01 1.24579124e-01
      2.91806962e-02 0. 0. -3.98428738e-01 3.47923696e-01 4.26487103e-02
      7.85634108e-03 0. 0. -1.87429860e-01 1.87429860e-01 0. 0. 0. 0.
      -1.87429860e-01 1.47025809e-01 4.04040404e-02 0. 0. 0.
      5.16765296e-01 2.82051295e-01 1.14398420e-01 2.16962527e-02
      6.50887564e-02 0. -4.83234704e-01 4.33925062e-01 3.35305706e-02
      1.57790929e-02 0. 0. -1.06508873e-01 7.69230798e-02 9.86193307e-03
      1.97238661e-02 0. 0. -1.06508873e-01 8.97435918e-02 1.67652853e-02
      0. 0. 0. -1.06508873e-01 1.02564104e-01 3.94477323e-03 0. 0. 0.
      -7.88954645e-02 7.49506876e-02 3.94477323e-03 0. 0. 0.
      -7.88954645e-02 6.80473372e-02 1.08481264e-02 0. 0. 0.
      -4.75345165e-01 3.40236694e-01 1.35108486e-01 0. 0. 0.
      -4.75345165e-01 1.80473372e-01 1.38067067e-01 1.15384616e-01
      4.14201170e-02 0. -4.75345165e-01 2.65285999e-01 1.11439839e-01
      9.86193269e-02 0. 0. -4.83234704e-01 4.08284038e-01 6.21301793e-02
      1.28205130e-02 0. 0. -4.83234704e-01 2.82051295e-01 1.14398420e-01
      2.16962527e-02 6.50887564e-02 0.</_>
    <_>
      5.61629176e-01 3.96570206e-01 2.67952848e-02 1.50053594e-02 0. 0.
      -4.38370854e-01 3.55841368e-01 8.25294778e-02 0. 0. 0.
      -1.47909969e-01 1.03965700e-01 4.39442657e-02 0. 0. 0.
      -1.47909969e-01 1.30760983e-01 0. 1.71489809e-02 0. 0.
      -1.47909969e-01 1.27545550e-01 2.03644168e-02 0. 0. 0.
      -2.82958210e-01 2.47588426e-01 2.67952848e-02 8.57449044e-03 0. 0.
      -2.82958210e-01 2.46516615e-01 2.89389063e-02 7.50267971e-03 0. 0.
      -2.58306533e-01 1.92926049e-01 5.14469445e-02 1.39335478e-02 0. 0.
      -2.58306533e-01 1.97213292e-01 6.10932484e-02 0. 0. 0.
      -2.58306533e-01 1.85423359e-01 3.21543403e-02 4.07288335e-02 0. 0.
      -4.38370854e-01 3.29046100e-01 7.50267953e-02 3.42979617e-02 0. 0.
      -4.38370854e-01 3.96570206e-01 2.67952848e-02 1.50053594e-02 0. 0.
      6.73799574e-01 2.77661800e-01 4.12317328e-02 7.30688917e-03 0. 0.
      -3.26200426e-01 2.69311070e-01 5.68893515e-02 0. 0. 0.
      -2.36430064e-01 1.44572020e-01 6.83716089e-02 2.34864298e-02 0. 0.
      -2.36430064e-01 1.80584550e-01 4.27974947e-02 4.69728606e-03
      8.35073087e-03 0. -2.36430064e-01 2.24947810e-01 1.14822546e-02 0.
      0. 0. -2.56263047e-01 2.41649270e-01 9.39457212e-03 5.21920668e-03
      0. 0. -2.56263047e-01 2.16597080e-01 3.96659710e-02 0. 0. 0.
      -3.63256782e-01 2.22860128e-01 1.29436329e-01 3.65344458e-03
      7.30688917e-03 0. -3.63256782e-01 2.28601247e-01 8.14196244e-02
      5.32359071e-02 0. 0. -3.63256782e-01 2.67223388e-01 6.21085577e-02
      6.26304792e-03 2.76617948e-02 0. -3.26200426e-01 3.13674331e-01
      1.25260958e-02 0. 0. 0. -3.26200426e-01 2.77661800e-01
      4.12317328e-02 7.30688917e-03 0. 0. 4.65977609e-01 3.64341080e-01
      4.90956083e-02 6.71834648e-02 5.34022376e-02 0. -5.34022391e-01
      4.35831189e-01 7.57967234e-02 2.23944876e-02 0. 0. -2.61843234e-01
      1.73987940e-01 6.37381598e-02 2.41171401e-02 0. 0. -2.61843234e-01
      2.08441004e-01 5.34022376e-02 0. 0. 0. -2.61843234e-01
      2.03273043e-01 5.08182608e-02 7.75193796e-03 0. 0. -1.13695092e-01
      9.73298848e-02 9.47459042e-03 6.89061172e-03 0. 0. -1.13695092e-01
      1.06804475e-01 6.89061172e-03 0. 0. 0. -3.01464260e-01
      2.75624454e-01 2.58397926e-02 0. 0. 0. -3.01464260e-01
      1.47286817e-01 4.90956083e-02 1.05081826e-01 0. 0. -3.01464260e-01
      1.34366930e-01 7.57967234e-02 5.08182608e-02 4.04823422e-02 0.
      -5.34022391e-01 4.82342809e-01 4.04823422e-02 1.11972438e-02 0. 0.
      -5.34022391e-01 3.64341080e-01 4.90956083e-02 6.71834648e-02
      5.34022376e-02 0.</_>
    <_>
      6.40892208e-01 3.03345710e-01 5.57620823e-02 0. 0. 0.
      -3.59107792e-01 2.60966539e-01 6.46840185e-02 3.34572494e-02 0. 0.
      -1.68773234e-01 1.33828998e-01 2.97397766e-02 5.20446105e-03 0. 0.
      -1.68773234e-01 1.33828998e-01 2.52788104e-02 9.66542773e-03 0. 0.
      -1.68773234e-01 1.42750934e-01 2.60223057e-02 0. 0. 0.
      -3.35315973e-01 3.08550179e-01 1.18959108e-02 5.20446105e-03
      9.66542773e-03 0. -3.35315973e-01 3.07806700e-01 2.75092945e-02 0.
      0. 0. -2.42379189e-01 1.93308547e-01 4.90706302e-02 0. 0. 0.
      -2.42379189e-01 1.50929362e-01 6.98884726e-02 2.15613376e-02 0. 0.
      -2.42379189e-01 1.91821560e-01 5.05576208e-02 0. 0. 0.
      -3.59107792e-01 3.28624547e-01 3.04832719e-02 0. 0. 0.
      -3.59107792e-01 3.03345710e-01 5.57620823e-02 0. 0. 0.
      6.97683394e-01 2.72972971e-01 2.43243240e-02 5.01930481e-03 0. 0.
      -3.02316606e-01 2.69498080e-01 3.28185335e-02 0. 0. 0.
      -2.08494201e-01 1.75289571e-01 2.81853285e-02 5.01930481e-03 0. 0.
      -2.08494201e-01 1.68339774e-01 3.47490348e-02 5.40540554e-03 0. 0.
      -2.08494201e-01 1.71042472e-01 3.74517366e-02 0. 0. 0.
      -2.10810810e-01 1.88030884e-01 2.00772192e-02 2.70270277e-03 0. 0.
      -2.10810810e-01 1.77220076e-01 3.35907340e-02 0. 0. 0.
      -4.62934375e-01 3.60617757e-01 9.65250954e-02 5.79150580e-03 0. 0.
      -4.62934375e-01 2.52123564e-01 1.08880311e-01 1.01930499e-01 0. 0.
      -4.62934375e-01 3.34362924e-01 6.71814680e-02 6.13899603e-02 0. 0.
      -3.02316606e-01 2.54826248e-01 3.93822379e-02 8.10810830e-03 0. 0.
      -3.02316606e-01 2.72972971e-01 2.43243240e-02 5.01930481e-03 0. 0.
      4.55255687e-01 4.31818187e-01 1.03693180e-01 9.23295412e-03 0. 0.
      -5.44744313e-01 4.61647719e-01 6.25000000e-02 2.05965918e-02 0. 0.
      -1.71875000e-01 8.38068202e-02 5.68181835e-02 3.12500000e-02 0. 0.
      -1.71875000e-01 1.57670453e-01 1.42045459e-02 0. 0. 0.
      -1.71875000e-01 1.64062500e-01 7.81250000e-03 0. 0. 0.
      -1.34943187e-01 1.27130687e-01 7.81250000e-03 0. 0. 0.
      -1.34943187e-01 1.15767047e-01 1.91761367e-02 0. 0. 0.
      -2.78409094e-01 2.20170453e-01 5.82386367e-02 0. 0. 0.
      -2.78409094e-01 1.93892047e-01 6.03693165e-02 2.41477266e-02 0. 0.
      -2.78409094e-01 1.51278406e-01 5.75284101e-02 6.96022734e-02 0. 0.
      -5.44744313e-01 4.41051126e-01 8.87784064e-02 1.49147725e-02 0. 0.
      -5.44744313e-01 4.31818187e-01 1.03693180e-01 9.23295412e-03 0. 0.</_>
    <_>
      6.36308432e-01 3.10868233e-01 4.37158458e-02 9.10746772e-03 0. 0.
      -3.63691568e-01 2.70795375e-01 8.50030333e-02 7.89313950e-03 0. 0.
      -2.58044928e-01 1.09289616e-01 1.10503949e-01 3.82513665e-02 0. 0.
      -2.58044928e-01 2.25865215e-01 2.79295687e-02 4.25015157e-03 0. 0.
      -2.58044928e-01 2.47115970e-01 1.09289614e-02 0. 0. 0.
      -3.12082589e-01 2.85974503e-01 2.61080749e-02 0. 0. 0.
      -3.12082589e-01 2.58044928e-01 5.40376455e-02 0. 0. 0.
      -2.02185795e-01 1.48148149e-01 4.61445041e-02 7.89313950e-03 0. 0.
      -2.02185795e-01 1.56041294e-01 3.82513665e-02 7.89313950e-03 0. 0.
      -2.02185795e-01 1.48755312e-01 5.34304790e-02 0. 0. 0.
      -3.63691568e-01 3.33940506e-01 2.97510624e-02 0. 0. 0.
      -3.63691568e-01 3.10868233e-01 4.37158458e-02 9.10746772e-03 0. 0.
      6.50896072e-01 3.11827958e-01 3.72759849e-02 0. 0. 0.
      -3.49103957e-01 3.02867383e-01 4.33691740e-02 2.86738342e-03 0. 0.
      -2.46594980e-01 1.86738357e-01 5.08960560e-02 4.30107536e-03
      4.65949811e-03 0. -2.46594980e-01 1.79569885e-01 5.87813631e-02
      8.24372750e-03 0. 0. -2.46594980e-01 1.91039428e-01 5.55555560e-02
      0. 0. 0. -2.47311831e-01 2.23297492e-01 2.11469531e-02
      2.86738342e-03 0. 0. -2.47311831e-01 2.23655909e-01 2.36559138e-02
      0. 0. 0. -3.84587824e-01 3.10394257e-01 6.95340484e-02
      4.65949811e-03 0. 0. -3.84587824e-01 2.34050184e-01 9.03225839e-02
      6.02150522e-02 0. 0. -3.84587824e-01 2.56272405e-01 8.35125446e-02
      4.48028669e-02 0. 0. -3.49103957e-01 3.02150548e-01 4.40860204e-02
      2.86738342e-03 0. 0. -3.49103957e-01 3.11827958e-01 3.72759849e-02
      0. 0. 0. 5.09933770e-01 3.92935991e-01 8.46210420e-02
      1.25091979e-02 0. 0. -4.90066230e-01 4.34878588e-01 4.56217825e-02
      9.56585724e-03 0. 0. -2.14863867e-01 1.00073583e-01 5.66593073e-02
      5.81309795e-02 0. 0. -2.14863867e-01 1.50110379e-01 5.37159666e-02
      1.10375276e-02 0. 0. -2.14863867e-01 2.02354670e-01 1.25091979e-02
      0. 0. 0. -1.17733628e-01 1.11846946e-01 5.88668138e-03 0. 0. 0.
      -1.17733628e-01 9.34510678e-02 2.42825616e-02 0. 0. 0.
      -3.77483457e-01 3.34069163e-01 3.38484198e-02 9.56585724e-03 0. 0.
      -3.77483457e-01 2.97277421e-01 6.47534952e-02 1.54525386e-02 0. 0.
      -3.77483457e-01 2.11920530e-01 7.72626922e-02 7.65268579e-02
      1.17733628e-02 0. -4.90066230e-01 3.93671811e-01 8.68285522e-02
      9.56585724e-03 0. 0. -4.90066230e-01 3.92935991e-01 8.46210420e-02
      1.25091979e-02 0. 0.</_>
    <_>
      7.32342005e-01 2.23048329e-01 1.48698883e-02 2.97397766e-02 0. 0.
      -2.67657995e-01 2.54646838e-01 1.30111529e-02 0. 0. 0.
      -1.56133831e-01 5.20446114e-02 3.53159867e-02 6.87732324e-02 0. 0.
      -1.56133831e-01 1.48698881e-01 7.43494416e-03 0. 0. 0.
      -1.56133831e-01 1.28252789e-01 2.78810412e-02 0. 0. 0.
      -4.25650567e-01 3.94052058e-01 1.30111529e-02 1.85873602e-02 0. 0.
      -4.25650567e-01 2.37918213e-01 1.87732339e-01 0. 0. 0.
      -2.95539021e-01 1.63568780e-01 1.31970257e-01 0. 0. 0.
      -2.95539021e-01 2.34200746e-01 4.46096659e-02 1.67286247e-02 0. 0.
      -2.95539021e-01 2.23048329e-01 7.24907070e-02 0. 0. 0.
      -2.67657995e-01 1.80297405e-01 6.31970242e-02 2.41635684e-02 0. 0.
      -2.67657995e-01 2.23048329e-01 1.48698883e-02 2.97397766e-02 0. 0.
      8.49150836e-01 1.32867128e-01 1.79820172e-02 0. 0. 0.
      -1.50849149e-01 1.43856138e-01 6.99300691e-03 0. 0. 0.
      -1.72827169e-01 1.22877121e-01 4.99500483e-02 0. 0. 0.
      -1.72827169e-01 1.42857149e-01 2.99700294e-02 0. 0. 0.
      -1.72827169e-01 1.65834159e-01 6.99300691e-03 0. 0. 0.
      -3.78621370e-01 3.62637371e-01 1.59840155e-02 0. 0. 0.
      -3.78621370e-01 2.68731266e-01 1.09890111e-01 0. 0. 0.
      -4.64535475e-01 2.33766228e-01 1.78821176e-01 5.19480519e-02 0. 0.
      -4.64535475e-01 2.91708291e-01 8.69130865e-02 6.49350658e-02
      2.09790207e-02 0. -4.64535475e-01 3.97602409e-01 6.69330657e-02 0.
      0. 0. -1.50849149e-01 1.50849149e-01 0. 0. 0. 0. -1.50849149e-01
      1.32867128e-01 1.79820172e-02 0. 0. 0. 5.63921571e-01
      3.23921561e-01 7.21568614e-02 3.99999991e-02 0. 0. -4.36078429e-01
      3.93725485e-01 3.21568623e-02 1.01960786e-02 0. 0. -1.36470586e-01
      9.72549021e-02 1.09803919e-02 2.82352939e-02 0. 0. -1.36470586e-01
      1.17647059e-01 1.88235287e-02 0. 0. 0. -1.36470586e-01
      1.18431374e-01 1.80392154e-02 0. 0. 0. -1.24705881e-01
      1.21568628e-01 3.13725485e-03 0. 0. 0. -1.24705881e-01
      1.21568628e-01 3.13725485e-03 0. 0. 0. -4.39215690e-01
      3.09803933e-01 1.29411772e-01 0. 0. 0. -4.39215690e-01
      2.00784311e-01 1.45882353e-01 5.09803928e-02 4.15686257e-02 0.
      -4.39215690e-01 2.52549022e-01 1.01960786e-01 6.43137246e-02
      -7.05882348e-03 2.74509806e-02 -4.36078429e-01 3.80392164e-01
      4.54901978e-02 1.01960786e-02 0. 0. -4.36078429e-01 3.23921561e-01
      7.21568614e-02 3.99999991e-02 0. 0.</_>
    <_>
      6.95306838e-01 2.75090247e-01 2.96028890e-02 0. 0. 0.
      -3.04693133e-01 2.68592060e-01 3.61010842e-02 0. 0. 0.
      -2.31768951e-01 1.68953076e-01 5.34296036e-02 9.38628148e-03 0. 0.
      -2.31768951e-01 1.93501800e-01 2.88808662e-02 9.38628148e-03 0. 0.
      -2.31768951e-01 1.92779779e-01 3.89891714e-02 0. 0. 0.
      -3.62454861e-01 3.05415154e-01 4.18772548e-02 1.51624549e-02 0. 0.
      -3.62454861e-01 2.99638987e-01 6.28158823e-02 0. 0. 0.
      -2.50541508e-01 2.28158846e-01 1.44404336e-03 2.09386274e-02 0. 0.
      -2.50541508e-01 1.75451264e-01 7.50902519e-02 0. 0. 0.
      -2.50541508e-01 1.90613717e-01 5.99277988e-02 0. 0. 0.
      -3.04693133e-01 2.75090247e-01 2.96028890e-02 0. 0. 0.
      -3.04693133e-01 2.75090247e-01 2.96028890e-02 0. 0. 0.
      6.84294879e-01 2.99278855e-01 1.64262820e-02 0. 0. 0.
      -3.15705121e-01 2.80048072e-01 3.56570520e-02 0. 0. 0.
      -2.04727560e-01 1.73076928e-01 2.88461540e-02 2.80448725e-03 0. 0.
      -2.04727560e-01 1.64262816e-01 3.52564119e-02 5.20833349e-03 0. 0.
      -2.04727560e-01 1.88301280e-01 1.64262820e-02 0. 0. 0.
      -2.76842952e-01 2.55608976e-01 1.52243590e-02 6.00961549e-03 0. 0.
      -2.76842952e-01 2.32371792e-01 4.44711521e-02 0. 0. 0.
      -3.95833343e-01 3.25721145e-01 7.01121762e-02 0. 0. 0.
      -3.95833343e-01 2.74439096e-01 9.77564082e-02 2.36378200e-02 0. 0.
      -3.95833343e-01 2.47996792e-01 9.05448720e-02 5.72916679e-02 0. 0.
      -3.15705121e-01 2.56810904e-01 5.56891039e-02 3.20512825e-03 0. 0.
      -3.15705121e-01 2.99278855e-01 1.64262820e-02 0. 0. 0.
      5.26315808e-01 4.01913881e-01 6.22009560e-02 9.56937764e-03 0. 0.
      -4.73684222e-01 3.86876285e-01 7.79220760e-02 8.88585113e-03 0. 0.
      -1.91387564e-01 7.79220760e-02 5.60492128e-02 5.74162677e-02 0. 0.
      -1.91387564e-01 1.41490087e-01 4.51127812e-02 4.78468882e-03 0. 0.
      -1.91387564e-01 1.69514701e-01 2.18728632e-02 0. 0. 0.
      -1.16199590e-01 1.00478470e-01 1.57211218e-02 0. 0. 0.
      -1.16199590e-01 9.22761485e-02 2.39234455e-02 0. 0. 0.
      -3.29460025e-01 2.74777859e-01 4.57963087e-02 8.88585113e-03 0. 0.
      -3.29460025e-01 2.07792208e-01 8.61244053e-02 3.55434045e-02 0. 0.
      -3.29460025e-01 1.92754611e-01 9.09090936e-02 3.69104594e-02
      8.88585113e-03 0. -4.73684222e-01 3.65686953e-01 7.72385523e-02
      3.07587143e-02 0. 0. -4.73684222e-01 4.01913881e-01 6.22009560e-02
      9.56937764e-03 0. 0.</_>
    <_>
      6.62384033e-01 3.06923628e-01 3.06923632e-02 0. 0. 0.
      -3.37615997e-01 2.94075668e-01 3.78301218e-02 5.71020693e-03 0. 0.
      -1.75588861e-01 1.16345465e-01 4.06852253e-02 1.85581725e-02 0. 0.
      -1.75588861e-01 1.52034268e-01 2.35546045e-02 0. 0. 0.
      -1.75588861e-01 1.67737335e-01 7.85153452e-03 0. 0. 0.
      -3.61884356e-01 3.26195568e-01 2.99785864e-02 5.71020693e-03 0. 0.
      -3.61884356e-01 2.87651688e-01 7.42326900e-02 0. 0. 0.
      -2.76945025e-01 2.21984297e-01 4.56816554e-02 9.27908625e-03 0. 0.
      -2.76945025e-01 2.07708776e-01 5.99571727e-02 9.27908625e-03 0. 0.
      -2.76945025e-01 1.67023554e-01 7.20913634e-02 3.78301218e-02 0. 0.
      -3.37615997e-01 3.07637393e-01 2.99785864e-02 0. 0. 0.
      -3.37615997e-01 3.06923628e-01 3.06923632e-02 0. 0. 0.
      7.22264409e-01 2.55319148e-01 2.24164128e-02 0. 0. 0.
      -2.77735561e-01 2.46960491e-01 3.07750758e-02 0. 0. 0.
      -2.25303948e-01 1.84650451e-01 2.58358661e-02 1.48176290e-02 0. 0.
      -2.25303948e-01 1.88449845e-01 3.68541032e-02 0. 0. 0.
      -2.25303948e-01 1.96048632e-01 2.92553194e-02 0. 0. 0.
      -2.88373858e-01 2.71276593e-01 1.25379935e-02 4.55927057e-03 0. 0.
      -2.88373858e-01 2.52279639e-01 3.30547094e-02 3.03951371e-03 0. 0.
      -3.79179329e-01 2.95592695e-01 8.35866258e-02 0. 0. 0.
      -3.79179329e-01 2.15425536e-01 9.04255286e-02 7.33282641e-02 0. 0.
      -3.79179329e-01 2.60638297e-01 7.75076002e-02 4.10334356e-02 0. 0.
      -2.77735561e-01 2.50759870e-01 2.69756839e-02 0. 0. 0.
      -2.77735561e-01 2.55319148e-01 2.24164128e-02 0. 0. 0.
      4.98369217e-01 4.09654260e-01 6.52315691e-02 8.48010462e-03
      1.82648394e-02 0. -5.01630783e-01 4.27266806e-01 7.43639916e-02 0.
      0. 0. -2.79191136e-01 1.05675146e-01 8.93672556e-02 6.39269426e-02
      2.02217866e-02 0. -2.79191136e-01 2.15264186e-01 6.39269426e-02 0.
      0. 0. -2.79191136e-01 2.68754065e-01 5.21852588e-03 5.21852588e-03
      0. 0. -1.14155248e-01 1.02413565e-01 1.17416829e-02 0. 0. 0.
      -1.14155248e-01 1.03065886e-01 1.10893669e-02 0. 0. 0.
      -2.60926276e-01 1.93085447e-01 5.93607314e-02 8.48010462e-03 0. 0.
      -2.60926276e-01 1.83953032e-01 5.15329428e-02 1.43509461e-02
      1.10893669e-02 0. -2.60926276e-01 1.31115466e-01 9.00195688e-02
      1.50032612e-02 2.47879978e-02 0. -5.01630783e-01 3.91389430e-01
      7.56686255e-02 3.45727317e-02 0. 0. -5.01630783e-01 4.09654260e-01
      6.52315691e-02 8.48010462e-03 1.82648394e-02 0.</_>
    <_>
      6.39032841e-01 2.85837650e-01 5.52677028e-02 1.98618304e-02 0. 0.
      -3.60967189e-01 2.96200335e-01 6.47668391e-02 0. 0. 0.
      -1.70984462e-01 1.16580307e-01 3.28151993e-02 2.15889458e-02 0. 0.
      -1.70984462e-01 1.45941272e-01 2.50431783e-02 0. 0. 0.
      -1.70984462e-01 1.61485314e-01 9.49913636e-03 0. 0. 0.
      -3.34196895e-01 3.08290154e-01 1.20898103e-02 1.38169257e-02 0. 0.
      -3.34196895e-01 2.57340252e-01 6.73575103e-02 9.49913636e-03 0. 0.
      -2.22797930e-01 1.42487049e-01 6.30397201e-02 1.72711574e-02 0. 0.
      -2.22797930e-01 1.98618308e-01 2.41796207e-02 0. 0. 0.
      -2.22797930e-01 2.04663217e-01 1.81347150e-02 0. 0. 0.
      -3.60967189e-01 3.08290154e-01 5.26770279e-02 0. 0. 0.
      -3.60967189e-01 2.85837650e-01 5.52677028e-02 1.98618304e-02 0. 0.
      7.12328792e-01 2.42465749e-01 3.63013707e-02 8.90410971e-03 0. 0.
      -2.87671238e-01 2.72602737e-01 1.50684929e-02 0. 0. 0.
      -1.15068495e-01 7.53424689e-02 3.97260264e-02 0. 0. 0.
      -1.15068495e-01 8.97260308e-02 2.53424663e-02 0. 0. 0.
      -1.15068495e-01 9.58904102e-02 1.91780813e-02 0. 0. 0.
      -3.49999994e-01 3.46575350e-01 -5.47945220e-03 8.90410971e-03 0.
      0. -3.49999994e-01 3.10958892e-01 3.90410945e-02 0. 0. 0.
      -4.21232879e-01 3.16438347e-01 1.04794517e-01 0. 0. 0.
      -4.21232879e-01 3.01369876e-01 1.01369865e-01 1.84931513e-02 0. 0.
      -4.21232879e-01 2.73287684e-01 8.08219165e-02 3.90410945e-02
      1.09589044e-02 1.71232875e-02 -2.87671238e-01 2.54794508e-01
      3.28767113e-02 0. 0. 0. -2.87671238e-01 2.42465749e-01
      3.63013707e-02 8.90410971e-03 0. 0. 5.90288341e-01 3.61911982e-01
      2.65553873e-02 2.12443098e-02 0. 0. -4.09711689e-01 3.37632775e-01
      7.20789060e-02 0. 0. 0. -2.79210925e-01 9.48406681e-02
      8.57359618e-02 7.73899853e-02 2.12443098e-02 0. -2.79210925e-01
      2.55690426e-01 2.35204864e-02 0. 0. 0. -2.79210925e-01
      2.73899853e-01 5.31107746e-03 0. 0. 0. -1.24430954e-01
      1.21396057e-01 3.03490134e-03 0. 0. 0. -1.24430954e-01
      1.10773899e-01 1.36570558e-02 0. 0. 0. -3.13353568e-01
      2.76934743e-01 3.64188179e-02 0. 0. 0. -3.13353568e-01
      1.69954479e-01 7.51138106e-02 5.53869493e-02 1.28983306e-02 0.
      -3.13353568e-01 2.19271630e-01 6.14567511e-02 3.26251909e-02 0. 0.
      -4.09711689e-01 3.49013656e-01 5.08345962e-02 9.86342970e-03 0. 0.
      -4.09711689e-01 3.61911982e-01 2.65553873e-02 2.12443098e-02 0. 0.</_>
    <_>
      7.24264681e-01 2.36519605e-01 1.71568636e-02 2.20588241e-02 0. 0.
      -2.75735289e-01 2.18137249e-01 5.75980395e-02 0. 0. 0.
      -1.40931368e-01 1.11519605e-01 2.94117648e-02 0. 0. 0.
      -1.40931368e-01 1.31127447e-01 9.80392192e-03 0. 0. 0.
      -1.40931368e-01 1.40931368e-01 0. 0. 0. 0. -4.25245106e-01
      4.06862736e-01 1.83823537e-02 0. 0. 0. -4.25245106e-01
      3.75000000e-01 5.02450988e-02 0. 0. 0. -1.92401960e-01
      1.64215684e-01 2.81862747e-02 0. 0. 0. -1.92401960e-01
      1.70343131e-01 2.20588241e-02 0. 0. 0. -1.92401960e-01
      1.67892158e-01 2.45098043e-02 0. 0. 0. -2.75735289e-01
      2.24264711e-01 1.96078438e-02 3.18627469e-02 0. 0. -2.75735289e-01
      2.36519605e-01 1.71568636e-02 2.20588241e-02 0. 0. 8.08188021e-01
      1.72100082e-01 1.97119024e-02 0. 0. 0. -1.91811979e-01
      1.86504930e-01 5.30705089e-03 0. 0. 0. -1.40257776e-01
      1.07657313e-01 2.27445029e-02 9.85595118e-03 0. 0. -1.40257776e-01
      1.27369225e-01 1.28885517e-02 0. 0. 0. -1.40257776e-01
      1.31918117e-01 8.33965093e-03 0. 0. 0. -4.50341165e-01
      4.21531469e-01 1.36467023e-02 1.51630025e-02 0. 0. -4.50341165e-01
      2.85064429e-01 1.65276721e-01 0. 0. 0. -3.32069755e-01
      1.82714179e-01 1.09931767e-01 3.94238047e-02 0. 0. -3.32069755e-01
      2.37300992e-01 4.01819572e-02 5.45868091e-02 0. 0. -3.32069755e-01
      2.85064429e-01 2.35026535e-02 2.35026535e-02 0. 0. -1.91811979e-01
      1.69825628e-01 2.19863541e-02 0. 0. 0. -1.91811979e-01
      1.72100082e-01 1.97119024e-02 0. 0. 0. 5.96787810e-01
      2.80642420e-01 8.45308527e-02 1.35249365e-02 2.45139468e-02 0.
      -4.03212160e-01 3.65173280e-01 3.80388834e-02 0. 0. 0.
      -8.03043097e-02 7.01606050e-02 1.01437028e-02 0. 0. 0.
      -8.03043097e-02 6.59340695e-02 1.43702449e-02 0. 0. 0.
      -8.03043097e-02 7.26965368e-02 7.60777667e-03 0. 0. 0.
      -1.59763306e-01 1.56382084e-01 3.38123413e-03 0. 0. 0.
      -1.59763306e-01 1.56382084e-01 3.38123413e-03 0. 0. 0.
      -4.45477605e-01 2.49366015e-01 1.96111575e-01 0. 0. 0.
      -4.45477605e-01 1.96111575e-01 1.31868139e-01 8.11496228e-02
      3.63482684e-02 0. -4.45477605e-01 2.75570571e-01 1.06508873e-01
      6.33981377e-02 0. 0. -4.03212160e-01 3.50803047e-01 3.04311067e-02
      2.19780225e-02 0. 0. -4.03212160e-01 2.80642420e-01 8.45308527e-02
      1.35249365e-02 2.45139468e-02 0.</_>
    <_>
      7.34133780e-01 2.13550597e-01 2.48713549e-02 2.74442546e-02 0. 0.
      -2.65866220e-01 2.46140659e-01 8.57632887e-03 1.11492286e-02 0. 0.
      -2.06689537e-01 1.26929671e-01 7.37564340e-02 6.00343058e-03 0. 0.
      -2.06689537e-01 1.92109779e-01 1.45797599e-02 0. 0. 0.
      -2.06689537e-01 1.93825036e-01 6.86106365e-03 6.00343058e-03 0. 0.
      -3.13036025e-01 2.75300175e-01 3.77358496e-02 0. 0. 0.
      -3.13036025e-01 2.70154387e-01 4.28816453e-02 0. 0. 0.
      -2.77015448e-01 2.16981128e-01 6.00343049e-02 0. 0. 0.
      -2.77015448e-01 2.28987992e-01 4.80274446e-02 0. 0. 0.
      -2.77015448e-01 2.40994856e-01 3.60205844e-02 0. 0. 0.
      -2.65866220e-01 2.59862781e-01 6.00343058e-03 0. 0. 0.
      -2.65866220e-01 2.13550597e-01 2.48713549e-02 2.74442546e-02 0. 0.
      6.87985361e-01 2.94655085e-01 1.00502511e-02 7.30927382e-03 0. 0.
      -3.12014610e-01 2.51713097e-01 4.84239385e-02 1.18775694e-02 0. 0.
      -2.42119685e-01 1.61260843e-01 5.66468723e-02 2.42119692e-02 0. 0.
      -2.42119685e-01 1.77706718e-01 5.52763827e-02 9.13659204e-03 0. 0.
      -2.42119685e-01 2.27957979e-01 1.41617181e-02 0. 0. 0.
      -2.38465056e-01 2.31612608e-01 6.85244426e-03 0. 0. 0.
      -2.38465056e-01 1.98264048e-01 3.38053890e-02 6.39561424e-03 0. 0.
      -3.80082220e-01 2.84604847e-01 7.17222467e-02 1.55322067e-02
      8.22293293e-03 0. -3.80082220e-01 2.58565545e-01 8.72544572e-02
      3.42622213e-02 0. 0. -3.80082220e-01 2.72270441e-01 6.94380999e-02
      3.83736864e-02 0. 0. -3.12014610e-01 2.65874833e-01 4.02010046e-02
      5.93878468e-03 0. 0. -3.12014610e-01 2.94655085e-01 1.00502511e-02
      7.30927382e-03 0. 0. 5.62036037e-01 3.53128314e-01 5.40827140e-02
      3.07529159e-02 0. 0. -4.37963933e-01 3.86002123e-01 3.81760336e-02
      1.37857897e-02 0. 0. -1.82396606e-01 1.17709436e-01 3.71155888e-02
      2.75715794e-02 0. 0. -1.82396606e-01 1.53764576e-01 2.86320262e-02
      0. 0. 0. -1.82396606e-01 1.55885473e-01 2.65111346e-02 0. 0. 0.
      -1.13467656e-01 1.13467656e-01 0. 0. 0. 0. -1.13467656e-01
      8.48356336e-02 2.86320262e-02 0. 0. 0. -3.53128314e-01
      2.95864254e-01 5.72640523e-02 0. 0. 0. -3.53128314e-01
      2.05726400e-01 7.63520673e-02 7.10498393e-02 0. 0. -3.53128314e-01
      2.49204665e-01 8.58960748e-02 1.80275720e-02 0. 0. -4.37963933e-01
      3.48886520e-01 8.90774131e-02 0. 0. 0. -4.37963933e-01
      3.53128314e-01 5.40827140e-02 3.07529159e-02 0. 0.</_>
    <_>
      5.46145499e-01 3.43105316e-01 9.55483168e-02 1.52008682e-02 0. 0.
      -4.53854501e-01 3.66992414e-01 7.27470145e-02 1.41150923e-02 0. 0.
      -2.54071653e-01 1.94353968e-01 5.97176999e-02 0. 0. 0.
      -2.54071653e-01 1.62866443e-01 9.12052095e-02 0. 0. 0.
      -2.54071653e-01 2.23669931e-01 3.04017365e-02 0. 0. 0.
      -1.85667753e-01 1.76981539e-01 8.68621096e-03 0. 0. 0.
      -1.85667753e-01 1.73724219e-01 1.19435396e-02 0. 0. 0.
      -2.39956573e-01 2.09554836e-01 2.28013024e-02 7.60043412e-03 0. 0.
      -2.39956573e-01 1.67209551e-01 7.27470145e-02 0. 0. 0.
      -2.39956573e-01 1.72638431e-01 5.97176999e-02 7.60043412e-03 0. 0.
      -4.53854501e-01 4.24538553e-01 2.93159615e-02 0. 0. 0.
      -4.53854501e-01 3.43105316e-01 9.55483168e-02 1.52008682e-02 0. 0.
      6.92133129e-01 2.93494701e-01 1.43721635e-02 0. 0. 0.
      -3.07866871e-01 2.69288957e-01 3.02571859e-02 8.32072645e-03 0. 0.
      -2.24659607e-01 1.61119521e-01 2.11800300e-02 2.34493185e-02
      1.89107414e-02 0. -2.24659607e-01 1.61119521e-01 5.29500768e-02
      1.05900150e-02 0. 0. -2.24659607e-01 1.69440240e-01 4.53857780e-02
      9.83358547e-03 0. 0. -2.51134634e-01 2.24659607e-01 2.64750384e-02
      0. 0. 0. -2.51134634e-01 1.96671709e-01 4.68986370e-02
      7.56429648e-03 0. 0. -4.46293503e-01 3.85779113e-01 4.08472009e-02
      1.96671709e-02 0. 0. -4.46293503e-01 2.92738289e-01 8.54765475e-02
      6.80786669e-02 0. 0. -4.46293503e-01 1.86838120e-01 9.83358547e-02
      6.27836585e-02 7.94251114e-02 1.89107414e-02 -3.07866871e-01
      2.69288957e-01 3.85779105e-02 0. 0. 0. -3.07866871e-01
      2.93494701e-01 1.43721635e-02 0. 0. 0. 3.89207810e-01
      4.19058561e-01 7.92192891e-02 0. 1.12514354e-01 0. -6.10792220e-01
      5.40757775e-01 5.51090688e-02 1.49253728e-02 0. 0. -1.77956372e-01
      7.57749677e-02 8.72560292e-02 1.49253728e-02 0. 0. -1.77956372e-01
      1.30884036e-01 4.70723324e-02 0. 0. 0. -1.77956372e-01
      1.69919640e-01 8.03673919e-03 0. 0. 0. -5.16647547e-02
      4.36280146e-02 8.03673919e-03 0. 0. 0. -5.16647547e-02
      5.16647547e-02 0. 0. 0. 0. -3.19173366e-01 2.90470719e-01
      2.87026409e-02 0. 0. 0. -3.19173366e-01 1.58438578e-01
      5.51090688e-02 1.05625719e-01 0. 0. -3.19173366e-01 8.95522386e-02
      1.11366242e-01 9.29965526e-02 2.52583232e-02 0. -6.10792220e-01
      4.63834673e-01 1.06773823e-01 4.01836969e-02 0. 0. -6.10792220e-01
      4.19058561e-01 7.92192891e-02 0. 1.12514354e-01 0.</_>
    <_>
      4.65949833e-01 4.31899637e-01 6.81003556e-02 3.40501778e-02 0. 0.
      -5.34050167e-01 4.28315401e-01 1.05734766e-01 0. 0. 0.
      -2.68817216e-01 1.34408608e-01 1.05734766e-01 2.86738351e-02 0. 0.
      -2.68817216e-01 2.41935477e-01 2.68817209e-02 0. 0. 0.
      -2.68817216e-01 2.50896066e-01 1.79211479e-02 0. 0. 0.
      -2.27598563e-01 1.84587806e-01 4.30107526e-02 0. 0. 0.
      -2.27598563e-01 2.06093192e-01 2.15053763e-02 0. 0. 0.
      -2.22222224e-01 2.15053767e-01 7.16845877e-03 0. 0. 0.
      -2.22222224e-01 2.15053767e-01 7.16845877e-03 0. 0. 0.
      -2.22222224e-01 1.23655915e-01 9.85663086e-02 0. 0. 0.
      -5.34050167e-01 4.96415764e-01 3.76344100e-02 0. 0. 0.
      -5.34050167e-01 4.31899637e-01 6.81003556e-02 3.40501778e-02 0. 0.
      5.13499975e-01 3.67000014e-01 7.75000006e-02 4.19999994e-02 0. 0.
      -4.86499995e-01 4.58000004e-01 2.85000000e-02 0. 0. 0.
      -9.44999978e-02 7.75000006e-02 1.70000009e-02 0. 0. 0.
      -9.44999978e-02 8.85000005e-02 6.00000005e-03 0. 0. 0.
      -9.44999978e-02 7.90000036e-02 1.20000001e-02 3.50000011e-03 0. 0.
      -1.49000004e-01 1.37500003e-01 7.49999983e-03 4.00000019e-03 0. 0.
      -1.49000004e-01 1.40000001e-01 8.99999961e-03 0. 0. 0.
      -4.26999986e-01 3.78500015e-01 4.50000018e-02 3.50000011e-03 0. 0.
      -4.26999986e-01 2.31000006e-01 1.58500001e-01 3.75000015e-02 0. 0.
      -4.26999986e-01 2.09500000e-01 1.63499996e-01 4.14999984e-02
      1.25000002e-02 0. -4.86499995e-01 3.82999986e-01 8.90000015e-02
      1.44999996e-02 0. 0. -4.86499995e-01 3.67000014e-01 7.75000006e-02
      4.19999994e-02 0. 0. 5.12096763e-01 3.91129047e-01 5.64516112e-02
      4.03225794e-02 0. 0. -4.87903237e-01 3.91129047e-01 9.67741907e-02
      0. 0. 0. -3.24596763e-01 1.43145159e-01 8.06451589e-02
      1.00806452e-01 0. 0. -3.24596763e-01 1.49193555e-01 1.00806452e-01
      7.45967776e-02 0. 0. -3.24596763e-01 2.29838714e-01 9.47580636e-02
      0. 0. 0. -1.87500000e-01 1.51209682e-01 3.62903215e-02 0. 0. 0.
      -1.87500000e-01 1.87500000e-01 -3.42741944e-02 3.42741944e-02 0.
      0. -2.45967746e-01 2.19758064e-01 2.62096766e-02 0. 0. 0.
      -2.45967746e-01 1.63306445e-01 5.84677421e-02 2.41935477e-02 0. 0.
      -2.45967746e-01 6.25000000e-02 5.04032262e-02 1.06854841e-01
      2.62096766e-02 0. -4.87903237e-01 3.81048381e-01 9.07258093e-02
      1.61290318e-02 0. 0. -4.87903237e-01 3.91129047e-01 5.64516112e-02
      4.03225794e-02 0. 0.</_>
    <_>
      5.28907895e-01 3.81156325e-01 5.56745194e-02 3.42612416e-02 0. 0.
      -4.71092075e-01 4.08993572e-01 6.20984994e-02 0. 0. 0.
      -1.56316921e-01 1.15631692e-01 4.06852253e-02 0. 0. 0.
      -1.56316921e-01 1.22055672e-01 3.42612416e-02 0. 0. 0.
      -1.56316921e-01 1.34903640e-01 2.14132760e-02 0. 0. 0.
      -1.94860816e-01 1.86295509e-01 8.56531039e-03 0. 0. 0.
      -1.94860816e-01 1.54175594e-01 2.35546045e-02 1.71306208e-02 0. 0.
      -3.61884356e-01 3.21199149e-01 1.92719493e-02 2.14132760e-02 0. 0.
      -3.61884356e-01 2.99785852e-01 6.20984994e-02 0. 0. 0.
      -3.61884356e-01 1.75588861e-01 6.63811564e-02 7.92291239e-02
      4.06852253e-02 0. -4.71092075e-01 3.94004285e-01 7.70877972e-02 0.
      0. 0. -4.71092075e-01 3.81156325e-01 5.56745194e-02 3.42612416e-02
      0. 0. 5.88277340e-01 2.82344520e-01 7.21944273e-02 5.71837015e-02
      0. 0. -4.11722660e-01 4.01715517e-01 1.00071477e-02 0. 0. 0.
      -1.03645459e-01 9.43531096e-02 9.29235201e-03 0. 0. 0.
      -1.03645459e-01 9.86418873e-02 5.00357384e-03 0. 0. 0.
      -1.03645459e-01 1.03645459e-01 0. 0. 0. 0. -2.12294489e-01
      2.05861330e-01 6.43316656e-03 0. 0. 0. -2.12294489e-01
      1.63688347e-01 4.86061461e-02 0. 0. 0. -4.13867056e-01
      3.40243042e-01 6.79056495e-02 5.71837043e-03 0. 0. -4.13867056e-01
      2.43745536e-01 9.64974985e-02 3.64546105e-02 3.71694081e-02 0.
      -4.13867056e-01 2.40171552e-01 1.17941387e-01 5.57541102e-02 0. 0.
      -4.11722660e-01 3.37383837e-01 6.86204433e-02 5.71837043e-03 0. 0.
      -4.11722660e-01 2.82344520e-01 7.21944273e-02 5.71837015e-02 0. 0.
      3.61842096e-01 5.52631557e-01 8.55263174e-02 0. 0. 0.
      -6.38157904e-01 4.86842096e-01 1.33771926e-01 1.75438598e-02 0. 0.
      -2.08333328e-01 1.05263159e-01 5.04385978e-02 5.26315793e-02 0. 0.
      -2.08333328e-01 1.53508767e-01 2.41228063e-02 3.07017546e-02 0. 0.
      -2.08333328e-01 1.79824561e-01 2.85087712e-02 0. 0. 0.
      -7.89473653e-02 7.89473653e-02 0. 0. 0. 0. -7.89473653e-02
      7.89473653e-02 0. 0. 0. 0. -2.65350878e-01 2.43421048e-01
      2.19298247e-02 0. 0. 0. -2.65350878e-01 1.55701756e-01
      4.16666679e-02 6.79824576e-02 0. 0. -2.65350878e-01 8.55263174e-02
      5.48245609e-02 1.25000000e-01 0. 0. -6.38157904e-01 5.50438583e-01
      8.77192989e-02 0. 0. 0. -6.38157904e-01 5.52631557e-01
      8.55263174e-02 0. 0. 0.</_>
    <_>
      5.97670257e-01 3.01971316e-01 8.69175643e-02 1.34408604e-02 0. 0.
      -4.02329743e-01 2.26702511e-01 1.63978487e-01 1.16487453e-02 0. 0.
      -3.27060938e-01 6.63082451e-02 1.88172042e-01 7.25806430e-02 0. 0.
      -3.27060938e-01 2.67025083e-01 5.37634417e-02 6.27240166e-03 0. 0.
      -3.27060938e-01 3.27060938e-01 0. 0. 0. 0. -8.15412179e-02
      7.52688199e-02 6.27240166e-03 0. 0. 0. -8.15412179e-02
      7.79569894e-02 -2.68817204e-03 6.27240166e-03 0. 0.
      -2.00716853e-01 1.50537640e-01 5.01792133e-02 0. 0. 0.
      -2.00716853e-01 1.33512542e-01 4.48028669e-02 7.16845877e-03
      1.52329747e-02 0. -2.00716853e-01 7.88530484e-02 3.58422957e-02
      4.03225794e-02 4.56989259e-02 0. -4.02329743e-01 3.78136188e-01
      2.41935477e-02 0. 0. 0. -4.02329743e-01 3.01971316e-01
      8.69175643e-02 1.34408604e-02 0. 0. 7.15355814e-01 2.54681647e-01
      2.99625471e-02 0. 0. 0. -2.84644186e-01 2.05243438e-01
      7.94007480e-02 0. 0. 0. -1.96254686e-01 5.91760315e-02
      6.44194782e-02 4.19475660e-02 3.07116099e-02 0. -1.96254686e-01
      1.44569293e-01 2.69662924e-02 2.47191004e-02 0. 0. -1.96254686e-01
      1.84269667e-01 1.19850188e-02 0. 0. 0. -2.76404500e-01
      2.76404500e-01 0. 0. 0. 0. -2.76404500e-01 2.36704126e-01
      3.97003740e-02 0. 0. 0. -4.62921351e-01 1.97003752e-01
      2.45692879e-01 2.02247184e-02 0. 0. -4.62921351e-01 1.76029965e-01
      9.66292098e-02 5.99250942e-02 9.36329588e-02 3.67041193e-02
      -4.62921351e-01 3.97752821e-01 6.51685372e-02 0. 0. 0.
      -2.84644186e-01 2.84644186e-01 0. 0. 0. 0. -2.84644186e-01
      2.54681647e-01 2.99625471e-02 0. 0. 0. 5.06666660e-01
      3.54285717e-01 8.76190513e-02 0. 5.14285713e-02 0. -4.93333340e-01
      4.17142868e-01 7.61904791e-02 0. 0. 0. -2.57142872e-01
      1.18095241e-01 1.39047623e-01 0. 0. 0. -2.57142872e-01
      1.71428576e-01 5.33333346e-02 3.23809534e-02 0. 0. -2.57142872e-01
      2.09523812e-01 4.76190485e-02 0. 0. 0. -1.50476187e-01
      1.06666669e-01 2.85714287e-02 1.52380951e-02 0. 0. -1.50476187e-01
      1.02857143e-01 4.76190485e-02 0. 0. 0. -2.72380948e-01
      2.38095239e-01 3.42857130e-02 0. 0. 0. -2.72380948e-01
      1.02857143e-01 3.61904763e-02 6.47619069e-02 6.85714260e-02 0.
      -2.72380948e-01 1.52380958e-01 2.47619040e-02 9.52380970e-02 0. 0.
      -4.93333340e-01 4.22857136e-01 7.04761893e-02 0. 0. 0.
      -4.93333340e-01 3.54285717e-01 8.76190513e-02 0. 5.14285713e-02 0.</_>
    <_>
      5.12359560e-01 3.77528101e-01 1.10112362e-01 0. 0. 0.
      -4.87640440e-01 3.20224732e-01 9.43820253e-02 7.30337054e-02 0. 0.
      -2.85393268e-01 1.68539323e-02 2.20224723e-01 4.83146049e-02 0. 0.
      -2.85393268e-01 2.79775292e-01 5.61797759e-03 0. 0. 0.
      -2.85393268e-01 2.77528077e-01 7.86516815e-03 0. 0. 0.
      -6.74157292e-02 6.74157292e-02 0. 0. 0. 0. -6.74157292e-02
      5.84269650e-02 8.98876414e-03 0. 0. 0. -1.46067411e-01
      1.10112362e-01 3.59550565e-02 0. 0. 0. -1.46067411e-01
      1.28089890e-01 1.79775283e-02 0. 0. 0. -1.46067411e-01
      7.52808973e-02 2.47191004e-02 1.79775283e-02 2.80898884e-02 0.
      -4.87640440e-01 4.49438214e-01 3.82022485e-02 0. 0. 0.
      -4.87640440e-01 3.77528101e-01 1.10112362e-01 0. 0. 0.
      6.35078549e-01 3.19895297e-01 4.50261794e-02 0. 0. 0.
      -3.64921480e-01 2.60209411e-01 9.10994783e-02 1.36125656e-02 0. 0.
      -2.47643977e-01 7.06806257e-02 1.06282726e-01 7.06806257e-02 0. 0.
      -2.47643977e-01 1.88481674e-01 4.45026197e-02 1.46596860e-02 0. 0.
      -2.47643977e-01 2.44502619e-01 3.14136129e-03 0. 0. 0.
      -1.74869105e-01 1.74869105e-01 -3.66492150e-03 3.66492150e-03 0.
      0. -1.74869105e-01 1.51832461e-01 2.30366495e-02 0. 0. 0.
      -3.53403151e-01 2.24607334e-01 1.24607332e-01 4.18848172e-03 0. 0.
      -3.53403151e-01 1.46596864e-01 7.22513124e-02 1.18324608e-01
      1.62303671e-02 0. -3.53403151e-01 2.58638740e-01 7.01570660e-02
      1.15183247e-02 1.30890049e-02 0. -3.64921480e-01 3.43979061e-01
      2.09424086e-02 0. 0. 0. -3.64921480e-01 3.19895297e-01
      4.50261794e-02 0. 0. 0. 3.85761589e-01 4.61920530e-01
      5.96026480e-02 9.27152336e-02 0. 0. -6.14238381e-01 4.43708599e-01
      1.49006620e-01 2.15231795e-02 0. 0. -3.04635763e-01 8.60927179e-02
      1.62251651e-01 5.62913902e-02 0. 0. -3.04635763e-01 2.54966885e-01
      4.96688746e-02 0. 0. 0. -3.04635763e-01 2.83112586e-01
      2.15231795e-02 0. 0. 0. -7.28476793e-02 5.79470210e-02
      1.49006620e-02 0. 0. 0. -7.28476793e-02 6.62251636e-02
      6.62251655e-03 0. 0. 0. -1.62251651e-01 1.30794704e-01
      3.14569548e-02 0. 0. 0. -1.62251651e-01 9.60264876e-02
      8.27814545e-03 3.64238396e-02 2.15231795e-02 0. -1.62251651e-01
      6.12582788e-02 4.47019860e-02 5.62913902e-02 0. 0. -6.14238381e-01
      5.33112586e-01 8.11258256e-02 0. 0. 0. -6.14238381e-01
      4.61920530e-01 5.96026480e-02 9.27152336e-02 0. 0.</_>
    <_>
      4.95708168e-01 3.94849777e-01 1.09442063e-01 0. 0. 0.
      -5.04291832e-01 4.57081556e-01 4.72103022e-02 0. 0. 0.
      -1.50214598e-01 6.86695278e-02 8.15450624e-02 0. 0. 0.
      -1.50214598e-01 7.51072988e-02 7.51072988e-02 0. 0. 0.
      -1.50214598e-01 1.35193139e-01 1.50214592e-02 0. 0. 0.
      -1.37339056e-01 1.37339056e-01 -1.50214592e-02 1.50214592e-02 0.
      0. -1.37339056e-01 1.18025750e-01 1.93133056e-02 0. 0. 0.
      -4.03433472e-01 2.85407722e-01 1.03004292e-01 1.50214592e-02 0. 0.
      -4.03433472e-01 2.06008583e-01 1.78111583e-01 1.93133056e-02 0. 0.
      -4.03433472e-01 1.84549361e-01 1.03004292e-01 1.15879826e-01 0. 0.
      -5.04291832e-01 3.77682418e-01 7.08154514e-02 5.57939932e-02 0. 0.
      -5.04291832e-01 3.94849777e-01 1.09442063e-01 0. 0. 0.
      6.62013948e-01 2.20338985e-01 9.77068767e-02 1.99401788e-02 0. 0.
      -3.37986052e-01 3.37986052e-01 0. 0. 0. 0. -5.18444665e-02
      4.48654033e-02 6.97906269e-03 0. 0. 0. -5.18444665e-02
      2.89132595e-02 2.29312070e-02 0. 0. 0. -5.18444665e-02
      4.48654033e-02 6.97906269e-03 0. 0. 0. -1.77467600e-01
      1.77467600e-01 0. 0. 0. 0. -1.77467600e-01 1.11665003e-01
      5.78265190e-02 7.97607191e-03 0. 0. -5.59322059e-01 4.51645076e-01
      1.07676968e-01 0. 0. 0. -5.59322059e-01 1.97407782e-01
      9.67098698e-02 2.14356929e-01 5.08474559e-02 0. -5.59322059e-01
      3.75872374e-01 8.17547366e-02 1.01694912e-01 0. 0. -3.37986052e-01
      3.21036875e-01 1.69491526e-02 0. 0. 0. -3.37986052e-01
      2.20338985e-01 9.77068767e-02 1.99401788e-02 0. 0. 4.05063301e-01
      3.64978909e-01 9.70464125e-02 1.32911399e-01 0. 0. -5.94936728e-01
      5.35864949e-01 5.90717308e-02 0. 0. 0. -1.18143462e-01
      2.53164563e-02 9.28270072e-02 0. 0. 0. -1.18143462e-01
      8.43881890e-02 0. 3.37552726e-02 0. 0. -1.18143462e-01
      9.07173008e-02 2.74261609e-02 0. 0. 0. -4.43037972e-02
      3.58649790e-02 8.43881816e-03 0. 0. 0. -4.43037972e-02
      4.43037972e-02 0. 0. 0. 0. -3.48101258e-01 3.35443050e-01
      1.26582282e-02 0. 0. 0. -3.48101258e-01 1.26582280e-01
      7.17299581e-02 1.49789035e-01 0. 0. -3.48101258e-01 1.26582280e-01
      1.11814342e-01 1.09704643e-01 0. 0. -5.94936728e-01 4.43037987e-01
      1.51898727e-01 0. 0. 0. -5.94936728e-01 3.64978909e-01
      9.70464125e-02 1.32911399e-01 0. 0.</_>
    <_>
      4.63917524e-01 3.98625433e-01 8.41924399e-02 5.32646030e-02 0. 0.
      -5.36082447e-01 4.41580743e-01 9.45017189e-02 0. 0. 0.
      -2.73195863e-01 1.28865972e-01 8.76288638e-02 5.67010306e-02 0. 0.
      -2.73195863e-01 2.52577305e-01 2.06185561e-02 0. 0. 0.
      -2.73195863e-01 2.35395193e-01 3.78006883e-02 0. 0. 0.
      -1.87285230e-01 1.30584195e-01 5.67010306e-02 0. 0. 0.
      -1.87285230e-01 1.47766322e-01 3.95189002e-02 0. 0. 0.
      -2.64604807e-01 2.43986249e-01 2.06185561e-02 0. 0. 0.
      -2.64604807e-01 2.18213052e-01 4.63917516e-02 0. 0. 0.
      -2.64604807e-01 1.49484530e-01 9.10652950e-02 2.40549836e-02 0. 0.
      -5.36082447e-01 4.67353940e-01 6.87285215e-02 0. 0. 0.
      -5.36082447e-01 3.98625433e-01 8.41924399e-02 5.32646030e-02 0. 0.
      5.02906978e-01 3.92926365e-01 7.65503868e-02 2.76162792e-02 0. 0.
      -4.97093022e-01 4.81104642e-01 1.59883723e-02 0. 0. 0.
      -9.98062044e-02 8.86627883e-02 1.11434106e-02 0. 0. 0.
      -9.98062044e-02 9.35077518e-02 6.29844982e-03 0. 0. 0.
      -9.98062044e-02 9.35077518e-02 6.29844982e-03 0. 0. 0.
      -1.59883723e-01 1.45348832e-01 1.45348841e-02 0. 0. 0.
      -1.59883723e-01 1.42441854e-01 1.74418613e-02 0. 0. 0.
      -4.18120146e-01 3.67248058e-01 4.69961241e-02 3.87596898e-03 0. 0.
      -4.18120146e-01 2.78100789e-01 1.15310080e-01 1.84108522e-02
      6.29844982e-03 0. -4.18120146e-01 1.96220934e-01 1.37112409e-01
      5.86240292e-02 2.61627901e-02 0. -4.97093022e-01 3.72093022e-01
      8.96317810e-02 3.53682153e-02 0. 0. -4.97093022e-01 3.92926365e-01
      7.65503868e-02 2.76162792e-02 0. 0. 5.39301336e-01 3.73362452e-01
      1.52838426e-02 7.20524043e-02 0. 0. -4.60698694e-01 3.68995637e-01
      9.17030573e-02 0. 0. 0. -3.55895191e-01 1.65938869e-01
      1.22270741e-01 6.76855892e-02 0. 0. -3.55895191e-01 1.57205239e-01
      1.13537118e-01 8.51528421e-02 0. 0. -3.55895191e-01 2.66375542e-01
      8.95196497e-02 0. 0. 0. -1.79039299e-01 1.41921401e-01
      2.18340605e-02 1.52838426e-02 0. 0. -1.79039299e-01 1.44104809e-01
      1.31004369e-02 2.18340605e-02 0. 0. -2.46724889e-01 2.18340605e-01
      2.83842795e-02 0. 0. 0. -2.46724889e-01 1.85589522e-01
      3.93013097e-02 2.18340605e-02 0. 0. -2.46724889e-01 5.67685589e-02
      5.24017476e-02 1.37554586e-01 0. 0. -4.60698694e-01 3.88646275e-01
      5.45851514e-02 1.74672492e-02 0. 0. -4.60698694e-01 3.73362452e-01
      1.52838426e-02 7.20524043e-02 0. 0.</_>
    <_>
      4.67652500e-01 3.80776346e-01 1.25693157e-01 2.58780029e-02 0. 0.
      -5.32347500e-01 4.60258782e-01 7.20887259e-02 0. 0. 0.
      -1.31238446e-01 1.01663589e-01 2.95748618e-02 0. 0. 0.
      -1.31238446e-01 9.79667306e-02 3.32717188e-02 0. 0. 0.
      -1.31238446e-01 1.31238446e-01 0. 0. 0. 0. -2.82809615e-01
      2.75415897e-01 7.39371544e-03 0. 0. 0. -2.82809615e-01
      2.58780032e-01 2.40295753e-02 0. 0. 0. -2.40295753e-01
      1.82994455e-01 5.73012941e-02 0. 0. 0. -2.40295753e-01
      1.64510161e-01 4.62107211e-02 2.95748618e-02 0. 0. -2.40295753e-01
      1.49722740e-01 6.65434375e-02 2.40295753e-02 0. 0. -5.32347500e-01
      5.00924230e-01 3.14232893e-02 0. 0. 0. -5.32347500e-01
      3.80776346e-01 1.25693157e-01 2.58780029e-02 0. 0. 4.96183217e-01
      2.56573379e-01 7.71840513e-02 7.67599642e-02 6.48854971e-02
      2.84139104e-02 -5.03816783e-01 4.92366403e-01 8.05767626e-03
      3.39270569e-03 0. 0. -1.09838843e-01 9.88125503e-02 1.10262930e-02
      0. 0. 0. -1.09838843e-01 1.05173878e-01 4.66497010e-03 0. 0. 0.
      -1.09838843e-01 9.71162021e-02 1.27226459e-02 0. 0. 0.
      -3.26972008e-01 3.16369802e-01 1.06022051e-02 0. 0. 0.
      -3.26972008e-01 2.65903294e-01 5.55555560e-02 5.51314652e-03 0. 0.
      -3.29092443e-01 2.68023759e-01 5.76759949e-02 3.39270569e-03 0. 0.
      -3.29092443e-01 2.09075481e-01 9.37234908e-02 1.31467348e-02
      1.31467348e-02 0. -3.29092443e-01 1.93808317e-01 6.48854971e-02
