<?xml version="1.0"?>
<opencv_storage>
<default_classifier_name type_id="opencv-ml-svm">
  <svm_type>C_SVC</svm_type>
  <kernel><type>RBF</type>
    <gamma>5.0000000000000000e-01</gamma></kernel>
  <C>1.</C>
  <term_criteria><epsilon>1.1920928955078125e-07</epsilon>
    <iterations>1000</iterations></term_criteria>
  <var_all>8</var_all>
  <var_count>8</var_count>
  <class_count>2</class_count>
  <class_labels type_id="opencv-matrix">
    <rows>1</rows>
    <cols>2</cols>
    <dt>i</dt>
    <data>
      1 2</data></class_labels>
  <sv_total>20</sv_total>
  <support_vectors>
    <_>
      1.33451954e-01 9.07473266e-02 1.56583622e-01 8.54092538e-02
      2.08185047e-01 1.01423487e-01 6.58362955e-02 1.58362985e-01</_>
    <_>
      1.56914890e-01 1.58244669e-01 2.92553175e-02 9.44148898e-02
      2.34042540e-01 2.00797871e-01 7.31382966e-02 5.31914867e-02</_>
    <_>
      1.49851635e-01 9.05044526e-02 9.34718102e-02 1.27596438e-01
      1.86943620e-01 1.40949547e-01 1.14243321e-01 9.64391679e-02</_>
    <_>
      1.07485600e-01 1.93857953e-01 5.56621850e-02 7.10172728e-02
      2.78310925e-01 1.47792697e-01 4.99040298e-02 9.59692895e-02</_>
    <_>
      1.25541121e-01 1.22655123e-01 4.47330438e-02 1.03896104e-01
      2.92929292e-01 1.06782109e-01 9.95671004e-02 1.03896104e-01</_>
    <_>
      1.24868825e-01 1.34312689e-01 1.35362014e-01 1.09129056e-01
      1.69989496e-01 1.47953823e-01 8.07974786e-02 9.75865647e-02</_>
    <_>
      1.00817442e-01 1.37148052e-01 7.26612210e-02 1.18074484e-01
      1.31698459e-01 2.58855581e-01 1.01725705e-01 7.90190771e-02</_>
    <_>
      1.47222221e-01 1.33333325e-01 1.13888890e-01 1.00925922e-01
      1.50925919e-01 1.63888887e-01 8.51851851e-02 1.04629628e-01</_>
    <_>
      1.73694775e-01 1.30522087e-01 8.93574283e-02 1.13453813e-01
      1.59638554e-01 1.73694775e-01 7.73092359e-02 8.23293179e-02</_>
    <_>
      1.65450126e-01 9.12408754e-02 1.33819953e-01 7.42092431e-02
      1.72749385e-01 2.20194653e-01 3.64963487e-02 1.05839416e-01</_>
    <_>
      9.06801000e-02 1.78841308e-01 5.91939539e-02 9.82367694e-02
      2.15365231e-01 1.85138538e-01 8.43828693e-02 8.81612077e-02</_>
    <_>
      7.04225302e-02 1.74295768e-01 1.32042244e-01 5.63380271e-02
      2.95774639e-01 7.39436597e-02 1.51408449e-01 4.57746461e-02</_>
    <_>
      8.65561739e-02 1.87845305e-01 1.21546961e-01 6.62983432e-02
      2.63351768e-01 6.44567236e-02 1.41804785e-01 6.81399629e-02</_>
    <_>
      1.02249488e-01 2.31083840e-01 4.90797535e-02 6.54396713e-02
      2.69938648e-01 1.06339470e-01 1.26789361e-01 4.90797535e-02</_>
    <_>
      2.45545417e-01 2.95523684e-02 2.65102126e-02 1.04737066e-01
      4.60669249e-02 4.45023894e-01 4.47631441e-02 5.78009561e-02</_>
    <_>
      5.18867932e-02 2.33490571e-01 1.46226421e-01 6.36792481e-02
      2.71226406e-01 8.49056616e-02 1.01415098e-01 4.71698120e-02</_>
    <_>
      5.33333346e-02 3.71111125e-01 6.00000024e-02 1.15555555e-01
      1.68888897e-01 1.66666672e-01 3.99999991e-02 2.44444460e-02</_>
    <_>
      8.05687234e-02 2.87519753e-01 6.47709295e-02 6.00315966e-02
      1.92733020e-01 1.86413899e-01 3.00157983e-02 9.79462862e-02</_>
    <_>
      7.56843835e-02 3.38164240e-01 7.72946849e-02 1.12721421e-01
      1.62640899e-01 1.43317237e-01 2.41545904e-02 6.60225451e-02</_>
    <_>
      5.61797768e-02 2.35955060e-01 1.68539330e-01 8.76404494e-02
      2.38202244e-01 6.29213452e-02 1.07865170e-01 4.26966287e-02</_></support_vectors>
  <decision_functions>
    <_>
      <sv_count>20</sv_count>
      <rho>6.6424161195755005e-02</rho>
      <alpha>
        1. 1. 1. 1. 1. 1. 1. 1. 1. 1. -1. -1. -1. -1. -1. -1. -1. -1.
        -1. -1.</alpha>
      <index>
        0 1 2 3 4 5 6 7 8 9 10 11 12 13 14 15 16 17 18 19</index></_></decision_functions></default_classifier_name>
</opencv_storage>
