<?xml version="1.0"?>
<opencv_storage>
<default_classifier_name type_id="opencv-ml-svm">
  <svm_type>C_SVC</svm_type>
  <kernel><type>RBF</type>
    <gamma>5.0000000000000000e-01</gamma></kernel>
  <C>1.</C>
  <term_criteria><epsilon>1.1920928955078125e-07</epsilon>
    <iterations>1000</iterations></term_criteria>
  <var_all>8</var_all>
  <var_count>8</var_count>
  <class_count>2</class_count>
  <class_labels type_id="opencv-matrix">
    <rows>1</rows>
    <cols>2</cols>
    <dt>i</dt>
    <data>
      1 2</data></class_labels>
  <sv_total>20</sv_total>
  <support_vectors>
    <_>
      1.51851848e-01 2.51851857e-01 1.33333325e-01 2.59259250e-02
      9.62962955e-02 1.33333325e-01 1.33333325e-01 7.40740746e-02</_>
    <_>
      1.28805622e-01 2.76346594e-01 1.35831371e-01 4.68384065e-02
      1.52224824e-01 8.19672123e-02 9.36768129e-02 8.43091309e-02</_>
    <_>
      1.81556195e-01 2.56484151e-01 1.06628239e-01 3.45821306e-02
      1.21037461e-01 1.06628239e-01 1.38328522e-01 5.47550432e-02</_>
    <_>
      1.26436785e-01 3.67816091e-01 1.53256699e-01 4.59770113e-02
      1.18773945e-01 4.59770113e-02 6.51341006e-02 7.66283497e-02</_>
    <_>
      7.08661377e-02 2.59842515e-01 7.48031512e-02 6.69291317e-02
      1.92913383e-01 1.29921257e-01 1.73228353e-01 3.14960629e-02</_>
    <_>
      1.29237294e-01 2.54237294e-01 1.22881353e-01 3.38983051e-02
      2.03389823e-01 9.95762721e-02 1.03813559e-01 5.29661030e-02</_>
    <_>
      7.72594810e-02 1.85131207e-01 1.12244904e-01 8.89212862e-02
      2.52186596e-01 1.42857149e-01 8.01749304e-02 6.12244904e-02</_>
    <_>
      1.20300755e-01 2.29323313e-01 1.03383459e-01 8.08270723e-02
      2.03007519e-01 1.07142858e-01 1.07142858e-01 4.88721803e-02</_>
    <_>
      1.47577092e-01 2.53303945e-01 8.14977959e-02 8.14977959e-02
      2.11453736e-01 9.25110132e-02 8.14977959e-02 5.06607890e-02</_>
    <_>
      1.78343952e-01 1.48619965e-01 1.04033977e-01 4.67091314e-02
      2.25053087e-01 8.91719759e-02 1.59235671e-01 4.88322750e-02</_>
    <_>
      1.92982465e-01 2.13450298e-01 1.57894731e-01 3.21637429e-02
      1.54970765e-01 1.08187139e-01 8.18713456e-02 5.84795326e-02</_>
    <_>
      1.31818175e-01 3.36363614e-01 1.72727272e-01 6.81818128e-02
      9.54545438e-02 8.18181783e-02 7.27272704e-02 4.09090891e-02</_>
    <_>
      1.37440771e-01 2.22748816e-01 1.84834123e-01 3.31753567e-02
      1.23222753e-01 1.27962083e-01 1.56398118e-01 1.42180100e-02</_>
    <_>
      1.47058830e-01 3.16176474e-01 1.50735289e-01 5.14705889e-02
      1.10294119e-01 5.88235296e-02 8.08823556e-02 8.45588222e-02</_>
    <_>
      8.81182551e-02 3.80898267e-02 3.35417874e-02 3.06992624e-02
      3.50198984e-01 1.48948267e-01 2.43888587e-01 6.65150657e-02</_>
    <_>
      1.25000000e-01 4.92187500e-01 1.25000000e-01 4.68750000e-02
      2.34375000e-02 7.81250000e-02 4.68750000e-02 6.25000000e-02</_>
    <_>
      8.51063803e-02 2.55319148e-01 1.27659574e-01 6.38297871e-02
      3.04964542e-01 6.38297871e-02 7.09219873e-02 2.83687934e-02</_>
    <_>
      7.90697634e-02 1.86046511e-01 1.58139527e-01 7.44186044e-02
      2.32558131e-01 1.39534891e-01 1.06976748e-01 2.32558139e-02</_>
    <_>
      2.04918027e-01 1.96721300e-01 1.31147534e-01 6.96721300e-02
      1.80327863e-01 1.02459013e-01 5.73770478e-02 5.73770478e-02</_>
    <_>
      1.15646258e-01 3.67346942e-01 2.31292516e-01 2.72108838e-02
      5.44217676e-02 6.12244904e-02 8.84353742e-02 5.44217676e-02</_></support_vectors>
  <decision_functions>
    <_>
      <sv_count>20</sv_count>
      <rho>9.0058952569961548e-02</rho>
      <alpha>
        1. 1. 1. 1. 1. 1. 1. 1. 1. 1. -1. -1. -1. -1. -1. -1. -1. -1.
        -1. -1.</alpha>
      <index>
        0 1 2 3 4 5 6 7 8 9 10 11 12 13 14 15 16 17 18 19</index></_></decision_functions></default_classifier_name>
</opencv_storage>
